tree
version=v4
num_class=1
num_tree_per_iteration=1
label_index=0
max_feature_idx=79
objective=regression
feature_names=Column_0 Column_1 Column_2 Column_3 Column_4 Column_5 Column_6 Column_7 Column_8 Column_9 Column_10 Column_11 Column_12 Column_13 Column_14 Column_15 Column_16 Column_17 Column_18 Column_19 Column_20 Column_21 Column_22 Column_23 Column_24 Column_25 Column_26 Column_27 Column_28 Column_29 Column_30 Column_31 Column_32 Column_33 Column_34 Column_35 Column_36 Column_37 Column_38 Column_39 Column_40 Column_41 Column_42 Column_43 Column_44 Column_45 Column_46 Column_47 Column_48 Column_49 Column_50 Column_51 Column_52 Column_53 Column_54 Column_55 Column_56 Column_57 Column_58 Column_59 Column_60 Column_61 Column_62 Column_63 Column_64 Column_65 Column_66 Column_67 Column_68 Column_69 Column_70 Column_71 Column_72 Column_73 Column_74 Column_75 Column_76 Column_77 Column_78 Column_79
feature_infos=[27555.4296875:141030.234375] [42.631999969482422:6012.419921875] [-4.1974139213562012:29.082757949829102] [-4.1974139213562012:29.082757949829102] [-4.1974139213562012:29.082757949829102] [-2.3931033611297607:29.082757949829102] [-2.7925581932067871:27.43565559387207] [-3.1518964767456055:27.815130233764648] [-2.6130292415618896:28.585823059082031] [0:1] [0:1] [-6.2469825744628906:5.4982757568359375] [-5.7270913124084473:4.2964434623718262] [-5.4060773849487305:5.4337067604064941] [-4.3462424278259277:3.2152447700500488] [0:1] [0:1] [0:11] [1:12] [2016:2022] [0:1] [0:1] [0:1] [0:1] [0:1] [0:1] [-0.99996298551559448:1] [-0.99999076128005981:0.99999076128005981] [0:6] [1:4] [0:2] [1:366] [1:31] [1:53] [0:6] [0:3] [0:3] none [0:1] [0:13] [0:38] [0:6] none [0:7] none [0:7] [0:1] [8.2427778244018555:16.112222671508789] [0:20.697414398193359] [0:121.73577880859375] [42127.09765625:1015272.4375] [0:20.697414398193359] [-4.1974139213562012:29.082757949829102] [43611.609375:1017745.9375] [0:18.893102645874023] [-2.3931033611297607:29.082757949829102] [42127.09765625:1017745.9375] [0:18.541379928588867] [-2.0413792133331299:29.082757949829102] [43611.609375:1015272.4375] [0:20.697414398193359] [-4.1974139213562012:29.082757949829102] [42127.09765625:1017745.9375] [0:18.893102645874023] [-2.3931033611297607:28.667673110961914] [0.29091864824295044:2.7413263320922852] [46936.6171875:1009162] [46201.78515625:990644] [95.902801513671875:143911.59375] [52610.59375:973364.3125] [50892.8984375:941477.875] [3273.728759765625:188551.625] [54564.98046875:919765.0625] [54711.0625:906004.4375] [4203.9775390625:225995.796875] [0:1] [0:1] [0:16.927154541015625] [0:5] [0:20.697414398193359]
tree_sizes=1413 1414 1413 1414 1420 1430 1426 1429 1428 1433 1417 1422 1420 1429 1431 1423 1428 1430 1429 1432 1437 1429 1437 1434 1434 1442 1432 1442 1434 1451 1452 1438 1446 1450 1451 1458 1459 1458 1450 1461 1469 1467 1458 1463 1458 1456 1452 1464 1465 1456 1465 1468 1469 1469 1478 1465 1480 1470 1473 1480 1472 1482 1469 1475 1483 1485 1482 1487 1488 1487 1486 1477 1480 1487 1488 1489 1491 1484 1492 1491 1488 1494 1485 1491 1491 1490 1489 1493 1492 1501 1493 1502 1507 1494 1498 1504 1500 1501 1501 1508 1502 1503 1500 1500 1513 1499 1508 1499 1500 1504 1503 1516 1509 1514 1501 1510 1502 1507 1506 1515 1505 1507 1515 1523 1506 1504 1511 1511 1519 1520 1501 1502 1510 1514 1506 1507 1515 1512 1519 1506 1509 1518 1516 1514 1515 1522 1516 1513 1515 1510 1510 1523 1512 1524 1516 1514 1522 1520 1516 1515 1510 1510 1513 1513 1518 1505 1518 1519 1522 1515 1527 1525 1517 1517 1513 1521 1515 1507 1524 1512 1519 1522 1522 1513 1513 1520 1526 1524 1512 1511 1517 1514 1525 1522 1526 1524 1512 1517 1519 1524 1521 1517 1514 1527 1522 1524 1515 1512 1516 1518 1525 1521 1515 1520 1520 1514 1513 1524 1520 1523 1517 1522 1525 1518 1525 1524 1534 1531 1527 1519 1521 1527 1527 1523 1527 1525 1522 1522 1529 1516 1530 1523 1518 1524 1524 1522 1524 1526 1523 1522 1534 1520 1518 1519 1521 1523 1520 1525 1520 1519 1527 1530 1521 1532 1523 1517 1524 1518 1533 1530 1524 1516 1520 1530 1521 1528 1530 1513 1535 1526 1528 1516 1520 1524 1521 1527 1522 1525 1525 1516 1515 1526 1515 1523 1519 1525 1523 1523 1527 1522 1520 1534 1517 1513 1521 1529 1529 1533 1525 1526 1528 1527 1523 1524 1530 1529 1521 1517 1527 1518 1524 1529 1525 1521 1529 1519 1522 1514 1525 1529 1529 1518 1519 1526 1514 1519 1522 1513 1523 1520 1526 1520 1530 1523 1523 1512 1524 1515 1520 1526 1524 1530 1525 1532 1525 1527 1527 1524 1531 1521 1527 1523 1527 1520 1529 1526 1528 1533 1529 1523 1524 1531 1527 1516 1518 1515 1526 1529 1522 1523 1526 1523 1534 1527 1538 1532 1522 1524 1531 1518 1528 1526 1518 1532 1531 1536 1509 1530 1525 1523 1519 1528 1530 1524 1522 1518 1521 1520 1527 1520 1522 1527 1531 1533 1534 1520 1532 1520 1512 1521 1527 1521 1522 1525 1519 1533 1533 1522 1518 1530 1533 1527 1527 1527 1507 1522 1524 1522 1513 1516 1525 1520 1537 1528 1533 1529 1533 1527 1537 1536 1523 1514 1529 1530 1524 1528 1517 1540

Tree=0
num_leaves=15
num_cat=0
split_feature=50 50 50 50 50 50 2 50 2 13 48 50 50 6
split_gain=1110.77 146.863 82.8629 26.2223 25.1366 11.2464 6.36803 5.10361 4.30166 3.37815 2.34583 2.00372 1.71718 1.06883
threshold=339485.12500000006 588649.81250000012 159824.53906250003 437758.95312500006 742911.93750000012 240838.05468750003 7.1469829082489023 103025.23437500001 5.6086208820343026 0.15202586352825168 5.2903017997741708 521645.37500000006 516096.12500000006 13.856014251708986
decision_type=2 2 2 2 2 2 2 2 2 2 2 2 2 2
left_child=2 3 7 9 8 13 11 -1 -3 -2 -7 -5 -8 -4
right_child=1 4 5 6 -6 10 12 -9 -10 -11 -12 -13 -14 -15
leaf_value=-0.053082417188963213 0.021840350258405472 0.078570654604030468 -0.021742251086504061 0.042755455441438196 0.11049831469474636 -0.010847674696348458 0.03078600938077921 -0.041811302565442417 0.062291858336211231 0.0075131241519917269 0.0030514521701552164 0.056165194494076226 0.041512814588630688 -0.030952456821359307
leaf_weight=420 96 93 63 52 55 75 108 132 72 72 51 60 57 63
leaf_count=420 96 93 63 52 55 75 108 132 72 72 51 60 57 63
internal_value=3.39498e-11 0.0478067 -0.0395416 0.0312852 0.081225 -0.0157846 0.0407376 -0.0503872 0.0714672 0.0157001 -0.00522184 0.0499392 0.0344916 -0.0263474
internal_weight=1469 665 804 445 220 252 277 552 165 168 126 112 165 126
internal_count=1469 665 804 445 220 252 277 552 165 168 126 112 165 126
is_linear=0
shrinkage=1


Tree=1
num_leaves=15
num_cat=0
split_feature=50 50 50 50 50 50 50 2 50 12 50 2 50 2
split_gain=1002.52 127.453 81.4531 22.7686 21.0839 9.92852 6.18371 5.32909 4.55812 3.02951 1.7525 1.72252 1.41119 1.28338
threshold=347914.98437500006 588649.81250000012 174856.46875000003 747804.84375000012 442717.18750000006 253547.89062500003 105665.53125000001 7.1469829082489023 658132.37500000012 0.21756508201360705 521645.37500000006 11.750000000000002 516096.12500000006 13.158404827117922
decision_type=2 2 2 2 2 2 2 2 2 2 2 2 2 2
left_child=2 4 6 8 9 13 -1 10 -3 -2 -6 -7 -9 -4
right_child=1 3 5 -5 7 11 -8 12 -10 -11 -12 -13 -14 -15
leaf_value=-0.050271605476047157 0.02164080632310883 0.060253030026660249 -0.01678452943363842 0.10682338404655456 0.040750284989674888 0.0032804260692620257 -0.038113931825627452 0.029524280362253647 0.076627537502962001 0.0076786055584575552 0.053356933544079471 -0.0087022003954497443 0.039437174823200499 -0.027006480424371482
leaf_weight=432 107 85 53 50 51 61 138 97 85 61 60 59 57 73
leaf_count=432 107 85 53 50 51 61 138 97 85 61 60 59 57 73
internal_value=1.65763e-10 0.0461737 -0.0369503 0.0771637 0.0304282 -0.012904 -0.0473282 0.039213 0.0684403 0.0165712 0.0475647 -0.00261103 0.0331933 -0.0227068
internal_weight=1469 653 816 220 433 246 570 265 170 168 111 120 154 126
internal_count=1469 653 816 220 433 246 570 265 170 168 111 120 154 126
is_linear=0
shrinkage=0.05


Tree=2
num_leaves=15
num_cat=0
split_feature=50 50 50 50 50 50 50 50 48 13 13 79 79 48
split_gain=904.993 133.475 50.15 29.3985 17.7618 8.29716 5.42671 4.14284 3.74752 2.85674 2.36121 2.1514 1.06511 0.886048
threshold=309129.92187500006 550367.28125000012 159824.53906250003 742911.93750000012 437758.95312500006 635304.03125000012 240838.05468750003 103025.23437500001 7.06357765197754 -0.5506034493446349 0.11603448167443277 10.472844600677492 4.7950432300567636 2.165732860565186
decision_type=2 2 2 2 2 2 2 2 2 2 2 2 2 2
left_child=2 4 7 5 8 10 13 -1 12 -6 -3 -7 -2 -4
right_child=1 3 6 -5 9 11 -8 -9 -10 -11 -12 -13 -14 -15
leaf_value=-0.047914716267869584 0.0023706635549360028 0.057137190482833167 -0.028306612577931635 0.09976948369633068 0.0418725521791549 0.062537505072459851 -0.0076913519741760366 -0.037759778467994748 0.020769250135009104 0.029065755087261398 0.043548605182478509 0.076531827056183013 0.011569472158434572 -0.019894296796444586
leaf_weight=420 65 66 58 55 63 57 90 132 78 141 62 53 61 68
leaf_count=420 65 66 58 55 63 57 90 132 78 141 62 53 61 68
internal_value=2.57378e-11 0.0410774 -0.0374939 0.0668233 0.0225884 0.0592096 -0.0170686 -0.0454864 0.012156 0.0330208 0.0505552 0.0692802 0.00682406 -0.0237666
internal_weight=1469 701 768 293 408 238 216 552 204 204 128 110 126 126
internal_count=1469 701 768 293 408 238 216 552 204 204 128 110 126 126
is_linear=0
shrinkage=0.05


Tree=3
num_leaves=15
num_cat=0
split_feature=50 50 50 50 50 50 2 2 50 13 50 48 50 2
split_gain=817.365 108.215 60.8303 19.1137 18.5872 8.24382 4.80589 3.80326 3.76144 2.58488 1.47562 1.42877 1.28743 1.2128
threshold=339485.12500000006 588649.81250000012 159824.53906250003 437758.95312500006 747804.84375000012 253547.89062500003 7.1469829082489023 5.6086208820343026 96348.132812500015 0.13297414034605029 521645.37500000006 4.9467670917510995 516096.12500000006 13.158404827117922
decision_type=2 2 2 2 2 2 2 2 2 2 2 2 2 2
left_child=2 3 8 9 7 13 10 -3 -1 -2 -5 -7 -8 -4
right_child=1 4 5 6 -6 11 12 -9 -10 -11 -12 -13 -14 -15
leaf_value=-0.045872175005766069 0.01895828830862516 0.068301588204718128 -0.015727401364660054 0.03672657118966946 0.096493741631507882 -0.0085619092314389716 0.026263024513092304 0.053192949907420434 -0.03680802500910229 0.006446443277264448 0.048234279751777652 0.0029577656118336191 0.035551087087706518 -0.025110560124632961
leaf_weight=390 95 97 57 52 50 57 108 73 162 73 60 51 57 87
leaf_count=390 95 97 57 52 50 57 108 73 162 73 60 51 57 87
internal_value=-2.4828e-10 0.0410095 -0.0339195 0.0268276 0.0696956 -0.0135645 0.0348977 0.0618138 -0.043212 0.0135216 0.0428914 -0.00312206 0.0294716 -0.0213964
internal_weight=1469 665 804 445 220 252 277 170 552 168 112 108 165 144
internal_count=1469 665 804 445 220 252 277 170 552 168 112 108 165 144
is_linear=0
shrinkage=0.05


Tree=4
num_leaves=15
num_cat=0
split_feature=50 50 50 50 50 50 50 2 79 2 79 11 59 2
split_gain=737.881 93.905 59.8029 16.2785 16.0804 8.00382 4.29019 3.97851 3.60143 3.39832 1.49668 1.28146 1.04404 0.991474
threshold=347914.98437500006 592168.12500000012 203862.25781250003 747804.84375000012 456584.35937500006 116072.80468750001 282835.75000000006 8.0204739570617694 11.011853218078615 9.7144393920898455 10.04461193084717 0.05064655281603337 80238.628906250015 15.683620929718019
decision_type=2 2 2 2 2 2 2 2 2 2 2 2 2 2
left_child=2 4 5 8 9 12 11 10 -3 -2 -6 -4 -1 -7
right_child=1 3 6 -5 7 13 -8 -9 -10 -11 -12 -13 -14 -15
leaf_value=-0.045020079344022468 0.021580519265419731 0.052994816583030083 -0.0089799626200492005 0.09166905558109284 0.036487411113267532 -0.025728388921714127 0.00041097845543325621 0.027347991160220571 0.068036588537159257 0.0083823440558994291 0.047164368916016358 -0.019319558960776178 -0.040258760558902679 -0.033884616692860921
leaf_weight=244 111 98 58 50 89 81 84 99 67 87 52 62 218 69
leaf_count=244 111 98 58 50 89 81 84 99 67 87 52 62 218 69
internal_value=1.30401e-10 0.0396133 -0.0317003 0.0666763 0.0263289 -0.0395153 -0.00825553 0.0350307 0.0591027 0.0157813 0.040425 -0.0143221 -0.0427734 -0.0294803
internal_weight=1469 653 816 215 438 612 204 240 165 198 141 120 462 150
internal_count=1469 653 816 215 438 612 204 240 165 198 141 120 462 150
is_linear=0
shrinkage=0.05


Tree=5
num_leaves=15
num_cat=0
split_feature=50 50 50 50 50 6 13 50 13 13 50 50 50 2
split_gain=665.961 98.6577 36.8363 22.0781 12.9341 4.25633 3.45564 3.11531 2.87154 2.34013 1.42816 1.03145 0.883436 0.769229
threshold=309129.92187500006 550367.28125000012 159824.53906250003 693342.81250000012 437758.95312500006 12.329586505889894 0.045689653605222709 94048.816406250015 -0.21372845023870465 -0.5506034493446349 609415.62500000012 215385.76562500003 372632.82812500006 16.161421775817875
decision_type=2 2 2 2 2 2 2 2 2 2 2 2 2 2
left_child=2 4 7 6 8 -4 10 -1 -2 -6 -3 -7 -10 -9
right_child=1 3 5 -5 9 11 -8 13 12 -11 -12 -13 -14 -15
leaf_value=-0.041626165574917232 0.016793607417494059 0.048378120534695118 -0.0041912092959313701 0.077186859501035598 0.036255711719157202 -0.022925251358470254 0.040987169256335811 -0.029317622180237913 1.1520473955897615e-05 0.024664587655652923 0.060153906076562173 -0.014504154611911095 0.0090450986489748302 -0.036100433923696218
leaf_weight=372 95 52 67 95 63 86 95 66 50 141 51 63 59 114
leaf_count=372 95 52 67 95 63 86 95 66 50 141 51 63 59 114
internal_value=-3.34991e-11 0.0352375 -0.0321634 0.0573722 0.0193418 -0.0146581 0.0478651 -0.0390133 0.0104394 0.0282442 0.0542088 -0.0193647 0.00490126 -0.0336134
internal_weight=1469 701 768 293 408 216 198 552 204 204 103 149 109 180
internal_count=1469 701 768 293 408 216 198 552 204 204 103 149 109 180
is_linear=0
shrinkage=0.05


Tree=6
num_leaves=15
num_cat=0
split_feature=50 50 50 50 50 50 50 79 2 79 12 11 69 59
split_gain=601.46 76.8593 48.7468 14.4693 12.494 5.95559 3.80048 3.69238 2.87309 2.69352 1.53372 1.30135 1.06623 0.89637
threshold=347914.98437500006 604921.68750000012 174856.46875000003 456584.35937500006 747804.84375000012 253547.89062500003 116072.80468750001 9.6959052085876483 9.0655174255371112 11.011853218078615 0.90087622404098522 -0.18254310637712476 501399.64062500006 80238.628906250015
decision_type=2 2 2 2 2 2 2 2 2 2 2 2 2 2
left_child=2 3 6 8 9 -4 13 10 -2 -3 12 -7 -5 -1
right_child=1 4 5 7 -6 11 -8 -9 -10 -11 -12 -13 -14 -15
leaf_value=-0.040704394583819345 0.020756445947911716 0.048585702270962476 -0.017610188044371113 0.025821186923513224 0.083226260304451002 0.0031607853071667102 -0.028204425589905848 0.042218104749917988 0.0086709431050536797 0.062132484884932643 0.021506074957411598 -0.0072529528619876757 0.035028406577866253 -0.03629263899195085
leaf_weight=244 91 86 126 51 50 60 108 68 107 64 54 60 82 218
leaf_count=244 91 86 126 51 50 60 108 68 107 64 54 60 82 218
internal_value=-2.10651e-10 0.0357644 -0.0286203 0.0243664 0.0615808 -0.0100179 -0.0366487 0.0322407 0.0142254 0.0543657 0.0286125 -0.00204608 0.0314978 -0.0386227
internal_weight=1469 653 816 453 200 246 570 255 198 150 187 120 133 462
internal_count=1469 653 816 453 200 246 570 255 198 150 187 120 133 462
is_linear=0
shrinkage=0.05


Tree=7
num_leaves=15
num_cat=0
split_feature=50 50 8 50 50 50 13 13 50 13 7 50 50 50
split_gain=542.942 80.8869 29.9591 19.1583 9.41382 3.86175 3.4626 2.42074 2.26792 1.67112 1.25068 1.09127 1.01241 0.704585
threshold=309129.92187500006 539115.56250000012 15.449648380279543 693342.81250000012 437758.95312500006 219908.76562500003 0.034137930721044547 -0.21372845023870465 88371.410156250015 -0.41012930870056147 12.025689601898195 609415.62500000012 600999.87500000012 123209.85937500001
decision_type=2 2 2 2 2 2 2 2 2 2 2 2 2 2
left_child=2 4 5 6 7 -1 11 -2 -4 -6 -7 -3 -8 -10
right_child=1 3 8 -5 9 10 12 -9 13 -11 -12 -13 -14 -15
leaf_value=-0.020582966604693373 0.015266383776539251 0.044221819990447594 -0.038063115653831789 0.06980126374646238 0.031612134989230864 -0.0017612729149942216 0.031191989341202903 0.0043473611928099651 -0.033538372609494389 0.021636124954093248 -0.012129650431487596 0.054331772584541173 0.041106684448627327 -0.027491241975410564
leaf_weight=110 95 56 328 95 62 52 51 109 138 130 66 51 52 74
leaf_count=110 95 56 328 95 62 52 51 109 138 130 66 51 52 74
internal_value=1.08748e-10 0.0318169 -0.0290412 0.0511698 0.0169112 -0.0138433 0.0427413 0.0094322 -0.0354581 0.0248575 -0.00756053 0.0490406 0.0361975 -0.0314276
internal_weight=1469 701 768 305 396 228 210 204 540 192 118 107 103 212
internal_count=1469 701 768 305 396 228 210 204 540 192 118 107 103 212
is_linear=0
shrinkage=0.05


Tree=8
num_leaves=15
num_cat=0
split_feature=50 50 50 7 48 50 50 2 48 50 67 50 14 79
split_gain=490.652 61.4853 41.5782 11.7217 10.0969 5.60315 3.05567 3.02527 2.41547 2.37524 0.932808 0.860179 0.792881 0.689543
threshold=351756.54687500006 592168.12500000012 205751.76562500003 2.7883836030960087 8.3967671394348162 123209.85937500001 437758.95312500006 11.750000000000002 10.987715721130373 505155.37500000006 271306.06250000006 88371.410156250015 0.44968546926975256 9.3700432777404803
decision_type=2 2 2 2 2 2 2 2 2 2 2 2 2 2
left_child=2 4 5 -3 6 11 12 -4 -5 -6 -9 -1 -2 -11
right_child=1 3 7 8 9 -7 -8 10 -10 13 -12 -13 -14 -15
leaf_value=-0.036128653549786775 0.012610283287594448 0.074830674506583303 0.0015163965396095592 0.041166214644908911 0.024409568074502445 -0.023459782306518823 0.020717357765533961 -0.014890341822277098 0.053410620627732108 0.031250717908144002 -0.0061761215325012546 -0.03149721945842935 0.0044597875329200178 0.039513784062628655
leaf_weight=330 74 53 80 75 95 144 112 68 87 50 56 144 50 51
leaf_count=330 74 53 80 75 95 144 112 68 87 50 56 144 50 51
internal_value=-1.02772e-10 0.0325709 -0.0256367 0.0544196 0.0216971 -0.0320975 0.0147309 -0.00606419 0.0477419 0.0300849 -0.0109549 -0.0347216 0.00932379 0.0354232
internal_weight=1469 647 822 215 432 618 236 204 162 196 124 474 124 101
internal_count=1469 647 822 215 432 618 236 204 162 196 124 474 124 101
is_linear=0
shrinkage=0.05


Tree=9
num_leaves=15
num_cat=0
split_feature=50 50 8 50 50 50 50 2 11 2 79 11 59 50
split_gain=442.813 55.4905 37.5293 10.954 9.20687 4.32579 3.78397 2.64456 2.57124 2.20011 0.975501 0.830234 0.753107 0.544815
threshold=351756.54687500006 592168.12500000012 14.402394294738771 747804.84375000012 456584.35937500006 259158.99218750003 123209.85937500001 8.0204739570617694 1.0000000180025095e-35 9.1202583312988299 10.04461193084717 -0.35064655542373652 69970.718750000015 215385.76562500003
decision_type=2 2 2 2 2 2 2 2 2 2 2 2 2 2
left_child=2 4 5 8 9 13 12 10 -3 -2 -6 -7 -4 -1
right_child=1 3 6 -5 7 11 -8 -9 -10 -11 -12 -13 -14 -15
leaf_value=-0.017123786521269314 0.018090046457127557 0.052757221588066651 -0.036042006223793797 0.072200560867786409 0.028359980630070974 0.0039698145507524414 -0.023089491683295219 0.020877235217226876 0.040128122223050976 0.0073708740105658845 0.036979771061585502 -0.0045103960823560619 -0.031740687573995917 -0.010265539120882751
leaf_weight=67 91 70 149 50 89 54 118 99 95 101 52 62 321 51
leaf_count=67 91 70 149 50 89 54 118 99 95 101 52 62 321 51
internal_value=-6.43216e-11 0.0309423 -0.0243549 0.0516986 0.0206122 -0.00741928 -0.0310945 0.027141 0.0454859 0.0124513 0.0315389 -0.000562712 -0.0331043 -0.0141596
internal_weight=1469 647 822 215 432 234 588 240 165 192 141 116 470 118
internal_count=1469 647 822 215 432 234 588 240 165 192 141 116 470 118
is_linear=0
shrinkage=0.05


Tree=10
num_leaves=15
num_cat=0
split_feature=50 50 50 50 6 50 7 12 8 50 79 13 6 79
split_gain=399.848 60.0367 22.2511 15.0448 6.78481 4.59255 2.59318 2.10744 1.94774 1.50708 1.48738 0.905586 0.881533 0.634021
threshold=309129.92187500006 534044.56250000012 159824.53906250003 742911.93750000012 9.5039200782775897 658132.37500000012 12.025689601898195 -0.269730195403099 17.25876617431641 437758.95312500006 4.7116379737854013 -0.41012930870056147 13.610079765319826 8.0228447914123553
decision_type=2 2 2 2 2 2 2 2 2 2 2 2 2 2
left_child=2 4 8 5 9 7 -4 -3 -1 -2 -6 -11 -8 -9
right_child=1 3 6 -5 10 -7 12 13 -10 11 -12 -13 -14 -15
leaf_value=-0.02461064098402858 0.014075541847410637 0.040731240032424391 -0.0018278310881686159 0.067415950569239533 0.001488205745465473 0.048525896035134797 -0.010699253068364497 0.025656031989134277 -0.031811302507089245 0.027828601667923586 0.010978815618776873 0.019796621411087664 -0.018078196192362225 0.033427034009177729
leaf_weight=120 74 71 54 55 77 80 79 52 432 56 89 94 83 53
leaf_count=120 74 71 54 55 77 80 79 52 432 56 89 94 83 53
internal_value=2.39139e-10 0.0273041 -0.0249221 0.0436901 0.0142374 0.0385927 -0.0113168 0.0340776 -0.0302459 0.0199146 0.00657654 0.0227952 -0.0144798 0.0295785
internal_weight=1469 701 768 311 390 256 216 176 552 224 166 150 162 105
internal_count=1469 701 768 311 390 256 216 176 552 224 166 150 162 105
is_linear=0
shrinkage=0.05


Tree=11
num_leaves=15
num_cat=0
split_feature=50 50 50 50 7 6 2 2 79 12 79 50 67 12
split_gain=361.109 45.6809 30.7313 10.8393 6.81868 4.18189 2.91329 2.25877 2.22238 1.27822 1.1588 0.712775 0.670709 0.58046
threshold=351756.54687500006 635304.03125000012 205751.76562500003 505155.37500000006 2.7883836030960087 16.393589019775394 8.1691808700561541 11.750000000000002 8.0228447914123553 0.13659497350454333 5.3717672824859628 86141.292968750015 271306.06250000006 -0.269730195403099
decision_type=2 2 2 2 2 2 2 2 2 2 2 2 2 2
left_child=2 3 5 6 -3 -1 -2 -4 -5 -6 -8 -7 -9 -10
right_child=1 4 7 8 9 11 10 12 13 -11 -12 -13 -14 -15
leaf_value=-0.020119381326025934 0.020710580702871087 0.065846209374128606 0.0013836110234115042 0.023531324973231869 0.048786252785901554 -0.03125916535363478 0.0055825195345096295 -0.012729655293857351 0.037768177182044622 0.03817118676203602 0.013620817541217835 -0.027197934240995054 -0.0053404217082840787 0.030332656491261264
leaf_weight=145 100 51 80 95 61 306 80 68 53 53 102 167 56 52
leaf_count=145 100 51 80 95 61 306 80 68 53 53 102 167 56 52
internal_value=1.47588e-10 0.0279423 -0.0219935 0.020169 0.0506496 -0.027548 0.0138545 -0.00516662 0.0290724 0.0438512 0.0100875 -0.0298253 -0.00939258 0.0340858
internal_weight=1469 647 822 482 165 618 282 204 200 114 182 473 124 105
internal_count=1469 647 822 482 165 618 282 204 200 114 182 473 124 105
is_linear=0
shrinkage=0.05


Tree=12
num_leaves=15
num_cat=0
split_feature=50 50 6 50 6 50 50 11 50 48 79 50 79 50
split_gain=326.001 49.036 18.3441 12.5924 5.56961 3.6934 2.23274 1.76033 1.50696 1.33365 1.23343 0.876669 0.56804 0.487744
threshold=309129.92187500006 534044.56250000012 15.141229152679445 742911.93750000012 9.5039200782775897 658132.37500000012 240838.05468750003 -0.094181034713983522 91068.035156250015 9.3366379737854022 4.7116379737854013 437758.95312500006 8.0885777473449725 143150.46875000003
decision_type=2 2 2 2 2 2 2 2 2 2 2 2 2 2
left_child=2 4 6 5 9 7 -1 -3 -4 11 -6 -2 -9 -10
right_child=1 3 8 -5 10 -7 -8 12 13 -11 -12 -13 -14 -15
leaf_value=-0.014409984290875772 0.010222724102121513 0.036621289438492542 -0.029435747352199278 0.061169175315986979 0.001270465962698399 0.043707440085709093 -0.0041383533077194064 0.022686141237616541 -0.02540665285674152 0.023164943633601071 0.0099130138931429711 0.018225374411452899 0.030150161454310789 -0.019709073424339293
leaf_weight=135 56 74 345 55 77 80 87 50 151 80 89 88 52 50
leaf_count=135 56 74 345 55 77 80 87 50 151 80 89 88 52 50
internal_value=8.39266e-11 0.0246542 -0.0225034 0.039463 0.0128451 0.0347996 -0.0103846 0.0307505 -0.0274308 0.0179888 0.00590412 0.0151132 0.0264913 -0.0239893
internal_weight=1469 701 768 311 390 256 222 176 546 224 166 144 102 201
internal_count=1469 701 768 311 390 256 222 176 546 224 166 144 102 201
is_linear=0
shrinkage=0.05


Tree=13
num_leaves=15
num_cat=0
split_feature=8 50 6 50 6 50 14 48 13 50 50 50 26 50
split_gain=294.575 41.6713 19.2486 8.54006 8.11684 2.75627 1.80397 1.77312 1.77037 1.36118 1.02339 0.955361 0.866322 0.524755
threshold=11.269795894622805 588649.81250000012 15.141229152679445 442717.18750000006 2.8105679750442509 259158.99218750003 -0.3852772563695907 7.5418102741241464 -0.41012930870056147 90268.218750000015 521645.37500000006 663940.00000000012 0.30080866813659674 178821.11718750003
decision_type=2 2 2 2 2 2 2 2 2 2 2 2 2 2
left_child=1 3 5 7 -3 13 -6 12 -5 -4 -10 -8 -1 -2
right_child=2 4 9 8 6 -7 11 -9 10 -11 -12 -13 -14 -15
leaf_value=7.3351961327716714e-05 -0.017103111765013553 0.059644730389118196 -0.028010032662248191 0.027115110382437708 0.044486228376626968 -0.0018995180030266735 0.028884809141357742 0.013606633905034799 0.015221757320041704 -0.022864399684800044 0.023023426398220991 0.03788403288043779 0.0085285443873025155 -0.010959693596762892
leaf_weight=66 53 50 339 90 52 86 60 78 101 207 72 58 56 101
leaf_count=66 53 50 339 90 52 86 60 78 101 207 72 58 56 101
internal_value=-1.34515e-10 0.0240192 -0.0208716 0.0155058 0.0419358 -0.0090698 0.0367273 0.00771879 0.0214275 -0.0260592 0.0184687 0.0333082 0.00395442 -0.013074
internal_weight=1469 683 786 463 220 240 170 200 263 546 173 118 122 154
internal_count=1469 683 786 463 220 240 170 200 263 546 173 118 122 154
is_linear=0
shrinkage=0.05


Tree=14
num_leaves=15
num_cat=0
split_feature=50 50 7 50 2 50 50 13 2 14 50 11 11 59
split_gain=266.165 33.8118 22.6964 7.17582 5.84998 2.6283 2.23721 1.91149 1.79228 1.37642 0.964644 0.808739 0.65743 0.583272
threshold=351756.54687500006 619722.15625000012 14.534719944000246 475457.15625000006 2.446336150169373 262877.50000000006 123209.85937500001 0.10950431227684022 10.273491382598879 0.4137986302375794 539115.56250000012 -1.5834051966667173 -0.35064655542373652 69970.718750000015
decision_type=2 2 2 2 2 2 2 2 2 2 2 2 2 2
left_child=2 3 5 8 -3 -1 13 10 11 -6 -5 -2 -7 -4
right_child=1 4 6 7 9 12 -8 -9 -10 -11 -12 -13 -14 -15
leaf_value=-0.010678497188189251 0.018824849970638755 0.056735962570882315 -0.028274814294488637 0.022615578341282021 0.041327971799506084 0.0041236283537000413 -0.017936038322232919 0.01818990809059589 0.0038714205229874047 0.03092788285330722 0.031383072240139122 0.011217835086301484 -0.0036692347282827917 -0.024489439390251569
leaf_weight=127 50 51 149 59 72 50 116 107 68 57 67 116 59 321
leaf_count=127 50 51 149 59 72 50 116 107 68 57 67 116 59 321
internal_value=5.55687e-11 0.0239894 -0.0188821 0.0168931 0.0424002 -0.00579014 -0.0241547 0.0231043 0.0107084 0.0367326 0.0272777 0.0135091 -9.45269e-05 -0.0256895
internal_weight=1469 647 822 467 180 236 586 233 234 129 126 166 109 470
internal_count=1469 647 822 467 180 236 586 233 234 129 126 166 109 470
is_linear=0
shrinkage=0.05


Tree=15
num_leaves=15
num_cat=0
split_feature=50 50 50 50 50 6 11 14 11 8 50 50 50 6
split_gain=240.225 33.3636 16.6152 6.80945 6.38011 2.39427 1.69368 1.58788 1.50569 1.1766 0.957281 0.920081 0.813722 0.648629
threshold=330912.40625000006 588649.81250000012 159824.53906250003 747804.84375000012 456584.35937500006 11.93869209289551 0.86099135875701915 0.13963613659143451 0.99612069129943859 17.70544528961182 539115.56250000012 658132.37500000012 394831.34375000006 13.610079765319826
decision_type=2 2 2 2 2 2 2 2 2 2 2 2 2 2
left_child=2 4 9 8 7 -4 10 12 11 -1 -6 -3 -2 -7
right_child=1 3 5 -5 6 13 -8 -9 -10 -11 -12 -13 -14 -15
leaf_value=-0.01947085652500391 0.0069629221094406352 0.031434443078257823 0.00031399568038950886 0.054087280392646792 0.019636498923328791 -0.0078444090471053614 0.012819610686311801 0.002920439690443049 0.025908645972901701 -0.024801932707212974 0.027365906134484308 0.040252748457714919 0.014884187339188219 -0.013970119723429285
leaf_weight=138 56 55 67 50 110 89 62 89 51 414 63 64 77 84
leaf_count=138 56 55 67 50 110 89 62 89 51 414 63 64 77 84
internal_value=1.14719e-10 0.0218694 -0.0186939 0.0378672 0.0141681 -0.00771085 0.0199101 0.00808975 0.0330965 -0.0234692 0.0224513 0.0361771 0.0115489 -0.0108187
internal_weight=1469 677 792 220 457 240 235 222 170 552 173 119 133 173
internal_count=1469 677 792 220 457 240 235 222 170 552 173 119 133 173
is_linear=0
shrinkage=0.05


Tree=16
num_leaves=15
num_cat=0
split_feature=8 50 50 50 2 50 50 50 12 50 70 79 79 12
split_gain=217.036 30.7176 14.2308 8.85811 3.48223 2.42448 1.72295 1.66461 1.29619 1.10114 0.569273 0.550267 0.477166 0.4411
threshold=11.269795894622805 534044.56250000012 159824.53906250003 742911.93750000012 8.1691808700561541 658132.37500000012 240838.05468750003 378823.90625000006 -0.34543067216873163 88371.410156250015 434744.87500000006 3.68857753276825 0.26961205899715429 0.59454616904258739
decision_type=2 2 2 2 2 2 2 2 2 2 2 2 2 2
left_child=1 4 9 5 10 8 -4 -6 -3 -2 -1 -8 -11 -9
right_child=2 3 6 -5 7 -7 11 13 -10 12 -12 -13 -14 -15
leaf_value=0.013256866486514347 -0.024127350174116366 0.030698467791080476 -0.011588516020262615 0.050419356606223369 0.00083483806940623452 0.035519935190677643 -0.0063188922843657007 0.01233403350571903 0.021778524302810964 -0.020822815267845643 0.019730719853015173 0.00080095854183823308 -0.015273595228791237 0.0070289385546597515
leaf_weight=57 330 64 125 55 72 80 58 89 112 172 84 51 50 70
leaf_count=57 330 64 125 55 72 80 58 89 112 172 84 51 50 70
internal_value=3.67582e-11 0.020617 -0.0179153 0.032214 0.0109217 0.0283027 -0.0075821 0.00714226 0.0250221 -0.0222957 0.0171136 -0.00298759 -0.019573 0.00999846
internal_weight=1469 683 786 311 372 256 234 231 176 552 141 109 222 159
internal_count=1469 683 786 311 372 256 234 231 176 552 141 109 222 159
is_linear=0
shrinkage=0.05


Tree=17
num_leaves=15
num_cat=0
split_feature=50 50 50 7 48 50 8 70 12 48 12 59 72 26
split_gain=196.042 31.296 9.33089 8.21012 4.07318 2.15573 1.24902 1.06428 0.990948 0.932703 0.928681 0.718302 0.550038 0.3931
threshold=297661.65625000006 534044.56250000012 145345.57812500003 2.7883836030960087 7.06357765197754 635304.03125000012 12.834452629089357 431636.04687500006 -0.33112096786499018 9.3366379737854022 0.24029437452554706 80238.628906250015 489171.93750000006 0.030119189061224464
decision_type=2 2 2 2 2 2 2 2 2 2 2 2 2 2
left_child=2 4 11 -3 7 8 -4 -2 -5 12 -7 -1 -6 -8
right_child=1 3 6 5 9 10 13 -9 -10 -11 -12 -13 -14 -15
leaf_value=-0.023534521945123753 0.0008368240547614224 0.048326181675548911 -0.0046001502029996899 0.028467274874448778 0.0090684517836306499 0.036068612904775713 -0.014355993575670504 0.0086703568140769176 0.019738828768372858 0.018353212389629333 0.026992488783948561 -0.019818855276790219 0.015275869121561286 -0.0089971979755708691
leaf_weight=246 109 54 84 50 86 63 88 72 93 80 51 276 61 56
leaf_count=246 109 54 84 50 86 63 88 72 93 80 51 276 61 56
internal_value=-3.33793e-11 0.0186552 -0.0178841 0.0306033 0.00954767 0.0268794 -0.00944554 0.00395293 0.0227907 0.0140087 0.0320082 -0.0215699 0.0116443 -0.012272
internal_weight=1469 719 750 311 408 257 228 181 143 227 114 522 147 144
internal_count=1469 719 750 311 408 257 228 181 143 227 114 522 147 144
is_linear=0
shrinkage=0.05


Tree=18
num_leaves=15
num_cat=0
split_feature=50 50 50 50 2 48 12 2 79 12 11 67 59 50
split_gain=177.019 21.0097 17.8908 4.60697 3.90607 2.13642 1.56622 1.51239 1.07041 0.930817 0.630341 0.65062 0.501754 0.402382
threshold=370210.00000000006 635304.03125000012 205751.76562500003 516096.12500000006 2.446336150169373 0.32478448748588568 0.60947775840759288 11.432327747344972 8.0228447914123553 0.13659497350454333 -1.5834051966667173 467797.29687500006 69970.718750000015 276778.73437500006
decision_type=2 2 2 2 2 2 2 2 2 2 2 2 2 2
left_child=2 3 5 6 -3 12 10 -4 -5 -6 -2 -12 -1 -9
right_child=1 4 7 8 9 -7 -8 13 -10 -11 11 -13 -14 -15
leaf_value=-0.023312703188922673 0.017968066494911908 0.047190827369689943 0.0021654821295301651 0.016641095631707511 0.03468348777196447 -0.013642795692475243 0.0048320982533914501 -0.0083264299849157824 0.024501376885055295 0.025670074216193623 0.0090330019442018943 0.015840510563416916 -0.019795873124728053 -0.0028070498436810107
leaf_weight=144 50 50 89 77 61 131 80 85 99 54 97 55 343 54
leaf_count=144 50 50 89 77 61 131 80 85 99 54 97 55 343 54
internal_value=-3.22302e-11 0.020226 -0.0148946 0.0147148 0.0355237 -0.019311 0.0107532 -0.00292368 0.0210625 0.0304511 0.0130982 0.0114962 -0.0208358 -0.00618221
internal_weight=1469 623 846 458 165 618 282 228 176 115 202 152 487 139
internal_count=1469 623 846 458 165 618 282 228 176 115 202 152 487 139
is_linear=0
shrinkage=0.05


Tree=19
num_leaves=15
num_cat=0
split_feature=8 50 6 50 50 50 11 11 11 50 59 50 2 6
split_gain=159.866 22.6922 10.6329 4.93913 4.76778 1.41375 1.28624 1.17714 0.992234 0.7996 0.79355 0.695877 0.328134 0.315047
threshold=11.269795894622805 592168.12500000012 15.141229152679445 437758.95312500006 747804.84375000012 259158.99218750003 -1.4603448510169981 1.0000000180025095e-35 -1.5560345053672788 521645.37500000006 85774.699218750015 372632.82812500006 12.977586269378664 16.672821044921879
decision_type=2 2 2 2 2 2 2 2 2 2 2 2 2 2
left_child=1 3 5 8 7 12 -5 -3 -1 -8 -4 -10 -2 -12
right_child=2 4 10 6 -6 -7 9 -9 11 -11 13 -13 -14 -15
leaf_value=0.011283297501329798 -0.0065831351741993185 0.03196190538150924 -0.021042168114451167 0.022907201712038004 0.044666662558913231 -0.0014689975309857104 0.011639232978871121 0.023416853390241923 -0.0015039187057901962 0.017635901572280809 -0.014441240191051405 0.0058230589755789144 -0.01131591832988519 -0.018317290363452768
leaf_weight=50 60 70 287 51 50 86 134 95 52 95 73 86 94 186
leaf_count=50 60 70 287 51 50 86 134 95 52 95 73 86 94 186
internal_value=-7.12618e-11 0.0176945 -0.0153758 0.0115173 0.0311408 -0.00660424 0.0157262 0.027042 0.00524864 0.0141269 -0.0192314 0.00306217 -0.00947198 -0.0172248
internal_weight=1469 683 786 468 215 240 280 165 188 229 546 138 154 259
internal_count=1469 683 786 468 215 240 280 165 188 229 546 138 154 259
is_linear=0
shrinkage=0.05


Tree=20
num_leaves=15
num_cat=0
split_feature=50 50 50 50 6 12 6 79 48 11 50 62 2 26
split_gain=144.456 23.0536 6.92964 6.3515 3.07853 1.31189 0.904807 0.795736 0.73828 0.586398 0.551964 0.469031 0.252736 0.246775
threshold=297661.65625000006 534044.56250000012 145345.57812500003 693342.81250000012 9.5039200782775897 -0.64037850499153126 13.610079765319826 4.7116379737854013 9.3366379737854022 1.0771551728248598 80241.785156250015 521498.20312500006 12.053017139434816 -0.07309242337942122
decision_type=2 2 2 2 2 2 2 2 2 2 2 2 2 2
left_child=2 4 10 5 8 -3 12 -6 11 -7 -1 -2 -4 -8
right_child=1 3 6 -5 7 9 13 -9 -10 -11 -12 -13 -14 -15
leaf_value=-0.020172859754326734 0.0078713419632936658 0.027812920361757278 -0.0023399941790848973 0.037042889845998662 -9.7613095776873766e-05 0.021280793157907634 -0.013543829132439728 0.0065210256247634178 0.015955193721456453 0.014777847974059675 -0.016920872764295023 0.013789432417028225 -0.0070227881775388277 -0.008794788872439634
leaf_weight=258 94 60 50 95 87 104 59 95 80 52 264 52 68 51
leaf_count=258 94 60 50 95 87 104 59 95 80 52 264 52 68 51
internal_value=-8.14194e-11 0.0160137 -0.0153518 0.0262685 0.008197 0.0215297 -0.00807969 0.00335717 0.0120946 0.0191131 -0.0185282 0.00997916 -0.00503855 -0.011342
internal_weight=1469 719 750 311 408 216 228 182 226 156 522 146 118 110
internal_count=1469 719 750 311 408 216 228 182 226 156 522 146 118 110
is_linear=0
shrinkage=0.05


Tree=21
num_leaves=15
num_cat=0
split_feature=50 50 8 50 48 69 79 11 12 79 50 34 79 59
split_gain=130.518 15.7479 13.1824 4.0309 3.01589 1.43461 1.26814 1.22255 1.08764 0.798667 0.625987 0.506266 0.404662 0.359822
threshold=370210.00000000006 654154.00000000012 14.01351833343506 505155.37500000006 13.572844982147219 123130.07812500001 4.7116379737854013 -0.79655173420906056 0.60947775840759288 8.0228447914123553 249549.39843750003 2.5000000000000004 0.33857758343219763 66625.640625000015
decision_type=2 2 2 2 2 2 2 2 2 2 2 2 2 2
left_child=2 3 6 8 -3 13 10 -5 11 -9 -1 -2 -7 -4
right_child=1 4 5 7 -6 12 -8 9 -10 -11 -12 -13 -14 -15
leaf_value=-0.008286821028989989 0.014007262326776982 0.026317721544656641 -0.020465644718218254 0.024306241435962814 0.041394055358789587 -0.014657603667745756 0.00302959107211791 0.01246565573816296 0.0037028718464441495 0.019362517064664422 -0.0022788687587624581 0.0086806670900572234 -0.0093585043139154875 -0.017269890860909909
leaf_weight=82 76 86 119 57 54 86 66 86 74 82 92 108 62 339
leaf_count=82 76 86 119 57 54 86 66 86 74 82 92 108 62 339
internal_value=-3.37517e-11 0.0173674 -0.0127895 0.0130876 0.0321329 -0.0167173 -0.00287176 0.0179788 0.008822 0.015832 -0.0051102 0.0108808 -0.0124377 -0.0181002
internal_weight=1469 623 846 483 140 606 240 225 258 168 174 184 148 458
internal_count=1469 623 846 483 140 606 240 225 258 168 174 184 148 458
is_linear=0
shrinkage=0.05


Tree=22
num_leaves=15
num_cat=0
split_feature=50 50 48 50 2 12 50 14 12 11 50 13 67 50
split_gain=117.854 16.6574 8.25404 4.13916 3.14261 1.24988 1.24094 0.951878 0.849907 0.702192 0.689022 0.483374 0.440786 0.403657
threshold=330912.40625000006 619722.15625000012 1.3461207151412966 456584.35937500006 2.446336150169373 0.96443814039230358 215385.76562500003 0.13963613659143451 -0.076613020151853548 -1.4217672348022459 117920.84375000001 -0.5506034493446349 499220.89062500006 394831.34375000006
decision_type=2 2 2 2 2 2 2 2 2 2 2 2 2 2
left_child=2 3 10 7 -3 9 -4 13 -6 -5 -1 -8 -11 -2
right_child=1 4 6 5 8 -7 11 -9 -10 12 -12 -13 -14 -15
leaf_value=-0.017265218621321337 0.0049676687993009446 0.03885743555192854 -0.0094449151818658799 0.021653860256075862 0.028903711749748751 0.0082479974949511425 0.0017632383848540487 0.0015170492301171835 0.020697300790532218 0.011234567419900983 -0.012716553195872726 -0.0044323735918356654 0.016708444424711907 0.01054675062549869
leaf_weight=453 56 51 102 50 55 59 50 89 74 55 102 85 111 77
leaf_count=453 56 51 102 50 55 59 50 89 74 55 102 85 111 77
internal_value=5.77322e-12 0.0153179 -0.0130937 0.0105979 0.0283502 0.0146977 -0.00528258 0.0055194 0.0241962 0.0164594 -0.0164292 -0.0021377 0.0148948 0.00819766
internal_weight=1469 677 792 497 180 275 237 222 129 216 555 135 166 133
internal_count=1469 677 792 497 180 275 237 222 129 216 555 135 166 133
is_linear=0
shrinkage=0.05


Tree=23
num_leaves=15
num_cat=0
split_feature=50 50 50 50 2 79 79 19 11 7 59 70 11 59
split_gain=106.469 17.0838 5.10933 5.01111 2.32543 1.33367 0.999398 0.707785 0.653883 0.644431 0.45279 0.432575 0.378542 0.360209
threshold=297661.65625000006 534044.56250000012 145345.57812500003 742911.93750000012 8.2659482955932635 9.9659485816955584 5.5814654827117929 2018.5000000000002 1.0771551728248598 12.893534660339357 79080.773437500015 434744.87500000006 -1.4603448510169981 454967.28125000006
decision_type=2 2 2 2 2 2 2 2 2 2 2 2 2 2
left_child=2 4 10 5 12 8 11 -7 -3 -4 -1 -6 -2 -8
right_child=1 3 9 -5 6 7 13 -9 -10 -11 -12 -13 -14 -15
leaf_value=-0.017540778518996686 0.015509485791199932 0.018901517558033053 -0.0035511912138404692 0.036268510175022216 -0.00069347698662078567 0.027963475682414498 0.0047290697888555857 0.020053490936275453 0.011797806743532419 -0.0090233204833992282 -0.014579703371661404 0.0049554682009801147 0.010188565831199366 0.010331017244607211
leaf_weight=234 51 92 87 55 91 52 55 62 50 141 288 54 97 60
leaf_count=234 51 92 87 55 91 52 55 62 50 141 288 54 97 60
internal_value=1.94288e-11 0.0137479 -0.0131797 0.0225756 0.00701893 0.0196338 0.00417096 0.0236616 0.0164002 -0.00693527 -0.0159071 0.00141027 0.0120221 0.00765182
internal_weight=1469 719 750 311 408 256 260 114 142 228 522 145 148 115
internal_count=1469 719 750 311 408 256 260 114 142 228 522 145 148 115
is_linear=0
shrinkage=0.05


Tree=24
num_leaves=15
num_cat=0
split_feature=50 50 50 50 2 79 11 11 12 50 79 59 34 34
split_gain=96.1699 11.6515 10.1349 2.94103 2.37234 1.25754 0.990678 0.951331 0.859247 0.479177 0.429684 0.386998 0.362116 0.224834
threshold=372632.82812500006 658132.37500000012 205751.76562500003 521645.37500000006 3.143318891525269 0.33857758343219763 -1.3510775566101072 0.56271553039550792 -0.64037850499153126 445204.75000000006 3.68857753276825 69970.718750000015 2.5000000000000004 3.5000000000000004
decision_type=2 2 2 2 2 2 2 2 2 2 2 2 2 2
left_child=2 3 5 7 -3 11 -4 9 -5 -2 -8 -1 -10 -11
right_child=1 4 6 8 -6 -7 10 -9 12 13 -12 -13 -14 -15
leaf_value=-0.017337801632465132 0.0075101982290937527 0.03542681392282248 0.0041381204331022072 0.021802866585552694 0.02208795137703419 -0.0088146811289774203 -0.0057157258001494819 0.0039633465559825633 0.017248138194454126 0.014658902019939642 -0.00076792435230183323 -0.014329019852633041 0.012135887724282438 0.010026256960816682
leaf_weight=149 92 60 51 50 75 91 110 91 58 55 73 378 86 50
leaf_count=149 92 60 51 50 75 91 110 91 58 55 73 378 86 50
internal_value=4.34576e-12 0.0150334 -0.0108868 0.011397 0.0280163 -0.0142425 -0.00202455 0.00819151 0.0161558 0.0101446 -0.00374201 -0.0151797 0.014195 0.0124529
internal_weight=1469 617 852 482 135 618 234 288 194 197 183 527 144 105
internal_count=1469 617 852 482 135 618 234 288 194 197 183 527 144 105
is_linear=0
shrinkage=0.05


Tree=25
num_leaves=15
num_cat=0
split_feature=50 50 48 48 6 70 11 48 69 26 50 50 12 59
split_gain=86.9422 13.951 4.21882 3.20845 3.15197 0.921299 0.83466 0.782825 0.718731 0.513547 0.495349 0.365057 0.340729 0.300489
threshold=297661.65625000006 583634.43750000012 1.3461207151412966 7.9310345649719247 2.8105679750442509 439013.92187500006 1.0771551728248598 11.167241573333742 501399.64062500006 -0.14153505116701123 215385.76562500003 673485.43750000012 0.59454616904258739 64464.941406250007
decision_type=2 2 2 2 2 2 2 2 2 2 2 2 2 2
left_child=2 3 9 5 -3 12 11 8 -5 13 -4 -6 -2 -1
right_child=1 4 10 7 6 -7 -8 -9 -10 -11 -12 -13 -14 -15
leaf_value=-0.017101174175739291 0.0032205896410911908 0.033814856842160228 -0.0080182645570340688 0.007977529083156085 0.019455158029283798 0.0071400500035711705 0.014269407091733927 0.017448644515346081 0.014425018110445567 -0.0096007434285378876 -0.0029868573438316744 0.024955829078296448 -0.0017743577373792131 -0.014035277457992039
leaf_weight=100 83 50 102 113 70 119 52 51 70 56 94 53 58 398
leaf_count=100 83 50 102 113 70 119 52 51 70 56 94 53 58 398
internal_value=1.86285e-11 0.0124234 -0.0119099 0.00772299 0.0227434 0.00390024 0.0195802 0.0119705 0.0104438 -0.0141404 -0.00560524 0.0218254 0.00116593 -0.0146509
internal_weight=1469 719 750 494 225 260 175 234 183 554 196 123 141 498
internal_count=1469 719 750 494 225 260 175 234 183 554 196 123 141 498
is_linear=0
shrinkage=0.05


Tree=26
num_leaves=15
num_cat=0
split_feature=7 2 48 19 67 79 67 79 26 50 79 19 59 73
split_gain=78.594 11.1285 5.72028 3.34924 3.15861 0.994987 0.888823 0.717265 0.485444 0.40596 0.339729 0.31616 0.265467 0.235663
threshold=11.241573333740236 5.277801752090455 1.2984913587570193 2018.5000000000002 491335.56250000006 8.0228447914123553 218198.74218750003 7.4040946960449228 -0.14153505116701123 396370.90625000006 3.68857753276825 2017.5000000000002 64464.941406250007 606008.18750000012
decision_type=2 2 2 2 2 2 2 2 2 2 2 2 2 2
left_child=1 3 8 -1 7 11 -4 9 12 -3 -8 -6 -2 -7
right_child=2 4 6 -5 5 13 10 -9 -10 -11 -12 -13 -14 -15
leaf_value=0.029492185226020713 -0.016246115729212762 0.00053368180263626934 -0.0075703194625004458 0.016066297592802183 0.012649776522408833 0.014138198742533432 -0.0038919496845165403 0.00826349817488326 -0.0090721302780143002 0.0055182618796583514 0.0011522141643725927 0.0074805517786444399 -0.013362220851115034 0.018899321626379806
leaf_weight=96 100 87 111 90 55 51 71 99 57 77 63 64 395 53
leaf_count=96 100 87 111 90 55 51 71 99 57 77 63 64 395 53
internal_value=-4.08315e-11 0.012595 -0.0106196 0.0229958 0.00861446 0.012992 -0.00426141 0.00490275 -0.0134417 0.002874 -0.00152044 0.00986969 -0.0139448 0.0165645
internal_weight=1469 672 797 186 486 223 245 263 552 164 134 119 495 104
internal_count=1469 672 797 186 486 223 245 263 552 164 134 119 495 104
is_linear=0
shrinkage=0.05


Tree=27
num_leaves=15
num_cat=0
split_feature=2 50 50 6 50 13 69 11 26 48 79 12 50 14
split_gain=70.9729 10.9525 4.05386 2.7396 2.593 0.914051 0.736578 0.707207 0.625013 0.410122 0.398022 0.346256 0.296395 0.156732
threshold=11.750000000000002 583634.43750000012 143150.46875000003 2.8105679750442509 396370.90625000006 -1.3955172300338743 501399.64062500006 0.50495690107345592 0.26780438423156744 6.505387783050538 2.3681035041809086 0.55662268400192272 77061.175781250015 0.31289373338222509
decision_type=2 2 2 2 2 2 2 2 2 2 2 2 2 2
left_child=1 4 12 -3 9 -6 13 -5 10 -1 -4 -8 -2 -7
right_child=2 3 8 7 5 6 11 -9 -10 -11 -12 -13 -14 -15
leaf_value=-0.00071645688282393188 -0.014463418869821876 0.030877744607627395 -0.0086659009989099502 0.02052362605929375 0.015829557392746212 0.0072659893327259601 0.013152609521611817 0.014143112945603206 -0.00097810069564729929 0.0046836649129724474 -0.003996082925080479 0.0079297176470943531 -0.012039494244317996 0.003869900337136082
leaf_weight=83 222 50 112 95 50 98 84 80 62 61 77 51 292 52
leaf_count=83 222 50 112 95 50 98 84 80 62 61 77 51 292 52
internal_value=-1.83855e-11 0.0114564 -0.0105429 0.0205559 0.00718215 0.00959407 0.00850013 0.0176068 -0.00533435 0.00157109 -0.00676338 0.0111795 -0.0130864 0.00608868
internal_weight=1469 704 765 225 479 335 285 175 251 144 189 135 514 150
internal_count=1469 704 765 225 479 335 285 175 251 144 189 135 514 150
is_linear=0
shrinkage=0.05


Tree=28
num_leaves=15
num_cat=0
split_feature=50 48 50 50 0 19 12 79 79 2 11 59 19 50
split_gain=64.1501 10.3212 3.68947 3.10621 2.82519 0.882199 0.663747 0.550538 0.44104 0.340383 0.297022 0.294416 0.28959 0.203958
threshold=297661.65625000006 11.753664016723635 456584.35937500006 143150.46875000003 87788.382812500015 2017.5000000000002 0.59454616904258739 8.2775864601135272 3.508836150169373 8.0204739570617694 -1.5560345053672788 82153.105468750015 2019.5000000000002 406908.43750000006
decision_type=2 2 2 2 2 2 2 2 2 2 2 2 2 2
left_child=3 2 6 11 -3 7 10 -4 -5 12 -2 -1 -7 -12
right_child=1 4 5 8 -6 9 -8 -9 -10 -11 13 -13 -14 -15
leaf_value=-0.013546171789961077 0.0080882592245425083 0.031197960275624482 0.011674314895239861 -0.0067410635662324345 0.017039169094182158 0.013364915421698244 -0.00063957806877037397 0.018487185540680701 -0.0017964877671043039 0.0063347320156711814 0.0018669191035253275 -0.011155709074697488 0.008423278873993292 0.0058870274044403974
leaf_weight=268 51 56 69 173 95 56 79 52 61 69 74 248 63 55
leaf_count=268 51 56 69 173 95 56 79 52 61 69 74 248 63 55
internal_value=-6.83118e-12 0.0106715 0.0075827 -0.0102304 0.0222901 0.011272 0.00318113 0.0146022 -0.00545209 0.00912871 0.004858 -0.0123973 0.0107488 0.00358092
internal_weight=1469 719 568 750 151 309 259 121 234 188 180 516 119 129
internal_count=1469 719 568 750 151 309 259 121 234 188 180 516 119 129
is_linear=0
shrinkage=0.05


Tree=29
num_leaves=15
num_cat=0
split_feature=2 50 48 67 48 34 48 26 12 62 26 26 79 50
split_gain=57.9895 8.5246 4.00773 2.85506 1.69207 0.841647 0.706482 0.658608 0.540117 0.416278 0.372738 0.289737 0.236748 0.215756
threshold=11.432327747344972 658132.37500000012 1.2984913587570193 484830.93750000006 13.741810798645021 4.5000000000000009 8.2974138259887713 0.18399153649806979 -0.64037850499153126 495454.20312500006 -0.12447465583682059 0.31717954576015478 3.508836150169373 64898.062500000007
decision_type=2 2 2 2 2 2 2 2 2 2 2 2 2 2
left_child=1 3 10 6 -3 8 9 12 -5 11 13 -1 -4 -2
right_child=2 4 7 5 -6 -7 -8 -9 -10 -11 -12 -13 -14 -15
leaf_value=-0.0010159642086364328 -0.013883831267032708 0.017655799457912937 -0.0067740475407639597 0.017854616045951843 0.029247629754245281 0.0073108285065752142 0.0078710116445776645 0.00020604562143691714 0.011814873564591702 0.0062220227582888178 -0.0074852506101688414 0.0037755155349573628 -0.0026528718104236759 -0.011408902677762725
leaf_weight=74 114 85 115 51 50 79 96 72 135 55 51 55 50 387
leaf_count=74 114 85 115 51 50 79 96 72 135 55 51 55 50 387
internal_value=-2.65715e-11 0.0107008 -0.00922253 0.00791459 0.0219491 0.0116345 0.00439393 -0.00378407 0.0134709 0.0025798 -0.0115575 0.00102691 -0.00552521 -0.0119721
internal_weight=1469 680 789 545 135 265 280 237 186 184 552 129 165 501
internal_count=1469 680 789 545 135 265 280 237 186 184 552 129 165 501
is_linear=0
shrinkage=0.05


Tree=30
num_leaves=15
num_cat=0
split_feature=50 79 48 69 2 69 79 19 14 34 50 50 20 26
split_gain=52.3992 6.867 5.33515 2.39053 0.735761 0.638658 0.612872 0.50171 0.481337 0.337901 0.286578 0.232145 0.212803 0.203403
threshold=370210.00000000006 12.105603218078615 2.3295258283615117 595190.93750000012 8.2101292610168475 123130.07812500001 4.7950432300567636 2018.5000000000002 0.87715470790863048 4.5000000000000009 249549.39843750003 648036.06250000012 1.0000000180025095e-35 -0.10737737268209456
decision_type=2 2 2 2 2 2 2 2 2 2 2 2 2 2
left_child=2 3 5 4 7 12 10 -2 11 -6 -4 -5 -1 -7
right_child=1 -3 6 8 9 13 -8 -9 -10 -11 -12 -13 -14 -15
leaf_value=-0.013340677919446445 0.012633694351875578 0.023379857234264678 -0.0053561040760133037 0.013527049478448806 0.0058691384100493758 -0.0091308459412598169 0.0023214589919035252 0.006985120360212798 0.0097274439185857792 0.0013768455124591129 -0.0013322580080553465 0.018074022727803545 -0.010897732484421703 -0.0052688004028123734
leaf_weight=122 58 95 89 61 121 99 65 122 50 64 88 52 331 52
leaf_count=122 58 95 89 61 121 99 65 122 50 64 88 52 331 52
internal_value=-7.25912e-12 0.0110043 -0.00810364 0.00877764 0.00652938 -0.010617 -0.00183073 0.00880522 0.0138121 0.00431505 -0.00335555 0.0156195 -0.0115557 -0.00780087
internal_weight=1469 623 846 528 365 604 242 180 163 185 177 113 453 151
internal_count=1469 623 846 528 365 604 242 180 163 185 177 113 453 151
is_linear=0
shrinkage=0.05


Tree=31
num_leaves=15
num_cat=0
split_feature=2 48 50 0 67 50 79 48 19 26 0 50 34 79
split_gain=47.3407 7.07552 3.25868 2.4153 2.40569 0.604869 0.578018 0.490396 0.391035 0.32257 0.237624 0.236404 0.196306 0.171258
threshold=11.432327747344972 11.753664016723635 145345.57812500003 87788.382812500015 491335.56250000006 292519.48437500006 8.0228447914123553 7.6588363647460946 2017.5000000000002 0.28434865176677709 87175.050781250015 80241.785156250015 2.5000000000000004 1.3558189868927004
decision_type=2 2 2 2 2 2 2 2 2 2 2 2 2 2
left_child=1 4 11 -3 7 13 10 9 -8 -1 -6 -2 -9 -4
right_child=2 3 5 -5 6 -7 8 12 -10 -11 -12 -13 -14 -15
leaf_value=-0.00055091507790278494 -0.011718296776561775 0.027451165033770458 -0.0068347390571887575 0.014359691180288792 0.010279182511411848 -8.6889311818307965e-05 0.01613388961112058 0.0080308297815333534 0.010488336098308243 0.0040735534677365558 0.0058836962974279147 -0.009586045980090916 0.0041430609915822526 -0.0038558586795261365
leaf_weight=73 258 56 97 95 62 76 54 63 71 78 61 262 67 96
leaf_count=73 258 56 97 95 62 76 54 63 71 78 61 262 67 96
internal_value=2.52009e-12 0.00966853 -0.00833283 0.0192148 0.0069436 -0.00386519 0.0105327 0.00377597 0.0129272 0.00183788 0.00809931 -0.010644 0.00602713 -0.00535302
internal_weight=1469 680 789 151 529 269 248 281 125 151 123 520 130 193
internal_count=1469 680 789 151 529 269 248 281 125 151 123 520 130 193
is_linear=0
shrinkage=0.05


Tree=32
num_leaves=15
num_cat=0
split_feature=50 79 50 69 79 11 2 34 14 19 19 79 59 0
split_gain=42.7956 5.65762 4.51626 1.87486 0.665839 0.587796 0.57716 0.457704 0.407035 0.255545 0.244225 0.205339 0.204468 0.204285
threshold=372632.82812500006 12.105603218078615 205751.76562500003 595190.93750000012 0.33857758343219763 -1.3510775566101072 7.1469829082489023 4.5000000000000009 0.87715470790863048 2018.5000000000002 2019.5000000000002 3.5717672109603886 66625.640625000015 69004.347656250015
decision_type=2 2 2 2 2 2 2 2 2 2 2 2 2 2
left_child=2 3 4 6 12 -4 10 9 13 -8 -2 -7 -1 -5
right_child=1 -3 5 8 -6 11 7 -9 -10 -11 -12 -13 -14 -15
leaf_value=-0.01199820775538683 0.011563943732529879 0.021251721217444071 0.0034005142538351754 0.016481382824480535 -0.0055529190869592548 -0.0041291219325592888 0.0082427623137444651 0.0015470414161955202 0.0086768307024613026 0.0043290221148009336 0.0068324200564999649 -0.00074768302342530246 -0.0096496569842251176 0.012201107058319309
leaf_weight=120 50 95 51 50 91 104 77 81 50 91 60 79 407 63
leaf_count=120 50 95 51 50 91 104 77 81 50 91 60 79 407 63
internal_value=1.29213e-11 0.0100285 -0.00726242 0.00798595 -0.00950244 -0.00134645 0.00596681 0.00463431 0.012433 0.00612282 0.00898311 -0.00266938 -0.0101844 0.014095
internal_weight=1469 617 852 522 618 234 359 249 163 168 110 183 527 113
internal_count=1469 617 852 522 618 234 359 249 163 168 110 183 527 113
is_linear=0
shrinkage=0.05


Tree=33
num_leaves=15
num_cat=0
split_feature=2 50 70 50 48 79 79 26 19 34 62 79 6 26
split_gain=38.7185 6.25854 2.19171 2.17886 1.33628 0.813764 0.530206 0.384233 0.351356 0.284067 0.257537 0.233926 0.196182 0.195428
threshold=11.750000000000002 658132.37500000012 434744.87500000006 143150.46875000003 13.741810798645021 8.0228447914123553 6.4812498092651376 0.28434865176677709 2019.5000000000002 1.5000000000000002 604142.40625000012 2.3681035041809086 20.129446029663089 0.30080866813659674
decision_type=2 2 2 2 2 2 2 2 2 2 2 2 2 2
left_child=1 2 6 12 -3 9 13 11 -7 -4 -11 -5 -2 -1
right_child=3 4 5 7 -6 8 -8 -9 -10 10 -12 -13 -14 -15
leaf_value=-0.0018233752057754569 -0.0086440436280216561 0.014325042749234641 0.0091312512091826642 -0.0064526352258138207 0.024626325458288193 0.01319800894400412 0.0050613277084526741 -0.00035945836479138389 0.0084669470567715118 0.0034829774049946784 0.0079212191174379918 -0.00291157192326724 -0.010598648620663949 0.0022694220081320967
leaf_weight=70 249 85 65 116 50 91 84 57 69 88 52 78 265 50
leaf_count=70 249 85 65 116 50 91 84 57 69 88 52 78 265 50
internal_value=-3.79796e-12 0.0084618 0.00616549 -0.00778707 0.0181403 0.00848541 0.00201464 -0.00396852 0.0111577 0.00639969 0.00513147 -0.00502891 -0.00965177 -0.000118043
internal_weight=1469 704 569 765 135 365 204 251 160 205 140 194 514 120
internal_count=1469 704 569 765 135 365 204 251 160 205 140 194 514 120
is_linear=0
shrinkage=0.05


Tree=34
num_leaves=15
num_cat=0
split_feature=48 79 50 69 19 50 79 13 26 2 11 59 14 79
split_gain=34.9591 4.65798 3.89354 1.81094 0.618179 0.539764 0.527576 0.334459 0.270611 0.229679 0.200076 0.178836 0.174687 0.102456
threshold=6.0814654827117929 12.105603218078615 205751.76562500003 495494.15625000006 2017.5000000000002 330912.40625000006 0.33857758343219763 -1.4585560560226438 0.28434865176677709 7.0381464958190927 1.0135775804519656 64464.941406250007 0.58579623699188244 7.309051752090455
decision_type=2 2 2 2 2 2 2 2 2 2 2 2 2 2
left_child=2 3 6 7 9 -4 11 -2 -9 -5 -7 -1 -6 -10
right_child=1 -3 5 4 12 10 -8 8 13 -11 -12 -13 -14 -15
leaf_value=-0.01108645844255008 0.0075935707893222577 0.019337387449647251 -0.0031683201332519625 0.014759500849653374 0.0094440705216165335 0.003873451376333833 -0.0050641615705292985 0.00058089093894414512 0.0031579667794941336 0.010316280046334635 -0.00051591746483205096 -0.0087551067493417678 0.0060493857772653988 0.006083606234996727
leaf_weight=102 54 95 139 66 89 50 90 67 63 52 54 425 66 57
leaf_count=102 54 95 139 66 89 50 90 67 63 52 54 425 66 57
internal_value=-1.22686e-12 0.00916601 -0.00649081 0.00728608 0.0100746 -0.00112997 -0.00860213 0.00412734 0.0031264 0.0128015 0.00159436 -0.00920634 0.00799859 0.00454765
internal_weight=1469 609 860 514 273 243 617 241 187 118 104 527 155 120
internal_count=1469 609 860 514 273 243 617 241 187 118 104 527 155 120
is_linear=0
shrinkage=0.05


Tree=35
num_leaves=15
num_cat=0
split_feature=50 79 48 69 34 26 79 67 14 20 14 15 0 2
split_gain=31.5929 4.27332 3.35578 1.39492 0.483575 0.417819 0.388124 0.349815 0.333988 0.22819 0.200119 0.19537 0.169803 0.167348
threshold=372632.82812500006 12.105603218078615 2.3295258283615117 595190.93750000012 4.5000000000000009 -0.07309242337942122 5.0435345172882089 484830.93750000006 0.87715470790863048 1.0000000180025095e-35 -0.36761136353015894 1.0000000180025095e-35 69004.347656250015 8.2101292610168475
decision_type=2 2 2 2 2 2 2 2 2 2 2 2 2 2
left_child=2 3 5 4 7 9 11 10 12 -1 -2 -4 -5 -6
right_child=1 -3 6 8 13 -7 -8 -9 -10 -11 -12 -13 -14 -15
leaf_value=-0.010373700303690774 0.0072627220948595769 0.018370517969719675 -0.0051669627977535132 0.014358374025672674 0.004527070706589492 -0.004327054183594272 0.0020467975162087927 0.0087047867064085818 0.0072747195244301111 -0.0080668885621825483 0.0033978321485907087 -0.0015082133976991624 0.010456017959153369 0.00074757278052857152
leaf_weight=147 53 95 50 50 54 61 63 97 50 396 91 135 63 64
leaf_count=147 53 95 50 50 54 61 63 97 50 396 91 135 63 64
internal_value=-1.7894e-11 0.0086165 -0.00623988 0.00684134 0.00509972 -0.00825062 -0.00134278 0.00638378 0.0106772 -0.00869138 0.00482033 -0.00249706 0.0121827 0.00247717
internal_weight=1469 617 852 522 359 604 248 241 163 543 144 185 113 118
internal_count=1469 617 852 522 359 604 248 241 163 543 144 185 113 118
is_linear=0
shrinkage=0.05


Tree=36
num_leaves=15
num_cat=0
split_feature=48 50 50 67 34 12 11 79 50 19 50 12 50 34
split_gain=28.5768 3.89405 3.16263 1.25939 0.550305 0.463724 0.463688 0.446597 0.435488 0.215453 0.202556 0.185906 0.163175 0.0983624
threshold=6.0814654827117929 693342.81250000012 205751.76562500003 484830.93750000006 4.5000000000000009 -0.64037850499153126 -1.6747844815254209 0.33857758343219763 330912.40625000006 2019.5000000000002 416776.60937500006 0.91811445355415355 64898.062500000007 2.5000000000000004
decision_type=2 2 2 2 2 2 2 2 2 2 2 2 2 2
left_child=2 3 7 6 5 -5 -2 12 13 -7 -8 -10 -1 -4
right_child=1 -3 8 4 -6 9 10 -9 11 -11 -12 -13 -14 -15
leaf_value=-0.010001849837339762 0.0073455449578071407 0.017587154654442872 -0.0012241019771582532 0.01372846762027561 0.0051820193760795524 0.0099651994252558419 4.4678402651521949e-05 -0.0045161961392214938 0.0034442861616197557 0.0060318854194419047 0.003711079793295843 -0.00078679359052330261 -0.0078649980618917797 -0.0039441146028582896
leaf_weight=114 63 95 55 61 80 98 62 90 54 54 96 50 413 84
leaf_count=114 63 95 55 61 80 98 62 90 54 54 96 50 413 84
internal_value=-1.28303e-11 0.00828718 -0.00586848 0.00656831 0.00871778 0.0100458 0.00371857 -0.00777133 -0.00103695 0.00856784 0.00227237 0.00141011 -0.00832724 -0.00286785
internal_weight=1469 609 860 514 293 213 221 617 243 152 158 104 527 139
internal_count=1469 609 860 514 293 213 221 617 243 152 158 104 527 139
is_linear=0
shrinkage=0.05


Tree=37
num_leaves=15
num_cat=0
split_feature=50 66 2 79 19 62 26 26 34 20 67 19 34 12
split_gain=25.8312 3.54104 2.92787 1.58115 0.587327 0.532884 0.423484 0.321064 0.259952 0.201948 0.170046 0.166847 0.159821 0.152609
threshold=378823.90625000006 739559.96875000012 13.906250000000002 9.3700432777404803 2017.5000000000002 488778.60937500006 -0.07309242337942122 0.30080866813659674 1.5000000000000002 1.0000000180025095e-35 251614.21875000003 2019.5000000000002 4.5000000000000009 0.58079779148101818
decision_type=2 2 2 2 2 2 2 2 2 2 2 2 2 2
left_child=2 3 7 5 -5 12 9 10 -7 -4 -1 -6 -2 -10
right_child=1 -3 6 4 11 8 -8 -9 13 -11 -12 -13 -14 -15
leaf_value=-0.0037062197832964622 0.0039769883149665943 0.020667777281254532 -0.0094191982348759973 0.014860092191533609 0.010570633664934173 0.0092231965594230195 -0.0036161257025510585 0.0018689247425793161 0.0065532420204927853 -0.0072671887395964162 -0.00061364361765457861 0.0070116831661215517 0.000742607413040888 0.0031405455975909722
leaf_weight=86 97 50 150 55 63 63 66 71 95 399 92 69 63 50
leaf_count=86 97 50 150 55 63 63 66 71 95 399 92 69 63 50
internal_value=-9.23735e-12 0.00792339 -0.0055482 0.00677524 0.010519 0.00487282 -0.00740025 -0.000973881 0.00654157 -0.00785517 -0.00210781 0.00871027 0.00270345 0.00537645
internal_weight=1469 605 864 555 187 368 615 249 208 549 178 132 160 145
internal_count=1469 605 864 555 187 368 615 249 208 549 178 132 160 145
is_linear=0
shrinkage=0.05


Tree=38
num_leaves=15
num_cat=0
split_feature=48 79 2 19 6 26 79 26 31 79 50 62 34 79
split_gain=23.3996 3.13166 2.96773 1.06683 0.604339 0.4962 0.391959 0.210852 0.181179 0.151292 0.140051 0.117305 0.109258 0.108876
threshold=6.4045257568359384 12.105603218078615 13.906250000000002 2019.5000000000002 8.1941437721252459 0.28434865176677709 0.33857758343219763 0.41326330602169042 44.500000000000007 3.508836150169373 64898.062500000007 512420.34375000006 2.5000000000000004 8.615732669830324
decision_type=2 2 2 2 2 2 2 2 2 2 2 2 2 2
left_child=2 3 5 4 8 9 10 -5 -2 -1 -4 -6 -9 -10
right_child=1 -3 6 7 11 -7 -8 12 13 -11 -12 -13 -14 -15
leaf_value=-0.0039516563771203874 0.011947077661170626 0.016104373199326037 -0.0091034750241720894 0.0005345501464462894 0.0034315334464837285 0.001930378827801178 -0.0039815589352252172 0.0059762727367087161 0.0070127869472542612 -0.00095074336959875101 -0.0071227695415625823 0.0067587690463719458 0.0031468817030808542 0.010004727693055483
leaf_weight=84 64 95 114 51 54 105 90 57 55 84 411 52 85 68
leaf_count=84 64 95 114 51 54 105 90 57 55 84 411 52 85 68
internal_value=-4.14653e-12 0.00780156 -0.0051044 0.00617858 0.00807985 -0.000765977 -0.00703024 0.0032922 0.00978951 -0.0024512 -0.00755287 0.00506376 0.00428262 0.00866687
internal_weight=1469 581 888 486 293 273 615 193 187 168 525 106 142 123
internal_count=1469 581 888 486 293 273 615 193 187 168 525 106 142 123
is_linear=0
shrinkage=0.05


Tree=39
num_leaves=15
num_cat=0
split_feature=48 66 50 79 72 19 50 69 34 11 34 20 62 19
split_gain=21.1219 3.06289 2.32485 1.30559 0.672695 0.481573 0.338134 0.323216 0.2395 0.169077 0.159952 0.143535 0.136077 0.128779
threshold=6.0814654827117929 739559.96875000012 203862.25781250003 9.3700432777404803 487428.32812500006 2017.5000000000002 330912.40625000006 123130.07812500001 2.5000000000000004 1.0135775804519656 4.5000000000000009 1.0000000180025095e-35 613471.37500000012 2019.5000000000002
decision_type=2 2 2 2 2 2 2 2 2 2 2 2 2 2
left_child=2 3 7 4 10 -5 -4 11 -6 -8 -2 -1 -10 -7
right_child=1 -3 6 5 8 13 9 -9 12 -11 -12 -13 -14 -15
leaf_value=-0.0088129792572750193 0.0030284097654223784 0.018980962548404933 -0.0025334272060768101 0.013316441639991745 0.0082001696753484961 0.0094278374715941037 0.0032977440506219862 -0.0046798628273235646 0.0032743710305180342 -0.00073728722830613451 -0.00029932100248212617 -0.0068241362724475261 0.0067213057396002113 0.006335118590381889
leaf_weight=124 109 50 145 56 88 64 50 149 67 54 54 338 50 71
leaf_count=124 109 50 145 56 88 64 50 149 67 54 54 338 50 71
internal_value=-1.14553e-11 0.0071247 -0.00504528 0.00606421 0.00432336 0.0094183 -0.000972985 -0.00670486 0.00622958 0.00120263 0.00192597 -0.00735794 0.00474742 0.0078013
internal_weight=1469 609 860 559 368 191 249 611 205 104 163 462 117 135
internal_count=1469 609 860 559 368 191 249 611 205 104 163 462 117 135
is_linear=0
shrinkage=0.05


Tree=40
num_leaves=15
num_cat=0
split_feature=50 79 2 73 33 11 79 12 34 19 34 20 69 59
split_gain=19.1405 2.65781 2.41565 0.671615 0.347931 0.336532 0.317076 0.30225 0.266558 0.213592 0.192545 0.158983 0.150665 0.110466
threshold=394831.34375000006 12.105603218078615 13.906250000000002 602358.93750000012 38.500000000000007 -1.5834051966667173 5.6989223957061776 0.82712355256080639 4.5000000000000009 2019.5000000000002 4.5000000000000009 1.0000000180025095e-35 263261.09375000006 93962.316406250015
decision_type=2 2 2 2 2 2 2 2 2 2 2 2 2 2
left_child=2 3 6 5 11 -2 10 -5 9 -7 12 -4 -1 -13
right_child=1 -3 4 7 -6 8 -8 -9 -10 -11 -12 13 -14 -15
leaf_value=-0.0025118143994511816 0.0080315019725365391 0.014704838300515947 -0.0081719307651122418 0.00991763025149703 -0.0030880684016058998 0.0061128563599022866 0.0024742830636554219 0.0052755061733208743 0.0012381523408567961 0.0028147730495644892 -0.0041939506971242803 -0.0069314375091110315 0.00060656516660755099 -0.0052142379563543707
leaf_weight=68 51 95 150 100 72 108 61 54 83 90 54 239 90 154
leaf_count=68 51 95 150 100 72 108 61 54 83 90 54 239 90 154
internal_value=-2.12999e-11 0.00705592 -0.00461654 0.00556076 -0.00635404 0.00429485 -0.000702398 0.00828987 0.00361667 0.00461373 -0.00161644 -0.0067871 -0.000735522 -0.00625854
internal_weight=1469 581 888 486 615 332 273 154 281 198 212 543 158 393
internal_count=1469 581 888 486 615 332 273 154 281 198 212 543 158 393
is_linear=0
shrinkage=0.05


Tree=41
num_leaves=15
num_cat=0
split_feature=2 66 2 79 19 19 26 26 34 31 20 19 8 12
split_gain=17.3174 2.49041 2.27563 0.877306 0.424924 0.423305 0.406407 0.317809 0.2433 0.18542 0.153365 0.13085 0.116579 0.108638
threshold=9.9521551132202166 739559.96875000012 13.906250000000002 9.3700432777404803 2018.5000000000002 2017.5000000000002 0.28434865176677709 -0.021515300963073965 4.5000000000000009 46.500000000000007 1.0000000180025095e-35 2017.5000000000002 20.538787841796879 -0.89388760924339283
decision_type=2 2 2 2 2 2 2 2 2 2 2 2 2 2
left_child=1 3 6 4 8 -5 11 10 -1 -6 -4 -2 -12 -7
right_child=2 -3 7 5 9 13 -8 -9 -10 -11 12 -13 -14 -15
leaf_value=0.0078409427216604034 -0.00022816148702986538 0.0174671258055605 -0.0077358459871189264 0.012136693019419909 0.0052856285283342007 0.0087862799841198404 0.0017754955671422203 -0.0023351162764845626 0.003499394797254354 0.0017351517116269031 -0.0051391995220658781 -0.0031128746404296215 -0.0068418495566322573 0.0058607602185691667
leaf_weight=91 60 50 153 56 50 51 109 53 50 139 231 114 178 84
leaf_count=91 60 50 153 56 50 51 109 53 50 139 231 114 178 84
internal_value=-8.16254e-12 0.00680802 -0.00432893 0.00578507 0.00422413 0.00848198 -0.000618475 -0.00603634 0.00630139 0.00267443 -0.00638539 -0.00211815 -0.00588021 0.00696596
internal_weight=1469 571 898 521 330 191 283 615 141 189 562 174 409 135
internal_count=1469 571 898 521 330 191 283 615 141 189 562 174 409 135
is_linear=0
shrinkage=0.05


Tree=42
num_leaves=15
num_cat=0
split_feature=50 66 48 79 19 79 62 13 34 26 6 27 19 19
split_gain=15.6532 2.2825 1.95042 0.813334 0.413745 0.342475 0.338073 0.217832 0.193031 0.183109 0.160895 0.12092 0.111744 0.107053
threshold=394831.34375000006 739559.96875000012 1.3461207151412966 9.3700432777404803 2017.5000000000002 5.6989223957061776 617953.43750000012 0.29385775327682501 2.5000000000000004 0.16704543679952624 20.129446029663089 0.48250326514244085 2019.5000000000002 2017.5000000000002
decision_type=2 2 2 2 2 2 2 2 2 2 2 2 2 2
left_child=2 3 10 6 -5 9 7 8 -2 13 -1 -9 -6 -4
right_child=1 -3 5 4 12 -7 -8 11 -10 -11 -12 -13 -14 -15
leaf_value=-0.0051739382123113763 0.0067405394408061124 0.016593769307248294 -0.0010106388276747975 0.011716793409802697 0.0080776141653399157 0.0022424172197819735 0.0064957452920983393 0.0031776370617180049 0.0028092635787815151 1.9458776710793203e-06 -0.0068769188154980815 -1.9211525432183409e-05 0.0051650565392607692 -0.0036032569280153646
leaf_weight=291 53 50 58 55 63 61 96 55 76 86 265 64 69 127
leaf_count=291 53 50 58 55 63 61 96 55 76 86 265 64 69 127
internal_value=-1.64608e-11 0.00638085 -0.00417486 0.00541918 0.00807327 -0.0011424 0.00397641 0.00300118 0.00442444 -0.00190429 -0.00598561 0.00145832 0.00655514 -0.00279044
internal_weight=1469 581 888 531 187 332 344 248 129 271 556 119 132 185
internal_count=1469 581 888 531 187 332 344 248 129 271 556 119 132 185
is_linear=0
shrinkage=0.05


Tree=43
num_leaves=15
num_cat=0
split_feature=2 79 50 19 62 26 79 2 47 34 11 50 19 79
split_gain=14.1629 2.0784 1.84752 0.668542 0.337355 0.284095 0.249086 0.182566 0.169509 0.154712 0.152682 0.107097 0.102063 0.101462
threshold=9.9521551132202166 12.105603218078615 203862.25781250003 2017.5000000000002 512420.34375000006 0.73246693611145031 0.33857758343219763 6.5993533134460458 12.062777519226076 4.5000000000000009 -1.0329741239547727 72291.476562500015 2019.5000000000002 7.7206897735595712
decision_type=2 2 2 2 2 2 2 2 2 2 2 2 2 2
left_child=1 3 6 7 8 10 11 -1 -4 12 -5 -2 -7 -12
right_child=2 -3 4 5 -6 9 -8 -9 -10 -11 13 -13 -14 -15
leaf_value=0.0096756198443472396 -0.0068944904694839722 0.012909198489475164 -0.00011295209038868413 0.0043293823054352523 0.0026667811216846589 0.0076626970713852723 -0.0029872779873595843 0.0061075534745075009 -0.0028639459373587558 0.0028320177851922134 -0.00047376325694910651 -0.0053751864055150448 0.004639626812718619 0.0025497233935708541
leaf_weight=62 173 95 111 51 62 53 87 85 113 55 56 352 59 55
leaf_count=62 173 95 111 51 62 53 87 85 113 55 56 352 59 55
internal_value=-1.04397e-11 0.00615679 -0.00391484 0.00480915 -0.000597284 0.00355661 -0.00546521 0.00761245 -0.00150073 0.00500372 0.00206483 -0.00587583 0.00607019 0.00102436
internal_weight=1469 571 898 476 286 329 612 147 224 167 162 525 112 111
internal_count=1469 571 898 476 286 329 612 147 224 167 162 525 112 111
is_linear=0
shrinkage=0.05


Tree=44
num_leaves=15
num_cat=0
split_feature=50 66 2 79 19 62 34 33 13 26 34 20 1 27
split_gain=12.7943 1.97153 1.6011 0.644776 0.357047 0.289483 0.25925 0.250232 0.184175 0.17738 0.169395 0.126206 0.105466 0.101342
threshold=394831.34375000006 739559.96875000012 13.906250000000002 9.3700432777404803 2017.5000000000002 617953.43750000012 4.5000000000000009 38.500000000000007 0.29385775327682501 0.28434865176677709 2.5000000000000004 1.0000000180025095e-35 1106.3270263671877 0.48250326514244085
decision_type=2 2 2 2 2 2 2 2 2 2 2 2 2 2
left_child=2 3 6 5 -5 8 9 11 10 12 -2 -4 -1 -10
right_child=1 -3 7 4 -6 -7 -8 -9 13 -11 -12 -13 -14 -15
leaf_value=0.0010537879827897995 0.0061663841508012617 0.015260560165392234 -0.0067900613558789097 0.01062284467233853 0.0058278838188650268 0.0059217159416827293 -0.0033721978239555032 -0.002419229295386079 0.0028433317595838825 0.0022956036111589154 0.00248365015898966 -0.0050852814444450958 -0.001821879832343918 -8.3292236467968905e-05
leaf_weight=50 53 50 150 55 132 96 64 72 55 71 76 393 88 64
leaf_count=50 53 50 150 55 132 96 64 72 55 71 76 393 88 64
internal_value=1.68105e-11 0.00576881 -0.00377441 0.00487505 0.00723817 0.00359044 -0.000587798 -0.00518896 0.00268802 0.000264841 0.00399671 -0.00555622 -0.000779971 0.00126935
internal_weight=1469 581 888 531 187 344 273 615 248 209 129 543 138 119
internal_count=1469 581 888 531 187 344 273 615 248 209 129 543 138 119
is_linear=0
shrinkage=0.05


Tree=45
num_leaves=15
num_cat=0
split_feature=48 2 50 79 19 62 34 19 59 47 31 62 79 19
split_gain=11.6029 1.82692 1.48591 0.618468 0.371584 0.277045 0.271938 0.270733 0.212472 0.1389 0.136562 0.11559 0.0952911 0.0702958
threshold=6.505387783050538 2.446336150169373 203862.25781250003 9.4334049224853533 2020.5000000000002 512420.34375000006 2.5000000000000004 2018.5000000000002 92909.765625000015 12.062777519226076 81.500000000000014 583439.96875000012 0.83987069129943859 2019.5000000000002
decision_type=2 2 2 2 2 2 2 2 2 2 2 2 2 2
left_child=2 -2 8 4 6 9 10 -5 -1 13 -3 -8 -10 -4
right_child=1 3 5 7 -6 -7 11 -9 12 -11 -12 -13 -14 -15
leaf_value=-0.0057386488157717607 0.014309376835202179 0.0078273773122326303 0.0010524803851740987 0.0091314057258507567 0.00049694087319510864 0.0023904995420912937 0.0018391209391636716 0.0052029978511454441 -0.0043910382179009168 -0.0026181889818381186 0.004395746698259915 0.0048011253572493688 -0.0021434480837929332 -0.0014957402253057807
leaf_weight=353 54 59 59 83 83 62 93 93 197 113 57 51 62 50
leaf_count=353 54 59 59 83 83 62 93 93 197 113 57 51 62 50
internal_value=-8.98871e-12 0.00555673 -0.00355358 0.00464605 0.00340966 -0.00056456 0.00433949 0.0070556 -0.00494064 -0.00138985 0.00614115 0.00288816 -0.00385301 -0.000116428
internal_weight=1469 573 896 519 343 284 260 176 612 222 116 144 259 109
internal_count=1469 573 896 519 343 284 260 176 612 222 116 144 259 109
is_linear=0
shrinkage=0.05


Tree=46
num_leaves=15
num_cat=0
split_feature=2 48 0 59 79 26 79 62 59 19 19 31 48 34
split_gain=10.4829 2.09626 1.42462 0.639076 0.621424 0.24348 0.207171 0.154787 0.14169 0.141569 0.117642 0.111758 0.105202 0.0881842
threshold=11.750000000000002 11.376077175140383 87788.382812500015 531908.59375000012 0.83987069129943859 0.31717954576015478 8.1995687484741229 601155.06250000012 93962.316406250015 2020.5000000000002 2019.5000000000002 276.50000000000006 7.5418102741241464 2.5000000000000004
decision_type=2 2 2 2 2 2 2 2 2 2 2 2 2 2
left_child=1 3 -3 5 8 12 7 -5 -2 13 -4 -6 -1 -7
right_child=4 2 10 6 11 9 -8 -9 -10 -11 -12 -13 -14 -15
leaf_value=-0.00127158519171644 -0.005460631893947721 0.01507953756695315 0.0074688106318577564 0.0017970789267820421 -0.0022343787179328503 0.0051281030147667765 0.0068525379952671149 0.0055327179530178447 -0.003878989620716311 0.00064433945402029961 0.0042195691235489604 0.00056259738578228282 0.0016316538751125335 0.0024832250009058044
leaf_weight=83 354 64 52 57 125 52 89 54 236 63 60 50 50 80
leaf_count=83 354 64 52 57 125 52 89 54 236 63 60 50 50 80
internal_value=5.65732e-12 0.00440294 0.00912865 0.00282771 -0.00405186 0.00146937 0.00505538 0.00361442 -0.00482797 0.00259442 0.00572815 -0.00143524 -0.000180142 0.00352515
internal_weight=1469 704 176 528 765 328 200 111 590 195 112 175 133 132
internal_count=1469 704 176 528 765 328 200 111 590 195 112 175 133 132
is_linear=0
shrinkage=0.05


Tree=47
num_leaves=15
num_cat=0
split_feature=48 79 48 19 79 26 34 2 34 11 50 79 50 26
split_gain=9.47178 1.59652 1.18549 0.609679 0.293775 0.277279 0.195306 0.18541 0.174921 0.161251 0.144516 0.0954106 0.0882606 0.072843
threshold=6.4045257568359384 13.449784278869631 3.564655184745789 2017.5000000000002 0.076293103396892561 0.73246693611145031 4.5000000000000009 6.5993533134460458 1.5000000000000002 -1.0329741239547727 330912.40625000006 7.7206897735595712 63568.205078125007 -0.09024826809763907
decision_type=2 2 2 2 2 2 2 2 2 2 2 2 2 2
left_child=2 3 4 7 12 9 10 -2 -7 -5 -4 -11 -1 -6
right_child=1 -3 6 5 13 8 -8 -9 -10 11 -12 -13 -14 -15
leaf_value=-0.0060977603067402485 0.0084161536027254034 0.012988735884541061 -0.00063426401239348115 0.003763712453216596 -0.0030969445058592381 0.0065792883991410856 -0.0024495319201256888 0.0050565229513846463 0.0032724173240443522 -0.00095050769397251624 0.0024096455451364843 0.0019191344472346827 -0.0044962911669001971 -0.0007213752730749548
leaf_weight=108 77 56 77 53 91 57 60 88 134 60 79 56 423 50
leaf_count=108 77 56 77 53 91 57 60 88 134 60 79 56 423 50
internal_value=5.28015e-12 0.00496356 -0.00324755 0.00410754 -0.0042833 0.002954 -2.52234e-05 0.00662435 0.00425928 0.0014788 0.000907203 0.000434837 -0.00482201 -0.00225454
internal_weight=1469 581 888 525 672 360 216 165 191 169 156 116 531 141
internal_count=1469 581 888 525 672 360 216 165 191 169 156 116 531 141
is_linear=0
shrinkage=0.05


Tree=48
num_leaves=15
num_cat=0
split_feature=50 73 2 19 7 34 34 33 0 14 28 20 73 13
split_gain=8.57163 1.5495 1.0633 0.455381 0.463098 0.232606 0.213059 0.182646 0.170738 0.148412 0.138921 0.107177 0.0913592 0.0964067
threshold=394831.34375000006 699717.53125000012 13.906250000000002 2019.5000000000002 8.46948289871216 4.5000000000000009 4.5000000000000009 38.500000000000007 92328.980468750015 -0.59209483861923207 2.5000000000000004 1.0000000180025095e-35 266744.70312500006 -0.29241380095481867
decision_type=2 2 2 2 2 2 2 2 2 2 2 2 2 2
left_child=2 3 6 4 5 8 10 11 -2 -5 -1 -4 -12 -14
right_child=1 -3 7 9 -6 -7 -8 -9 -10 -11 12 -13 13 -15
leaf_value=0.0025791955574386519 0.0090545013517093591 0.013136533909477294 -0.0056929350315282744 0.0043531609511074541 0.0023867904799839447 0.003749278746646701 -0.0030167185874233841 -0.0018758320142903057 0.0057964203249121719 0.0012506855891598703 -0.0021374242608699036 -0.004121924512196124 0.0020008381255902353 -0.0010197911656827533
leaf_weight=50 78 50 150 52 108 61 64 72 83 149 53 393 50 56
leaf_count=50 78 50 150 52 108 61 64 72 83 149 53 393 50 56
internal_value=-2.78978e-12 0.00472182 -0.00308939 0.00392947 0.00507222 0.00637865 -0.000492528 -0.00424214 0.00737487 0.00205332 0.00028043 -0.00455591 -0.000442452 0.000405034
internal_weight=1469 581 888 531 330 222 273 615 161 201 209 543 159 106
internal_count=1469 581 888 531 330 222 273 615 161 201 209 543 159 106
is_linear=0
shrinkage=0.05


Tree=49
num_leaves=15
num_cat=0
split_feature=2 72 59 19 79 12 62 34 79 67 47 5 32 59
split_gain=7.75406 1.37506 1.0282 0.612373 0.380502 0.245318 0.206988 0.186165 0.161318 0.133225 0.126386 0.106585 0.0748227 0.0701948
threshold=9.9521551132202166 712436.75000000012 203924.10156250003 2018.5000000000002 11.296336174011232 -1.2618967294692991 538589.43750000012 4.5000000000000009 0.57952585816383373 467797.29687500006 12.062777519226076 4.4672412872314462 17.500000000000004 62987.003906250007
decision_type=2 2 2 2 2 2 2 2 2 2 2 2 2 2
left_child=1 3 8 4 7 -5 10 12 13 -7 -4 -11 -1 -2
right_child=2 -3 6 5 -6 9 -8 -9 -10 11 -12 -13 -14 -15
leaf_value=0.0070174031174306557 -0.0056986517500546251 0.012475968964397907 0.00020802635800149991 0.0053481304125549897 0.0095120134602229185 9.6383478246732718e-05 0.0024387733777984978 0.0023833922380193449 -0.0021245506828440892 0.00079015433397476706 -0.0020709686762329644 0.0035349507043671716 0.0044359784481527572 -0.004160246637811638
leaf_weight=61 90 50 107 54 52 90 50 60 89 56 141 96 52 421
leaf_count=61 90 50 107 54 52 90 50 60 89 56 141 96 52 421
internal_value=1.4018e-11 0.00455558 -0.0028967 0.00379547 0.0057616 0.00230094 -0.000496004 0.00463431 -0.00408905 0.00162099 -0.00108769 0.00252371 0.00582949 -0.0044312
internal_weight=1469 571 898 521 225 296 298 173 600 242 248 152 113 511
internal_count=1469 571 898 521 225 296 298 173 600 242 248 152 113 511
is_linear=0
shrinkage=0.05


Tree=50
num_leaves=15
num_cat=0
split_feature=50 6 50 34 11 50 11 28 14 34 6 14 47 34
split_gain=7.01227 1.34474 0.874918 0.414887 0.373767 0.278963 0.205992 0.1466 0.14388 0.124773 0.107657 0.100607 0.0795296 0.0659042
threshold=394831.34375000006 2.8105679750442509 174856.46875000003 4.5000000000000009 -1.4217672348022459 471155.68750000006 -1.3161637783050535 4.5000000000000009 0.31289373338222509 4.5000000000000009 20.300355911254886 0.52734738588333141 11.620417118072512 4.5000000000000009
decision_type=2 2 2 2 2 2 2 2 2 2 2 2 2 2
left_child=2 -2 10 4 -3 -6 -4 11 -5 12 13 -7 -8 -1
right_child=1 3 6 8 5 7 9 -9 -10 -11 -12 -13 -14 -15
leaf_value=-0.0028929214868694546 0.011863190682499476 0.008154945405559581 0.001842113501061249 0.0025136991790050698 0.0013668214781236284 0.0069778479833149587 0.00059154402503433338 0.0031473368723079782 -0.00060530593048591487 -0.0031832333570763248 -0.0047439660791307693 0.0041965951162575071 -0.0015123095905177511 -0.0044634595920184728
leaf_weight=225 53 57 64 102 88 74 75 91 58 67 250 58 112 95
leaf_count=225 53 57 64 102 88 74 75 91 58 67 250 58 112 95
internal_value=1.41975e-11 0.00427078 -0.00279428 0.00350866 0.00443283 0.00375065 -0.000693064 0.00469135 0.00138306 -0.00133185 -0.00396654 0.00575578 -0.000668518 -0.00335917
internal_weight=1469 581 888 528 368 311 318 223 160 254 570 132 187 320
internal_count=1469 581 888 528 368 311 318 223 160 254 570 132 187 320
is_linear=0
shrinkage=0.05


Tree=51
num_leaves=15
num_cat=0
split_feature=2 79 70 79 14 73 34 18 50 18 13 34 11 50
split_gain=6.34253 1.4769 0.514737 0.397851 0.292942 0.200623 0.175009 0.111354 0.0960823 0.082893 0.0685234 0.0670214 0.0664286 0.0579131
threshold=11.750000000000002 12.105603218078615 434744.87500000006 0.83987069129943859 1.061201870441437 564328.96875000012 4.5000000000000009 1.5000000000000002 75624.550781250015 9.5000000000000018 -0.7766594886779784 4.5000000000000009 -1.1961206793785093 475457.15625000006
decision_type=2 2 2 2 2 2 2 2 2 2 2 2 2 2
left_child=1 2 6 8 5 10 12 -7 -2 -5 -4 -10 -1 -12
right_child=3 -3 4 9 -6 7 -8 -9 11 -11 13 -13 -14 -15
leaf_value=0.0028276353725232187 -0.0046310261585226515 0.0092231641454916247 0.0046486166357062762 -0.0017947643975154883 0.00059202892188165747 0.0073804094985602062 -0.0019599853257055988 0.0045178562105673116 -0.002756200992581925 0.00054933484633114531 0.0012841465090128498 -0.0041116374970634325 0.00057606848127755644 0.0033538554955606587
leaf_weight=50 210 95 50 120 70 52 55 98 228 55 58 152 95 81
leaf_count=50 210 95 50 120 70 52 55 98 228 55 58 152 95 81
internal_value=-2.38896e-12 0.0034248 0.00252029 -0.00315171 0.00353679 0.00414485 0.000441545 0.00551021 -0.00377271 -0.00105805 0.00306124 -0.00329838 0.00135247 0.00249024
internal_weight=1469 704 609 765 409 339 200 150 590 175 189 380 145 139
internal_count=1469 704 609 765 409 339 200 150 590 175 189 380 145 139
is_linear=0
shrinkage=0.05


Tree=52
num_leaves=15
num_cat=0
split_feature=50 73 2 19 79 34 28 1 1 34 14 20 31 19
split_gain=5.73842 1.18697 0.741377 0.354873 0.298236 0.176218 0.140629 0.133683 0.116381 0.107709 0.106854 0.0834531 0.077511 0.0726943
threshold=396370.90625000006 699717.53125000012 13.906250000000002 2019.5000000000002 8.4370689392089862 4.5000000000000009 2.5000000000000004 2154.646606445313 1214.9344482421877 4.5000000000000009 -0.59209483861923207 1.0000000180025095e-35 83.500000000000014 2020.5000000000002
decision_type=2 2 2 2 2 2 2 2 2 2 2 2 2 2
left_child=2 3 5 4 9 6 -1 11 -6 12 -5 -4 -2 -8
right_child=1 -3 7 10 8 -7 13 -9 -10 -11 -12 -13 -14 -15
leaf_value=0.0026154969520005168 0.0052963080808985982 0.011257879229728133 -0.0046786882970600002 0.0034797679608275832 0.006909200233834175 -0.0026485217753081367 0.00037098698922929089 -0.0010999845207185933 0.0039343389598652722 0.0013684306505675611 0.00084263760096403041 -0.0033229006722818762 0.0025990582228124573 -0.0018524665054948338
leaf_weight=51 50 50 158 52 96 65 107 54 50 73 147 403 57 56
leaf_count=51 50 50 158 52 96 65 107 54 50 73 147 403 57 56
internal_value=-1.34907e-11 0.00389664 -0.00250623 0.00319557 0.00421122 -0.000368481 0.000324055 -0.00347603 0.00589041 0.00284921 0.00153174 -0.00370474 0.00385946 -0.000392899
internal_weight=1469 575 894 525 326 279 214 615 146 180 199 561 107 163
internal_count=1469 575 894 525 326 279 214 615 146 180 199 561 107 163
is_linear=0
shrinkage=0.05


Tree=53
num_leaves=15
num_cat=0
split_feature=2 2 59 34 11 19 19 47 48 79 62 1 26 50
split_gain=5.21199 1.08127 0.713342 0.332777 0.280594 0.239001 0.152904 0.133144 0.125717 0.103445 0.094831 0.0855388 0.0759343 0.0577285
threshold=9.9521551132202166 2.446336150169373 203924.10156250003 4.5000000000000009 -1.4217672348022459 2019.5000000000002 2016.5000000000002 12.192777633666994 9.8137931823730487 0.57952585816383373 475658.29687500006 972.28952026367199 0.72064045071601879 62968.876953125007
decision_type=2 2 2 2 2 2 2 2 2 2 2 2 2 2
left_child=1 -1 9 4 -3 11 -4 -8 -5 13 -7 -6 -13 -2
right_child=2 3 6 8 5 10 7 -9 -10 -11 -12 12 -14 -15
leaf_value=0.010467267907181478 -0.0047061941139034781 0.0065229365033666045 0.0021471352837979791 -0.00027465876713593881 0.0060017869601814225 -6.1819372543444247e-06 0.00024702718181674935 -0.0020706970608564217 0.0026448952970650995 -0.0017948960420398272 0.0028417203384410723 0.0020830603982321919 0.0046194591428502466 -0.0033766161970490214
leaf_weight=54 102 77 50 82 52 60 127 121 67 89 57 50 72 409
leaf_count=54 102 77 50 82 52 60 127 121 67 89 57 50 72 409
internal_value=-8.92333e-12 0.00373492 -0.00237488 0.00303173 0.00383891 0.00312871 -0.000375252 -0.000883798 0.00103816 -0.00336802 0.00138126 0.00430372 0.00357995 -0.00364201
internal_weight=1469 571 898 517 368 291 298 248 149 600 117 174 122 511
internal_count=1469 571 898 517 368 291 298 248 149 600 117 174 122 511
is_linear=0
shrinkage=0.05


Tree=54
num_leaves=15
num_cat=0
split_feature=70 73 2 13 34 19 34 26 34 11 19 20 38 79
split_gain=4.71563 0.940183 0.807949 0.325374 0.173335 0.164466 0.147095 0.145956 0.140691 0.0917308 0.106768 0.0910845 0.0641803 0.060704
threshold=434744.87500000006 699717.53125000012 12.977586269378664 -0.62646549940109242 4.5000000000000009 2020.5000000000002 1.5000000000000002 0.030119189061224464 3.5000000000000004 -1.3161637783050535 2019.5000000000002 1.0000000180025095e-35 1.0000000180025095e-35 6.7362067699432382
decision_type=2 2 2 2 2 2 2 2 2 2 2 2 2 2
left_child=2 3 4 8 9 6 -5 11 -2 -1 -11 -4 -13 -8
right_child=1 -3 7 5 -6 -7 13 -9 -10 10 -12 12 -14 -15
leaf_value=0.0027127893784871467 0.0066975527991579012 0.010370661333203315 -0.0042968184979320125 0.00483969599152086 -0.0018570044176664817 0.00041879186739056742 0.00092448286517220191 -0.00078497652345014602 0.0034992127682870397 0.0017191088112385969 -0.00090761458190493553 -0.002636466285349276 -0.0042506064338659914 0.0028877000200528916
leaf_weight=52 73 50 161 73 79 86 63 65 65 71 85 367 74 105
leaf_count=52 73 50 161 73 79 86 63 65 65 71 85 367 74 105
internal_value=7.71034e-12 0.00385567 -0.00208141 0.00315513 0.000136833 0.00229592 0.00296576 -0.00303589 0.00519109 0.000894108 0.000287881 -0.00327893 -0.00290732 0.00215149
internal_weight=1469 515 954 465 287 327 241 667 138 208 156 602 441 168
internal_count=1469 515 954 465 287 327 241 667 138 208 156 602 441 168
is_linear=0
shrinkage=0.05


Tree=55
num_leaves=15
num_cat=0
split_feature=2 72 79 19 34 12 48 50 47 70 5 79 7 32
split_gain=4.28089 0.957891 0.602426 0.417162 0.242213 0.184083 0.171277 0.148407 0.114444 0.0705269 0.0819763 0.0748272 0.0600857 0.0502757
threshold=9.9521551132202166 712436.75000000012 1.3558189868927004 2018.5000000000002 4.5000000000000009 -1.2618967294692991 11.167241573333742 330912.40625000006 12.062777519226076 429157.20312500006 4.4672412872314462 8.0885777473449725 21.597111701965336 16.500000000000004
decision_type=2 2 2 2 2 2 2 2 2 2 2 2 2 2
left_child=1 3 8 4 6 -5 13 -4 -2 -7 -11 -12 -10 -1
right_child=2 -3 7 5 -6 9 -8 -9 12 10 11 -13 -14 -15
leaf_value=0.0053921359376265451 -0.0013752163112759281 0.0099955484829843053 -0.00099409160887702335 0.0041565806971414496 0.0019065624240455149 -0.00059237023800458961 0.0078072982911880197 0.0015409531595146884 -0.0028965488358889311 -0.00020910915533683939 0.00082485815013957323 0.0032368469551703827 -0.0040459240373456849 0.0031934543042482877
leaf_weight=52 98 50 155 54 69 58 52 92 393 55 61 68 160 52
leaf_count=52 98 50 155 54 69 58 52 92 393 55 61 68 160 52
internal_value=6.70543e-12 0.0033849 -0.00215232 0.00275048 0.00437326 0.00151696 0.0054643 -4.98644e-05 -0.00295002 0.000927948 0.00140718 0.00209629 -0.0032291 0.0042928
internal_weight=1469 571 898 521 225 296 156 247 651 242 184 129 553 104
internal_count=1469 571 898 521 225 296 156 247 651 242 184 129 553 104
is_linear=0
shrinkage=0.05


Tree=56
num_leaves=15
num_cat=0
split_feature=50 79 69 12 19 11 11 26 31 26 20 19 47 26
split_gain=3.8776 0.92217 0.501507 0.32562 0.24197 0.184952 0.104835 0.102034 0.100575 0.0955456 0.0636294 0.0603467 0.0494623 0.0455642
threshold=396370.90625000006 13.449784278869631 145489.46875000003 1.3235881924629214 2017.5000000000002 -0.92112067341804493 -1.4217672348022459 0.8189845383167268 67.500000000000014 0.28434865176677709 1.0000000180025095e-35 2017.5000000000002 8.5770835876464862 -0.67758968472480763
decision_type=2 2 2 2 2 2 2 2 2 2 2 2 2 2
left_child=2 3 10 4 8 -4 -6 -8 -2 11 -1 -7 -9 -12
right_child=1 -3 5 -5 6 9 7 12 -10 -11 13 -13 -14 -15
leaf_value=-0.0040621845858555489 0.0060488784602690119 0.0092989462211595063 0.0011023745387587149 -0.0006529290913654816 0.0041545136563945562 -0.00061964325972699698 0.00074812305589584867 0.0017659116779084019 0.0034991166950269627 0.00034011299750318362 -0.0032365315061670696 -0.0023798015853117253 0.0038581682622367353 -0.0021008353241455014
leaf_weight=131 69 56 102 69 55 70 125 56 88 64 219 160 57 148
leaf_count=131 69 56 102 69 55 70 125 56 88 64 219 160 57 148
internal_value=-9.26323e-12 0.00320314 -0.00206018 0.0025454 0.00303581 -0.000732156 0.0021871 0.00173245 0.00461971 -0.00136863 -0.00311621 -0.0018441 0.0028213 -0.00277854
internal_weight=1469 575 894 519 450 396 293 238 157 294 498 230 113 367
internal_count=1469 575 894 519 450 396 293 238 157 294 498 230 113 367
is_linear=0
shrinkage=0.05


Tree=57
num_leaves=15
num_cat=0
split_feature=48 56 79 1 62 62 19 11 26 34 33 79 19 45
split_gain=3.51841 0.821853 0.75028 0.245504 0.187537 0.162849 0.15072 0.114096 0.0920763 0.078851 0.0735875 0.0609016 0.0514255 0.0395898
threshold=7.6588363647460946 738812.18750000012 3.5717672109603886 809.03750610351574 157436.14062500003 577558.59375000012 2020.5000000000002 -1.5560345053672788 0.75546532869339 1.5000000000000002 34.500000000000007 8.9536638259887713 2020.5000000000002 4.5000000000000009
decision_type=2 2 2 2 2 2 2 2 2 2 2 2 2 2
left_child=2 3 4 11 10 12 7 -5 -9 -6 13 -2 -4 -1
right_child=1 -3 5 6 9 -7 -8 8 -10 -11 -12 -13 -14 -15
leaf_value=-0.0038060748523322352 0.0037053639368227159 0.0092193761531754199 0.00072158665714533562 0.0047167862910508368 -7.9433316864725752e-05 0.0033437957318371856 0.00044823446972343652 0.00079628872238875692 0.0031779405947584376 -0.0019526705297463242 -0.0021512246015611722 0.006161061634542421 -0.0011347091441381385 -0.002687987551936174
leaf_weight=219 51 56 116 58 86 51 97 72 93 162 179 50 55 124
leaf_count=219 51 56 116 58 86 51 97 72 93 162 179 50 55 124
internal_value=4.51119e-12 0.00352882 -0.00169682 0.00277188 -0.00243516 0.000864093 0.00209354 0.00280921 0.00213867 -0.00130308 -0.00297301 0.00492106 0.000124532 -0.00340187
internal_weight=1469 477 992 421 770 222 320 223 165 248 522 101 171 343
internal_count=1469 477 992 421 770 222 320 223 165 248 522 101 171 343
is_linear=0
shrinkage=0.05


Tree=58
num_leaves=15
num_cat=0
split_feature=48 73 79 19 62 14 62 34 47 33 19 19 1 45
split_gain=3.17537 0.753292 0.677128 0.24175 0.169252 0.158456 0.146972 0.128471 0.0740525 0.0664127 0.0622143 0.0464116 0.0404432 0.0357298
threshold=7.6588363647460946 696249.50000000012 3.5717672109603886 2016.5000000000002 157436.14062500003 -1.4343731999397276 577558.59375000012 1.5000000000000002 12.41083335876465 34.500000000000007 2020.5000000000002 2020.5000000000002 1161.5739746093752 4.5000000000000009
decision_type=2 2 2 2 2 2 2 2 2 2 2 2 2 2
left_child=2 3 4 -2 9 -5 11 -7 -6 13 12 -4 -9 -1
right_child=1 -3 6 5 8 7 -8 10 -10 -11 -12 -13 -14 -15
leaf_value=-0.0036157711401324484 0.0051694260307446217 0.0091589707126840947 0.00068550732306009421 0.0045419087400659919 -7.290786916200887e-05 0.0031604912378478478 0.0031766059122781049 0.00050188907550182196 -0.0018786862773049508 -0.0020436633714993732 -0.00023156017797756816 -0.0010779736787927421 0.002342673023294255 -0.0025535881675750717
leaf_weight=219 79 50 116 56 88 94 51 50 160 179 74 55 74 124
leaf_count=219 79 50 116 56 88 94 51 50 160 179 74 55 74 124
internal_value=5.47226e-12 0.00335238 -0.00161198 0.00267245 -0.0023134 0.0021056 0.000820888 0.00163837 -0.00123793 -0.00282436 0.000915741 0.000118306 0.00160042 -0.00323177
internal_weight=1469 477 992 427 770 348 222 292 248 522 198 171 124 343
internal_count=1469 477 992 427 770 348 222 292 248 522 198 171 124 343
is_linear=0
shrinkage=0.05


Tree=59
num_leaves=15
num_cat=0
split_feature=70 79 79 13 0 34 34 2 47 34 62 20 50 59
split_gain=2.88506 0.727273 0.490635 0.289003 0.131436 0.101593 0.0928857 0.0918164 0.0816846 0.0684071 0.0511675 0.0470296 0.0454568 0.044519
threshold=434744.87500000006 12.962715148925783 1.3558189868927004 1.1737284660339358 69326.414062500015 1.5000000000000002 1.5000000000000002 18.207973480224613 11.620417118072512 2.5000000000000004 204234.50000000003 1.0000000180025095e-35 276778.73437500006 564546.21875000012
decision_type=2 2 2 2 2 2 2 2 2 2 2 2 2 2
left_child=2 3 7 4 -2 -4 -6 9 -7 10 -1 -9 -10 -8
right_child=1 -3 5 -5 6 8 13 11 12 -11 -12 -13 -14 -15
leaf_value=-0.0017434239583963063 0.0044977881845322072 0.0079596723824327531 0.0019603254729329404 -0.0003432202053123287 0.0037119313923668577 0.00073367331347071749 0.0010381189684682925 -0.0038028079352807258 -0.0021835028858030918 -0.0023465938219857036 0.00032611524243293389 -0.0025425374348241464 -0.00030355866286246218 0.0026037489781083425
leaf_weight=64 96 65 59 84 85 96 105 100 61 165 56 285 68 80
leaf_count=64 96 65 59 84 85 96 105 100 61 165 56 285 68 80
internal_value=3.17351e-12 0.00301583 -0.00162804 0.00230172 0.00290875 0.000113578 0.00234377 -0.00236628 -0.00037068 -0.00168598 -0.000777639 -0.00286988 -0.00119252 0.00171515
internal_weight=1469 515 954 450 366 284 270 670 225 285 120 385 129 185
internal_count=1469 515 954 450 366 284 270 670 225 285 120 385 129 185
is_linear=0
shrinkage=0.05


Tree=60
num_leaves=15
num_cat=0
split_feature=26 6 79 79 34 1 12 0 14 50 11 57 7 11
split_gain=2.62114 0.802641 0.312949 0.264435 0.174706 0.137465 0.134284 0.0770498 0.0722324 0.0925163 0.0657745 0.0534773 0.049947 0.0443613
threshold=0.16704543679952624 2.8105679750442509 8.0885777473449725 0.83987069129943859 1.5000000000000002 1267.123474121094 -0.89388760924339283 54126.677734375007 1.0763959884643557 406908.43750000006 0.35409481823444372 10.868750095367433 21.597111701965336 -0.73081898689270008
decision_type=2 2 2 2 2 2 2 2 2 2 2 2 2 2
left_child=3 -2 4 12 10 6 -4 -5 9 -6 -3 -8 -1 -9
right_child=1 2 5 7 8 -7 11 13 -10 -11 -12 -13 -14 -15
leaf_value=-0.0021863109564143344 0.0082251124712199256 0.0035050230015151425 0.0061998850489035258 0.0012809391627467681 -0.00058443729658788277 0.0014675023104676879 0.0041851804836694232 0.00022603691053249081 -0.0015168179283101186 0.0015597950165953934 0.0011296443391805879 0.002009664165885433 -0.0032211108136107214 -0.0015264543815229703
leaf_weight=430 53 68 50 51 92 76 56 54 51 111 51 57 160 109
leaf_count=430 53 68 50 51 92 76 56 54 51 111 51 57 160 109
internal_value=1.10056e-12 0.00232232 0.00181113 -0.00192082 0.000906072 0.00322362 0.00404242 -0.000415185 0.000165399 0.000588025 0.002487 0.0030878 -0.00246693 -0.000945874
internal_weight=1469 665 612 804 373 239 163 214 254 203 119 113 590 163
internal_count=1469 665 612 804 373 239 163 214 254 203 119 113 590 163
is_linear=0
shrinkage=0.05


Tree=61
num_leaves=15
num_cat=0
split_feature=48 62 79 19 11 62 62 74 34 34 33 47 20 5
split_gain=2.36746 0.650697 0.516536 0.245441 0.230662 0.122321 0.120208 0.0781056 0.0842747 0.0596918 0.0553939 0.0410169 0.0365063 0.0301965
threshold=7.6588363647460946 729203.43750000012 3.5717672109603886 2016.5000000000002 -1.3161637783050535 157436.14062500003 577558.59375000012 99072.449218750015 1.5000000000000002 1.5000000000000002 33.500000000000007 11.970416545867922 1.0000000180025095e-35 11.872844696044924
decision_type=2 2 2 2 2 2 2 2 2 2 2 2 2 2
left_child=2 3 5 -2 -5 10 11 8 -6 -7 -1 -4 -12 -11
right_child=1 -3 6 4 7 9 -8 -9 -10 13 12 -13 -14 -15
leaf_value=-0.0028699266823260447 0.0048790967714416591 0.0079581126949051402 0.00079845435548316134 0.0037746283514915333 0.0027579391536111126 -2.5562684932929398e-05 0.0028634486311370985 -0.00088436330583499523 0.00060213220289476936 -0.002662496262928471 -0.0028241735286428597 -0.00075801279616554253 -0.0013992393586903329 -0.0011926920259193632
leaf_weight=307 72 56 94 95 68 86 51 50 136 51 64 77 151 111
leaf_count=307 72 56 94 95 68 86 51 50 136 51 64 77 151 111
internal_value=-1.8814e-12 0.00289466 -0.00139189 0.00222113 0.00167278 -0.00200451 0.000732989 0.00088666 0.00132073 -0.00109022 -0.00243889 9.7589e-05 -0.00182341 -0.00165541
internal_weight=1469 477 992 421 349 770 222 254 204 248 522 171 215 162
internal_count=1469 477 992 421 349 770 222 254 204 248 522 171 215 162
is_linear=0
shrinkage=0.05


Tree=62
num_leaves=15
num_cat=0
split_feature=26 6 79 79 34 1 14 14 50 11 7 19 34 5
split_gain=2.15908 0.698895 0.253821 0.236674 0.175137 0.111149 0.0824416 0.0735023 0.089044 0.0690159 0.060695 0.0452065 0.0411242 0.027883
threshold=0.20088311284780505 2.8105679750442509 8.6642241477966326 3.508836150169373 1.5000000000000002 1220.8264770507815 -0.46349693834781641 1.0763959884643557 406908.43750000006 0.35409481823444372 21.597111701965336 2018.5000000000002 4.5000000000000009 9.0586209297180194
decision_type=2 2 2 2 2 2 2 2 2 2 2 2 2 2
left_child=3 -2 4 10 9 6 -4 8 -6 -3 12 -5 -1 -10
right_child=1 2 5 11 7 -7 -8 -9 13 -11 -12 -13 -14 -15
leaf_value=-0.0015200716717575016 0.0076568861179249275 0.0034996634961238929 0.0055856520711791285 0.0012953637362858117 -0.00061526368548727361 0.0017055564092388947 0.0029426246781700423 -0.0015188247119487428 0.00083411755811146177 0.0011205803091191532 -0.0029305255749204665 -0.00057268936648809663 -0.0024705180283271181 0.0023535931291168229
leaf_weight=362 53 70 51 57 89 86 70 51 74 54 160 75 166 51
leaf_count=362 53 70 51 57 89 86 70 51 74 54 160 75 166 51
internal_value=7.83565e-13 0.00215466 0.00166536 -0.00170533 0.000912666 0.00307985 0.00405663 0.000186941 0.000593456 0.00246361 -0.00207741 0.00023397 -0.00181889 0.00145406
internal_weight=1469 649 596 820 389 207 121 265 214 124 688 132 528 125
internal_count=1469 649 596 820 389 207 121 265 214 124 688 132 528 125
is_linear=0
shrinkage=0.05


Tree=63
num_leaves=15
num_cat=0
split_feature=70 56 79 14 34 43 1 34 47 0 79 57 38 34
split_gain=1.95412 0.596279 0.33841 0.183755 0.13573 0.151831 0.102266 0.0803923 0.0641271 0.0639506 0.0510926 0.0588889 0.0463867 0.0502121
threshold=434744.87500000006 748374.18750000012 1.3558189868927004 -1.3017847537994383 1.5000000000000002 3.5000000000000004 778.06649780273449 1.5000000000000002 11.620417118072512 98149.023437500015 5.5814654827117929 11.154526233673097 1.0000000180025095e-35 4.5000000000000009
decision_type=2 2 2 2 2 2 2 2 2 2 2 2 2 2
left_child=2 3 9 -2 5 -5 -6 -4 -9 12 -8 -12 13 -1
right_child=1 -3 7 4 6 -7 10 8 -10 -11 11 -13 -14 -15
leaf_value=-0.0015593562887837868 0.0047560338211684108 0.0076704102214425812 0.0017493418991068475 0.0048343368477021462 0.0025753225803877193 0.0012318485691725136 -0.00084581535546541489 0.0006542654035987046 -0.0010524125182919941 -0.00046267904740279146 0.001594933864550946 -0.00039472801308556085 -0.0031089203693542861 -0.0026059785626847383
leaf_weight=332 51 50 59 58 77 59 56 96 129 65 107 57 98 175
leaf_count=332 51 50 59 58 77 59 56 96 129 65 107 57 98 175
internal_value=6.50351e-12 0.00248202 -0.00133988 0.00192413 0.00157527 0.0030177 0.00100705 0.000106547 -0.00032423 -0.00195299 0.000458149 0.000903405 -0.0021131 -0.00192062
internal_weight=1469 515 954 465 414 117 297 284 225 670 220 164 605 507
internal_count=1469 515 954 465 414 117 297 284 225 670 220 164 605 507
is_linear=0
shrinkage=0.05


Tree=64
num_leaves=15
num_cat=0
split_feature=26 2 79 79 34 11 1 0 14 14 50 11 38 34
split_gain=1.77606 0.613878 0.246766 0.179336 0.13316 0.0825211 0.0816244 0.0755457 0.0743284 0.0709321 0.0799852 0.0399867 0.0386938 0.034237
threshold=0.16704543679952624 2.446336150169373 8.6642241477966326 0.57952585816383373 1.5000000000000002 0.35409481823444372 1220.8264770507815 52593.585937500007 -0.46349693834781641 1.0932019352912905 406908.43750000006 -0.82844826579093922 1.0000000180025095e-35 4.5000000000000009
decision_type=2 2 2 2 2 2 2 2 2 2 2 2 2 2
left_child=3 -2 4 12 5 -3 8 -5 -4 10 -6 -9 13 -1
right_child=1 2 6 7 9 -7 -8 11 -10 -11 -12 -13 -14 -15
leaf_value=-0.0015533713588878912 0.0070216745327882192 0.0031540028429967726 0.0051509597564718748 0.0013281914546387271 -0.00059457285660755596 0.00063510996506324624 0.0016694702561099327 0.00032222036008897704 0.0026488116529153685 -0.0015891206912929192 0.0013178763044888052 -0.0013489228016364254 -0.0029534743704395941 -0.0024387042512465824
leaf_weight=312 54 74 51 50 96 58 84 50 71 50 127 126 98 168
leaf_count=312 54 74 51 50 96 58 84 50 71 50 127 126 98 168
internal_value=1.83258e-12 0.00191164 0.00146001 -0.00158114 0.000743377 0.00204722 0.00286893 -0.000386919 0.00369479 0.00011295 0.00049458 -0.000874166 -0.00204809 -0.00186324
internal_weight=1469 665 611 804 405 132 206 226 122 273 223 176 578 480
internal_count=1469 665 611 804 405 132 206 226 122 273 223 176 578 480
is_linear=0
shrinkage=0.05


Tree=65
num_leaves=15
num_cat=0
split_feature=26 0 14 79 34 43 19 19 62 65 14 33 20 63
split_gain=1.60489 0.550579 0.328628 0.213144 0.128169 0.144605 0.105165 0.0708215 0.0587155 0.0551003 0.0411782 0.0408693 0.0302047 0.0272841
threshold=0.31717954576015478 58339.277343750007 -1.4343731999397276 3.5717672109603886 4.5000000000000009 3.5000000000000004 2019.5000000000002 2018.5000000000002 151105.28906250003 1.0887458920478823 -0.26742596924304957 33.500000000000007 1.0000000180025095e-35 9.7224135398864764
decision_type=2 2 2 2 2 2 2 2 2 2 2 2 2 2
left_child=3 -2 -3 8 5 -4 9 -5 11 -7 -10 -1 -13 -6
right_child=1 2 4 7 13 6 -8 -9 10 -11 -12 12 -14 -15
