tree
version=v4
num_class=1
num_tree_per_iteration=1
label_index=0
max_feature_idx=79
objective=regression
feature_names=Column_0 Column_1 Column_2 Column_3 Column_4 Column_5 Column_6 Column_7 Column_8 Column_9 Column_10 Column_11 Column_12 Column_13 Column_14 Column_15 Column_16 Column_17 Column_18 Column_19 Column_20 Column_21 Column_22 Column_23 Column_24 Column_25 Column_26 Column_27 Column_28 Column_29 Column_30 Column_31 Column_32 Column_33 Column_34 Column_35 Column_36 Column_37 Column_38 Column_39 Column_40 Column_41 Column_42 Column_43 Column_44 Column_45 Column_46 Column_47 Column_48 Column_49 Column_50 Column_51 Column_52 Column_53 Column_54 Column_55 Column_56 Column_57 Column_58 Column_59 Column_60 Column_61 Column_62 Column_63 Column_64 Column_65 Column_66 Column_67 Column_68 Column_69 Column_70 Column_71 Column_72 Column_73 Column_74 Column_75 Column_76 Column_77 Column_78 Column_79
feature_infos=[27555.4296875:141030.234375] [42.631999969482422:6012.419921875] [-4.1974139213562012:29.082757949829102] [-4.1974139213562012:29.082757949829102] [-4.1974139213562012:29.082757949829102] [-2.3931033611297607:29.082757949829102] [-2.7925581932067871:27.43565559387207] [-3.1518964767456055:27.815130233764648] [-2.6130292415618896:28.585823059082031] [0:1] [0:1] [-6.2469825744628906:5.4982757568359375] [-5.7270913124084473:4.2964434623718262] [-5.4060773849487305:5.4337067604064941] [-4.3462424278259277:3.2152447700500488] [0:1] [0:1] [0:11] [1:12] [2016:2022] [0:1] [0:1] [0:1] [0:1] [0:1] [0:1] [-0.99996298551559448:1] [-0.99999076128005981:0.99999076128005981] [0:6] [1:4] [0:2] [1:366] [1:31] [1:53] [0:6] [0:3] [0:3] [0:1] [0:1] [0:13] [0:38] [0:6] [0:1] [0:7] [0:1] [0:7] [0:1] [8.2427778244018555:16.112222671508789] [0:20.697414398193359] [0:121.73577880859375] [42127.09765625:1015272.4375] [0:20.697414398193359] [-4.1974139213562012:29.082757949829102] [43611.609375:1017745.9375] [0:18.893102645874023] [-2.3931033611297607:29.082757949829102] [42127.09765625:1017745.9375] [0:18.541379928588867] [-2.0413792133331299:29.082757949829102] [43611.609375:1015272.4375] [0:20.697414398193359] [-4.1974139213562012:29.082757949829102] [42127.09765625:1017745.9375] [0:18.893102645874023] [-2.3931033611297607:28.667673110961914] [0.29091864824295044:2.7413263320922852] [46936.6171875:1009162] [46201.78515625:990644] [95.902801513671875:143911.59375] [52610.59375:973364.3125] [50892.8984375:941477.875] [3273.728759765625:188551.625] [54564.98046875:919765.0625] [54711.0625:906004.4375] [4203.9775390625:225995.796875] [0:1] [0:1] [0:16.927154541015625] [0:5] [0:20.697414398193359]
tree_sizes=2857 2845 2870 2858 2872 2883 2856 2842 2861 2893 2866 2917 2925 2916 2926 2967 2932 2933 2905 2945 2968 3018 3004 3060 3038 3007 3008 3024 2984 3012 3062 3111 3037 3020 3076 3076 3083 3075 3067 3083 3137 3109 3140 3071 3114 3131 3085 3053 3130 3214 3147 3174 3224 3139 3231 3154 3222 3176 3186 3245 3220 3171 3186 3257 3222 3309 3206 3234 3239 3240 3261 3233 3151 3251 3260 3226 3198 3204 3269 3234 3278 3222 3251 3162 3260 3276 3282 3224 3254 3265 3170 3282 3246 3265 3249 3259 3301 3157 3271 3308 3297 3294 3260 3319 3272 3300 3253 3238 3237 3379 3253 3272 3285 3281 3317 3224 3259 3307 3209 3297 3285 3280 3294 3357 3357 3345 3340 3258 3292 3265 3296 3372 3288 3292 3321 3278 3358 3302 3265 3322 3369 3290 3321 3216 3349 3324 3284 3347 3341 3317 3337 3298 3337 3285 3274 3351 3349 3329 3317 3273 3311 3367 3362 3353 3339 3288 3323 3325 3307 3308 3383 3286 3348 3365 3244 3329 3302 3364 3387 3340 3289 3297 3355 3355 3280 3403 3293 3297 3326 3358 3324 3293 3269 3382 3309 3348 3354 3313 3272 3326 3381 3298 3391 3322 3314 3348 3255 3248 3330 3347 3331 3333 3322 3274 3290 3292 3288 3312 3321 3330 3364 3340 3379 3342 3312 3286 3374 3350 3305 3346 3317 3312 3217 3345 3335 3288 3282 3316 3374 3358 3316 3324 3308 3293 3337 3309 3321 3326 3319 3324 3316 3304 3276 3340 3334 3299 3319 3412 3363 3336 3292 3302 3296 3368 3311 3338 3310 3295 3344 3364 3272 3258 3283 3280 3350 3373 3330 3327 3341 3290 3308 3388 3318 3304 3306 3281 3338 3306 3329 3342 3359 3305 3344 3358 3372 3239 3345 3310 3274 3297 3328 3258 3291 3342 3361 3221 3315 3269 3318 3363 3348 3304 3313 3241 3250 3300 3343 3302 3339 3278 3258 3361 3291 3293 3353 3236 3348 3270 3362 3305 3353 3261 3328 3402

Tree=0
num_leaves=31
num_cat=0
split_feature=50 50 50 50 50 50 2 50 50 6 13 2 14 48 50 50 13 48 14 13 12 6 59 2 69 48 11 13 67 50
split_gain=1110.77 146.863 82.8629 26.2223 25.1797 11.2464 6.36803 5.25522 5.10361 4.17779 3.37815 2.44927 2.10567 2.0689 2.03846 1.76149 1.44438 1.11048 1.0426 1.03271 0.954683 0.876936 0.769645 0.749233 0.717228 0.646491 0.615978 0.517962 0.457374 0.419629
threshold=339485.12500000006 588649.81250000012 159824.53906250003 437758.95312500006 768325.62500000012 240838.05468750003 7.1469829082489023 658132.37500000012 103025.23437500001 1.0000000180025095e-35 0.15202586352825168 10.764655113220217 -0.1626762971282005 10.987715721130373 516096.12500000006 534044.56250000012 1.1737284660339358 3.2842671871185307 -1.6885473132133482 0.33017240464687353 -1.29149854183197 13.856014251708986 80238.628906250015 8.9984912872314471 756557.59375000012 0.9913792908191682 1.21422415971756 -0.44372844696044916 387983.78125000006 689918.37500000012
decision_type=2 2 2 2 2 2 2 2 2 2 2 2 2 2 2 2 2 2 2 2 2 2 2 2 2 2 2 2 2 2
left_child=2 3 8 10 7 17 14 12 22 -6 18 23 -3 -9 -5 19 24 -4 -2 -8 -16 -13 -1 -7 -11 -10 -17 29 -20 -15
right_child=1 4 5 6 9 11 15 13 25 16 -12 21 -14 27 20 26 -18 -19 28 -21 -22 -23 -24 -25 -26 -27 -28 -29 -30 -31
leaf_value=-0.10989013121476029 0.074242078396228608 0.14582554634996353 -0.060059204130362288 0.084300489756015604 0.28273398879423506 0.033983586388377 0.071595977235267574 0.13957402155907858 -0.088154555232006465 0.21268676820650462 0.015026248271650267 -0.015762582143100449 0.11397215289313038 0.16775702141975127 0.1327163666810072 0.099190207922435047 0.17135499208141419 -0.040727401631177253 0.03212128268110595 0.053432249265202909 0.10451052763317789 -0.044877961245628546 -0.10124579608829462 0.0022410429181340748 0.24987850192442304 -0.072815647306876341 0.07398042268145183 0.16375608447447187 0.046770136978392475 0.19218102696791059
leaf_weight=239 9.9999999999999982 36 78 48 10.999999999999998 9.9999999999999982 68 28 93 20.000000000000004 72 75 49 12.000000000000002 15.999999999999998 21 6.9999999999999991 48 39 58 48 11.999999999999998 181 29 6.9999999999999991 39 18 33 47 17
leaf_count=239 10 36 78 48 11 10 68 28 93 20 72 75 49 12 16 21 7 48 39 58 48 12 181 29 7 39 18 33 47 17
internal_value=3.55665e-11 0.0956133 -0.0790831 0.0625705 0.16245 -0.0315692 0.0814752 0.145295 -0.100774 0.229165 0.0314002 -0.0104437 0.127463 0.162135 0.0998785 0.0689833 0.211834 -0.0526947 0.0436807 0.0632349 0.111562 -0.0197785 -0.106165 0.0103802 0.222329 -0.0836226 0.0875549 0.172324 0.0401271 0.182075
internal_weight=1469 665 804 445 220 252 277 175 552 45 168 126 85 90 112 165 34 126 96 126 64 87 420 39 27 132 39 62 86 29
internal_count=1469 665 804 445 220 252 277 175 552 45 168 126 85 90 112 165 34 126 96 126 64 87 420 39 27 132 39 62 86 29
is_linear=0
shrinkage=1


Tree=1
num_leaves=31
num_cat=0
split_feature=50 50 50 50 50 50 50 2 79 2 12 50 13 13 50 2 50 13 50 70 59 50 2 79 13 50 11 14 11 50
split_gain=899.932 114.36 73.1644 20.523 18.9891 8.88031 5.54009 4.77989 4.1055 3.5317 2.71752 2.05279 1.6263 1.45348 1.43128 1.12591 1.11626 1.0177 0.890548 0.81733 0.725658 0.700724 0.671414 0.665839 0.652318 0.566145 0.535322 0.5217 0.496178 0.487292
threshold=347914.98437500006 588649.81250000012 174856.46875000003 742911.93750000012 442717.18750000006 253547.89062500003 105665.53125000001 7.9681034088134775 16.138146877288822 5.6086208820343026 0.21756508201360705 516096.12500000006 -0.34624999761581415 0.93995690345764171 658132.37500000012 12.535129070281984 514062.46875000006 -1.5542025566101072 394831.34375000006 761311.37500000012 69970.718750000015 654154.00000000012 13.906250000000002 0.83987069129943859 -1.856422424316406 292519.48437500006 0.90517240762710582 0.73381790518760692 0.35409481823444372 205751.76562500003
decision_type=2 2 2 2 2 2 2 2 2 2 2 2 2 2 2 2 2 2 2 2 2 2 2 2 2 2 2 2 2 2
left_child=2 4 6 9 10 15 20 11 13 14 18 28 25 19 -3 -4 26 -13 -2 -5 -1 -11 -14 -8 -20 -7 -9 -18 -6 -17
right_child=1 3 5 8 7 12 23 16 -10 21 -12 17 22 -15 -16 29 27 -19 24 -21 -22 -23 -24 -25 -26 -27 -28 -29 -30 -31
leaf_value=-0.10090917620882892 0.030852478690697654 0.12651901794107337 -0.027429424806991044 0.18556220738784127 0.077775116290962495 -0.0018776302863108487 -0.076761583138986969 0.058170109478438772 0.25374922535636207 0.10407388697970997 0.014519449571895673 0.12384193638960522 -0.009554828337929918 0.15396567366339944 0.15175563227046621 -0.057209782493420139 0.083730936677832365 0.092254756478702321 0.080446778734525048 0.21980678200721743 -0.092286909784950563 0.12431034360613143 -0.035269435867667197 -0.061561482999382959 0.04565776533113336 0.021448768513358158 0.040232635326849835 0.061931100602333367 0.056764124333858496 -0.042482646821804769
leaf_weight=149 48 38 34 23 57 19 97 41 10.999999999999998 44 61 11.999999999999998 66 10.999999999999998 55 39 19 68 5.9999999999999991 9.9999999999999982 283 28 11.999999999999998 41 53 23 28 26 13.999999999999998 53
leaf_count=149 48 38 34 23 57 19 97 41 11 44 61 12 66 11 55 39 19 68 6 10 283 28 12 41 53 23 28 26 14 53
internal_value=-3.93181e-10 0.0874948 -0.0700173 0.146205 0.0576652 -0.0244373 -0.0896887 0.0743392 0.199107 0.128571 0.031364 0.0860086 -0.00496838 0.185446 0.141444 -0.0429791 0.0588823 0.0969928 0.0409669 0.195939 -0.0952608 0.111944 -0.0135109 -0.0722456 0.0491956 0.0108964 0.0508911 0.0711355 0.0736321 -0.0487257
internal_weight=1469 653 816 220 433 246 570 265 55 165 168 151 120 44 93 126 114 80 107 33 432 72 78 138 59 42 69 45 71 92
internal_count=1469 653 816 220 433 246 570 265 55 165 168 151 120 44 93 126 114 80 107 33 432 72 78 138 59 42 69 45 71 92
is_linear=0
shrinkage=0.1


Tree=2
num_leaves=31
num_cat=0
split_feature=50 50 50 50 50 50 50 7 50 48 13 13 79 13 79 79 50 48 13 14 12 50 48 12 50 2 13 50 48 0
split_gain=729.481 107.717 40.3235 23.7134 14.1835 6.53403 4.31435 3.3673 3.33623 2.99308 2.32908 1.96281 1.78051 1.11209 0.990992 0.814435 0.77882 0.776846 0.729508 0.61975 0.615765 0.554868 0.532317 0.469136 0.467265 0.463398 0.461423 0.441111 0.433417 0.428463
threshold=309129.92187500006 550367.28125000012 159824.53906250003 742911.93750000012 437758.95312500006 635304.03125000012 240838.05468750003 1.3867887854576113 98334.253906250015 7.06357765197754 -0.5506034493446349 0.11603448167443277 11.011853218078615 -1.0532543063163755 4.7950432300567636 17.327370643615726 507171.67187500006 2.165732860565186 0.93995690345764171 -2.1125018596649165 0.36092489957809454 372632.82812500006 0.24806033819913867 1.0844457745552065 521645.37500000006 14.410776138305666 -0.59353446960449208 80241.785156250015 6.5827586650848398 63650.337890625007
decision_type=2 2 2 2 2 2 2 2 2 2 2 2 2 2 2 2 2 2 2 2 2 2 2 2 2 2 2 2 2 2
left_child=2 4 8 5 9 11 17 15 27 14 24 -3 20 -8 21 29 28 -4 -9 -11 -7 -2 -10 -18 -6 -15 -14 -1 -12 -5
right_child=1 3 6 7 10 12 13 18 22 19 16 -13 26 25 -16 -17 23 -19 -20 -21 -22 -23 -24 -25 -26 -27 -28 -29 -30 -31
leaf_value=-0.08888194373873777 -0.0045185739857566262 0.10298267828695702 -0.051140826041328497 0.21819506645202622 0.071654692899297795 0.12298558642787319 0.011927388475409577 0.1698799060738605 -0.07400064488937115 0.060534827709198005 0.033596247415989641 0.078204130116970305 0.14847817569971086 -0.015703538854634672 0.021519863778022959 0.23578403294086459 0.068725985463927775 -0.035387066127184556 0.1385691068389199 0.033872313501642035 0.10305400413851584 0.014068077374570843 -0.061930816939898908 0.047495384613672892 0.096265953779220592 -0.038803534209728242 0.12886902491251628 -0.081973252031538227 0.05023671843939357 0.18087878823280334
leaf_weight=258 36 66 58 5.0000000000000027 54 31 13.999999999999998 23 87 9.9999999999999982 20 62 24 66 61 7.9999999999999991 34 68 10.999999999999998 68 31 29 63 14.999999999999998 8.9999999999999982 9.9999999999999982 24 144 72 7.9999999999999991
leaf_count=258 36 66 58 5 54 31 14 23 87 10 20 62 24 66 61 8 34 68 11 68 31 29 63 15 9 10 24 144 72 8
internal_value=3.17188e-10 0.0737594 -0.0673247 0.120017 0.0405405 0.106341 -0.0306943 0.179196 -0.0816583 0.0218955 0.0591854 0.0909806 0.124214 -0.0139721 0.0123652 0.21068 0.0520431 -0.0426388 0.15975 0.0372906 0.11302 0.00377393 -0.0689313 0.0622268 0.0751706 -0.018743 0.138674 -0.0864072 0.0466192 0.195231
internal_weight=1469 701 768 293 408 238 216 55 552 204 204 128 110 90 126 21 141 126 34 78 62 65 150 49 63 76 48 402 92 13
internal_count=1469 701 768 293 408 238 216 55 552 204 204 128 110 90 126 21 141 126 34 78 62 65 150 49 63 76 48 402 92 13
is_linear=0
shrinkage=0.1


Tree=3
num_leaves=31
num_cat=0
split_feature=50 50 50 50 50 50 2 79 2 67 6 50 12 12 2 50 14 14 79 79 50 2 59 2 14 50 69 14 79 50
split_gain=591.065 78.5392 43.987 13.9381 13.4325 5.95697 3.05474 2.88704 2.78287 2.76824 2.24318 1.26995 1.1727 1.09638 0.960189 0.836558 0.83266 0.776815 0.646252 0.575412 0.553392 0.519305 0.50568 0.499875 0.490906 0.445697 0.432529 0.39162 0.374109 0.364711
threshold=339485.12500000006 588649.81250000012 159824.53906250003 456584.35937500006 768325.62500000012 253547.89062500003 9.7144393920898455 9.6959052085876483 5.6086208820343026 104990.98046875001 1.0000000180025095e-35 693342.81250000012 -1.2618967294692991 0.90087622404098522 11.614439487457277 550367.28125000012 -1.6885473132133482 0.98631465435028087 5.5814654827117929 9.2021551132202166 205751.76562500003 13.906250000000002 80238.628906250015 15.683620929718019 -0.36761136353015894 521645.37500000006 756557.59375000012 -0.54768645763397206 7.5838363170623788 526199.06250000012
decision_type=2 2 2 2 2 2 2 2 2 2 2 2 2 2 2 2 2 2 2 2 2 2 2 2 2 2 2 2 2 2
left_child=2 3 9 6 8 14 16 13 11 22 -6 24 -7 15 -4 -5 -2 26 -8 -10 -16 -14 -1 -11 -3 -9 -12 -27 -18 -15
right_child=1 4 5 7 10 12 18 25 19 23 17 -13 21 29 20 -17 28 -19 -20 -21 -22 -23 -24 -25 -26 27 -28 -29 -30 -31
leaf_value=-0.080362461414574593 0.059263505041599274 0.11587761248861039 -0.011502363705741508 0.056360649509528252 0.20660409493879839 0.018791923102210551 0.0085739296206156727 0.06968008703307102 0.083979354934258899 -0.051720414466636125 0.15486053586006163 0.13094324668248494 -0.0068766765025314652 0.036275008115275155 -0.045589666870924146 0.075006496347486976 0.028249126543944819 0.12496601939201356 0.026193647719919683 0.10212304037192772 -0.032540747053348106 -0.02920355374614398 -0.073411443459021078 -0.065004836184432715 0.098112971867833826 0.098007578849792484 0.18374240398406982 0.077363569596234499 0.04073697358978038 0.053579168234552658
leaf_weight=241 15.999999999999998 35 13.999999999999998 97 10.999999999999998 17 68 19 44 43 20.000000000000004 39 79 29 65 32 47 6.9999999999999991 30 29 65 11.999999999999998 185 83 28 20 6.9999999999999991 17 49 21
leaf_count=241 16 35 14 97 11 17 68 19 44 43 20 39 79 29 65 32 47 7 30 29 65 12 185 83 28 20 7 17 49 21
internal_value=-8.74779e-11 0.0697468 -0.0576886 0.045583 0.118623 -0.0230704 0.0268613 0.0623131 0.106093 -0.0734925 0.167351 0.116761 -0.00531701 0.0561136 -0.0363855 0.060986 0.0381432 0.154652 0.0139677 0.0911871 -0.0390652 -0.00982088 -0.0773438 -0.0604713 0.107982 0.0821295 0.162348 0.0885225 0.0346231 0.0435428
internal_weight=1469 665 804 445 220 252 210 235 175 552 45 102 108 179 144 129 112 34 98 73 130 91 426 126 63 56 27 37 96 50
internal_count=1469 665 804 445 220 252 210 235 175 552 45 102 108 179 144 129 112 34 98 73 130 91 426 126 63 56 27 37 96 50
is_linear=0
shrinkage=0.1


Tree=4
num_leaves=31
num_cat=0
split_feature=50 50 50 50 50 6 3 50 13 50 6 11 79 50 50 69 14 67 13 3 50 13 6 11 14 13 69 48 14 59
split_gain=479.22 70.7594 26.3153 14.9494 10.8803 3.28284 2.98179 2.41097 2.03679 1.92303 1.81698 1.25118 1.07853 0.938915 0.826108 0.782831 0.729452 0.66887 0.62922 0.576833 0.547575 0.495495 0.457711 0.411977 0.386951 0.375475 0.350348 0.303346 0.302154 0.300317
threshold=309129.92187500006 588649.81250000012 155849.01562500003 437758.95312500006 768325.62500000012 12.329586505889894 7.1469829082489023 658132.37500000012 -0.21372845023870465 93606.093750000015 1.0000000180025095e-35 -0.094181034713983522 11.011853218078615 205751.76562500003 499833.17187500006 510496.60937500006 1.0043371319770815 383902.48437500006 1.1737284660339358 9.9521551132202166 394831.34375000006 -1.5542025566101072 15.141229152679445 1.4297413825988772 0.59347614645957958 -1.856422424316406 756557.59375000012 1.6355603337287905 -0.30169101059436793 66625.640625000015
decision_type=2 2 2 2 2 2 2 2 2 2 2 2 2 2 2 2 2 2 2 2 2 2 2 2 2 2 2 2 2 2
left_child=2 3 9 8 7 19 14 11 20 29 -6 -3 23 -7 -5 28 -17 -10 26 -4 -2 -16 -11 -9 -19 -22 -12 -15 -8 -1
right_child=1 4 5 6 10 13 15 12 17 22 18 -13 -14 27 21 16 -18 24 -20 -21 25 -23 -24 -25 -26 -27 -28 -29 -30 -31
leaf_value=-0.07483715264737105 0.021981788023628976 0.099020073376595977 0.01057416225916573 0.054033579755770535 0.18594368912956932 -0.041897040762399376 0.047738846540451053 0.10153588921793047 -0.0014691079733893276 -0.046229048499039249 0.13937447845935821 0.073978843554010937 0.11736161341058447 -0.036709164083004002 0.08840155522028606 0.057057529167523463 0.037658950925937726 0.023876984879650454 0.11246941685676576 -0.01224820405345867 0.060422264536221827 0.068046901286658593 -0.060186781295358316 0.079713665445645662 0.0083833356713876126 0.033288786779431735 0.165368161882673 -0.023069702591451389 0.033350261756115489 -0.068721985660101237
leaf_weight=119 55 32 13.999999999999998 38 10.999999999999998 76 20 31 42 28 20.000000000000004 53 47 22 14.999999999999998 63 28 27 6.9999999999999991 53 5.9999999999999991 59 146 11.999999999999998 40 34 6.9999999999999991 63 54 247
leaf_count=119 55 32 14 38 11 76 20 31 42 28 20 53 47 22 15 63 28 27 7 53 6 59 146 12 40 34 7 63 54 247
internal_value=-1.35474e-10 0.0597831 -0.0545676 0.0382962 0.106761 -0.0260802 0.0534254 0.095484 0.0177532 -0.0665956 0.150616 0.0834061 0.106891 -0.0338209 0.0660185 0.0448774 0.0510887 0.00842486 0.139187 -0.00747935 0.0284563 0.0721728 -0.0579407 0.095446 0.014627 0.0373588 0.146114 -0.0265999 0.0372391 -0.0707103
internal_weight=1469 701 768 481 220 228 277 175 204 540 45 85 90 161 112 165 91 109 34 67 95 74 174 43 67 40 27 85 74 366
internal_count=1469 701 768 481 220 228 277 175 204 540 45 85 90 161 112 165 91 109 34 67 95 74 174 43 67 40 27 85 74 366
is_linear=0
shrinkage=0.1


Tree=5
num_leaves=31
num_cat=0
split_feature=50 50 50 50 50 50 50 79 79 2 50 13 79 11 50 2 2 14 13 50 14 14 2 50 19 34 2 2 43 79
split_gain=388.213 49.6295 31.4363 9.52335 8.01695 3.91009 2.57451 2.35821 2.32103 1.79341 0.829442 0.797028 0.768295 0.748164 0.690286 0.659617 0.595818 0.547032 0.53685 0.514546 0.443994 0.414836 0.36014 0.340716 0.324384 0.321224 0.319849 0.295199 0.282917 0.265256
threshold=347914.98437500006 604921.68750000012 174856.46875000003 456584.35937500006 802524.06250000012 259158.99218750003 116072.80468750001 9.6959052085876483 11.011853218078615 9.7144393920898455 550367.28125000012 0.10950431227684022 16.138146877288822 -2.543534398078918 693342.81250000012 13.158404827117922 7.0381464958190927 0.56433007121086132 -0.41012930870056147 88371.410156250015 1.2710341215133669 0.035179389640688903 8.9984912872314471 521645.37500000006 2017.5000000000002 4.5000000000000009 10.467887878417971 16.48814678192139 3.5000000000000004 0.33857758343219763
decision_type=2 2 2 2 2 2 2 2 2 2 2 2 2 2 2 2 2 2 2 2 2 2 2 2 2 2 2 2 2 2
left_child=2 3 6 9 8 15 19 10 16 13 18 22 -6 -2 -10 26 24 -12 -5 -1 -11 -16 -7 -9 -3 28 -4 -17 -20 -8
right_child=1 4 5 7 12 11 29 23 14 20 17 -13 -14 -15 21 27 -18 -19 25 -21 -22 -23 -24 -25 -26 -27 -28 -29 -30 -31
leaf_value=-0.064241502953298169 0.051124440506100655 0.092927986575711163 -0.0012762617996486371 0.053474560283845479 0.13444002239327679 0.023282341621816159 -0.048782294594189701 0.056504426504436295 0.093584285754906515 0.015592424809743745 0.065610852241516124 -0.010616643353507428 0.16764868606220595 0.027750170223022765 0.1194715729466191 -0.031305793192117445 0.069276240906294653 0.04511246169390886 0.05733115673065186 -0.056854147407593147 -0.002043050240414838 0.097728800773620617 0.0023020762670785187 0.072279658427043841 0.077935256781401466 0.028600381433963776 -0.022811833150684836 -0.048440908888975787 0.039316660341094524 -0.038519638441503051
leaf_weight=330 15.999999999999998 31 7.9999999999999991 31 19.000000000000004 9.9999999999999982 68 19 38 69 30 59 10.999999999999998 95 27 62 34 23 9.9999999999999982 132 18 12.999999999999998 45 49 27 25 50 11.999999999999998 68 40
leaf_count=330 16 31 8 31 19 10 68 19 38 69 30 59 11 95 27 62 34 23 10 132 18 13 45 49 27 25 50 12 68 40
internal_value=1.65589e-11 0.0574662 -0.0459871 0.0391482 0.0989566 -0.0161098 -0.0588814 0.0519246 0.090546 0.0226937 0.0461255 -0.00254355 0.146617 0.0311194 0.103236 -0.0278262 0.0797871 0.0567153 0.0419371 -0.0621308 0.0119437 0.112405 0.00611667 0.0678719 0.0859486 0.0384646 -0.0198414 -0.0340845 0.0416262 -0.0449813
internal_weight=1469 653 816 453 200 246 570 255 170 198 187 114 30 111 78 132 92 53 134 462 87 40 55 68 58 103 58 74 78 108
internal_count=1469 653 816 453 200 246 570 255 170 198 187 114 30 111 78 132 92 53 134 462 87 40 55 68 58 103 58 74 78 108
is_linear=0
shrinkage=0.1


Tree=6
num_leaves=31
num_cat=0
split_feature=8 67 8 2 7 73 67 73 79 2 8 66 19 69 79 27 26 2 79 48 11 60 69 19 67 1 59 19 53 2
split_gain=313.343 41.2537 20.4973 8.91981 7.09579 3.42759 3.05237 2.1232 1.7005 1.51565 1.34352 0.904407 0.756015 0.729002 0.657577 0.650391 0.610504 0.527144 0.420423 0.412424 0.38473 0.36226 0.355599 0.381762 0.349619 0.313077 0.312169 0.31073 0.27346 0.242461
threshold=11.269795894622805 567033.59375000012 15.449648380279543 4.0502154827117929 8.6715517044067401 714919.43750000012 271306.06250000006 467403.85937500006 10.04461193084717 7.1469829082489023 17.779302597045902 651065.87500000012 2017.5000000000002 501399.64062500006 3.5717672109603886 0.28022029995918279 0.30080866813659674 8.9984912872314471 5.2400860786437997 7.5418102741241464 0.33642241358757025 12.054095268249513 421943.50000000006 2019.5000000000002 184896.17968750003 2154.646606445313 69970.718750000015 2019.5000000000002 729573.75000000012 11.110344886779787
decision_type=2 2 2 2 2 2 2 2 2 2 2 2 2 2 2 2 2 2 2 2 2 2 2 2 2 2 2 2 2 2
left_child=1 4 6 5 8 11 14 16 13 12 25 -3 -5 27 24 -7 19 -11 -9 -6 -8 -13 -10 -24 -2 -4 -12 -1 -14 -16
right_child=2 3 10 9 7 15 20 18 22 17 26 21 28 -15 29 -17 -18 -19 -20 -21 -22 -23 23 -25 -26 -27 -28 -29 -30 -31
leaf_value=0.040564285223617366 -0.036276247365432876 0.081177675351500514 -0.047594637943888615 0.0835922122001648 0.00067711809413537147 0.11809889872868851 0.0038188134042847644 0.020366367672024103 0.042642360248348936 0.059732981815057644 -0.060637154896482297 0.1074186008227499 0.061160192659923007 0.048453864011358705 -4.4296612031757832e-06 0.15306970431254463 0.017779676119894967 0.039399601519107819 0.035200423773910319 0.019652164420611892 -0.0098968973551669739 0.086811344190077355 0.072059073637832302 0.053429618071426044 -0.025692961521554689 -0.035349241701456223 -0.054800802779463587 0.029148394672665747 0.080704389678107377 -0.019597700868422788
leaf_weight=38 57 32 106 45 63 9.0000000000000018 39 29 10.999999999999998 51 139 38 35 47 7.9999999999999991 12.999999999999998 57 17 56 13.999999999999998 43 10.999999999999998 22 22 69 26 269 64 8.9999999999999982 30
leaf_count=38 57 32 106 45 63 9 39 29 11 51 139 38 35 47 8 13 57 17 56 14 43 11 22 22 69 26 269 64 9 30
internal_value=-1.66901e-11 0.049545 -0.0430525 0.0808926 0.030277 0.10376 -0.0191267 0.0177766 0.0436965 0.0658903 -0.053952 0.0942533 0.0744786 0.0381495 -0.0270032 0.138763 0.00993455 0.0546496 0.0301394 0.00412713 -0.00337357 0.102792 0.0587239 0.0627443 -0.0304806 -0.0451827 -0.0567892 0.0334014 0.0651579 -0.0154728
internal_weight=1469 683 786 260 423 103 246 219 204 157 540 81 89 149 164 22 134 68 85 77 82 49 55 44 126 132 408 102 44 38
internal_count=1469 683 786 260 423 103 246 219 204 157 540 81 89 149 164 22 134 68 85 77 82 49 55 44 126 132 408 102 44 38
is_linear=0
shrinkage=0.1


Tree=7
num_leaves=31
num_cat=0
split_feature=8 6 7 7 66 0 66 73 66 48 2 79 73 70 79 73 79 32 79 62 17 32 59 1 26 54 70 56 0 71
split_gain=253.808 31.9255 16.6617 7.28105 6.53595 2.98275 2.03203 1.69881 1.58469 1.4698 1.22062 0.958939 0.888466 0.70223 0.649683 0.623791 0.438863 0.424558 0.407091 0.401578 0.358945 0.356178 0.335521 0.310919 0.288693 0.276078 0.238533 0.219148 0.218251 0.212172
threshold=11.269795894622805 6.6181776523590097 14.890818595886232 2.7883836030960087 470916.59375000006 87491.878906250015 256549.86718750003 692453.75000000012 115475.73046875001 7.5418102741241464 8.6109914779663104 11.791810512542726 574570.50000000012 417853.09375000006 11.667026042938234 561152.46875000012 3.68857753276825 17.500000000000004 4.8142240047454843 588453.25000000012 3.5000000000000004 20.500000000000004 82153.105468750015 2204.6674804687505 0.34963449835777288 7.0698275566101083 143280.29687500003 406875.65625000006 107407.10546875001 59701.398437500007
decision_type=2 2 2 2 2 2 2 2 2 2 2 2 2 2 2 2 2 2 2 2 2 2 2 2 2 2 2 2 2 2
left_child=1 3 6 7 9 14 18 20 22 13 12 15 -6 24 -5 -7 -8 -9 26 -12 -1 -17 -4 -10 -3 -15 -2 -13 -11 -14
right_child=2 4 8 5 10 11 16 17 23 28 19 27 29 25 -16 21 -18 -19 -20 -21 -22 -23 -24 -25 -26 -27 -28 -29 -30 -31
leaf_value=0.098346820999594298 -0.035366807952523234 -0.00097343830615809223 -0.052803179263172295 0.074422626229042707 0.040024435240775348 0.042168716411545598 -0.011172160102358582 0.11001713871955868 -0.040120632555335767 0.021515095101322157 0.025534839426045831 0.048666711648305258 0.064632945880293849 0.024738180007914019 0.095941725969314579 0.065635284896080323 0.0024281726977990374 0.13671066210820124 -0.0033463921397924425 0.040122246602550149 0.076272959892566383 0.045851336738892967 -0.047292640008939013 -0.027710143752672056 0.01173064438281236 0.0098825761630326851 -0.023403539845719936 0.069067978512409131 0.03115633647793379 0.051469602823257445
leaf_weight=17 20 53 266 47 64 53 49 11.000000000000002 80 59 46 5.9999999999999991 24 29 20 26 46 12.999999999999998 8.9999999999999982 32 13.000000000000002 13.999999999999998 189 27 27 22 100 43 39 25
leaf_count=17 20 53 266 47 64 53 49 11 80 59 46 6 24 29 20 26 46 13 9 32 13 14 189 27 27 22 100 43 39 25
internal_value=1.24404e-10 0.0445905 -0.0387472 0.0719121 0.027482 0.0634545 -0.0156855 0.104646 -0.0479391 0.0160893 0.0411414 0.0552486 0.0477831 0.00915999 0.0808462 0.0492836 -0.00458674 0.124476 -0.023859 0.0315194 0.0887815 0.0587109 -0.0505142 -0.036989 0.00331419 0.0183299 -0.0253974 0.0665699 0.0253519 0.057917
internal_weight=1469 683 786 263 420 209 224 54 562 229 191 142 113 131 67 93 95 24 129 78 30 40 455 107 80 51 120 49 98 49
internal_count=1469 683 786 263 420 209 224 54 562 229 191 142 113 131 67 93 95 24 129 78 30 40 455 107 80 51 120 49 98 49
is_linear=0
shrinkage=0.1


Tree=8
num_leaves=31
num_cat=0
split_feature=50 50 50 50 50 2 50 13 12 13 50 70 50 2 50 50 34 48 34 50 12 13 50 1 79 14 79 34 11 56
split_gain=207.985 30.8623 11.2382 6.99528 3.92389 1.9847 1.63672 1.24502 0.99377 0.922039 0.690378 0.650071 0.646316 0.510992 0.510352 0.421333 0.308652 0.30573 0.300652 0.28583 0.273267 0.24843 0.244634 0.227565 0.22752 0.222355 0.212022 0.202052 0.199914 0.172936
threshold=309129.92187500006 550367.28125000012 145345.57812500003 693342.81250000012 437758.95312500006 2.446336150169373 215385.76562500003 0.045689653605222709 0.55662268400192272 -0.41012930870056147 88371.410156250015 766864.03125000012 619722.15625000012 11.750000000000002 382485.67187500006 625955.96875000012 3.5000000000000004 10.987715721130373 4.5000000000000009 507171.67187500006 -1.4013269543647764 -2.4319827556610103 372632.82812500006 1209.0329589843752 1.3398706912994387 0.92043796181678783 1.3558189868927004 5.5000000000000009 -1.5560345053672788 406875.65625000006
decision_type=2 2 2 2 2 2 2 2 2 2 2 2 2 2 2 2 2 2 2 2 2 2 2 2 2 2 2 2 2 2
left_child=2 4 10 7 8 11 26 15 14 16 -1 -5 25 -8 28 20 29 -7 19 -11 -3 -16 -10 -13 -12 -9 -4 -17 -2 -6
right_child=1 3 6 5 9 17 13 12 22 18 24 23 -14 -15 21 27 -18 -19 -20 -21 -22 -23 -24 -25 -26 -27 -28 -29 -30 -31
leaf_value=-0.047026933892206718 0.019494431858000004 0.069140279293060311 -0.030361543530050446 0.092441896597544357 0.034018639049359728 0.06113855774913516 -0.0019691220613743139 0.04291948018705144 -0.0060923993275500835 0.025688396266528541 -0.040659044527037197 0.10945589000528506 0.054651042019448627 -0.015196331011829899 0.044326174259185794 0.071889641455241612 0.034293175375822819 0.078308611810207374 0.018435116181375857 0.036756294539996556 0.052268623871107901 0.021154442099073242 0.0064583189274388846 0.13366645971934002 -0.02939015939831734 0.029631276018917563 -0.021879015762645466 0.054274456575512886 0.0075084913826475924 0.051726432259266202
leaf_weight=330 19 11.999999999999998 68 24 6.9999999999999991 13.999999999999998 46 34 25 70 172 11.000000000000002 41 80 4.9999999999999991 35 33 40 33 35 48 62 41 5.9999999999999991 20 20 52 7.9999999999999991 52 26
leaf_count=330 19 12 68 24 7 14 46 34 25 70 172 11 41 80 5 35 33 40 33 35 48 62 41 6 20 20 52 8 52 26
internal_value=-5.17331e-11 0.0393846 -0.0359487 0.0641447 0.0216035 0.0864516 -0.0183276 0.0534419 0.0117967 0.0314103 -0.044253 0.103039 0.0451851 -0.0103673 0.0166235 0.0610574 0.0411317 0.0738571 0.026761 0.0293777 0.055643 0.0228837 0.00170426 0.118001 -0.0394852 0.0379979 -0.0266858 0.0686124 0.010716 0.0479702
internal_weight=1469 701 768 293 408 95 246 198 204 204 522 41 95 126 138 103 66 54 138 105 60 67 66 17 192 54 120 43 71 33
internal_count=1469 701 768 293 408 95 246 198 204 204 522 41 95 126 138 103 66 54 138 105 60 67 66 17 192 54 120 43 71 33
is_linear=0
shrinkage=0.1


Tree=9
num_leaves=31
num_cat=0
split_feature=50 50 50 50 50 7 14 2 6 12 79 11 12 6 11 50 0 34 2 66 33 79 50 59 70 13 26 4 48 66
split_gain=168.535 23.3675 11.1762 4.50908 3.91124 1.54669 1.01384 1.00497 0.909697 0.885108 0.848241 0.42385 0.421321 0.41978 0.384889 0.342853 0.309502 0.278562 0.271981 0.27059 0.244753 0.241816 0.217404 0.206956 0.198927 0.198362 0.188091 0.187937 0.187647 0.185264
threshold=330912.40625000006 592168.12500000012 159824.53906250003 456584.35937500006 742911.93750000012 12.025689601898195 0.17973007261753085 8.0204739570617694 18.018707275390629 0.67758184671401989 15.421336174011232 -2.6532326936721797 -1.29149854183197 14.022574424743654 -2.2489223480224605 673485.43750000012 55084.613281250007 4.5000000000000009 3.3084051609039311 492460.20312500006 40.500000000000007 6.1726293563842782 416776.60937500006 64464.941406250007 105652.31640625001 -0.23482758551836011 1.0000000180025095e-35 1.0000000180025095e-35 7.9487068653106698 715016.93750000012
decision_type=2 2 2 2 2 2 2 2 2 2 2 2 2 2 2 2 2 2 2 2 2 2 2 2 2 2 2 2 2 2
left_child=2 3 8 6 9 14 11 12 24 15 18 -2 -5 20 -4 17 28 -3 -6 -14 -7 -13 -8 -10 -1 -17 -15 -12 -9 -11
right_child=1 4 5 7 10 13 22 16 23 29 27 21 19 26 -16 25 -18 -19 -20 -21 -22 -23 -24 -25 -26 -27 -28 -29 -30 -31
leaf_value=-0.036638989767857962 0.034963068664073942 0.059388530502716697 0.012207427040180741 0.04986678319317954 0.085169218063354493 -0.01706759026274085 0.0015522401112580807 0.030964143361364091 -0.045823193718028329 0.041072287369105558 0.1223383164405823 0.012000259918232378 0.028024895638227465 -0.029359038858800326 -0.0050460158837705863 0.074147828871553592 0.022403691156626975 0.042886655376507689 0.067760482217584336 0.039106312483908189 -0.0053117119990613157 0.021059201394810396 0.011990261805664388 -0.040430271241924554 -0.029459222306519057 0.061458945912974218 -0.01888938689371571 0.098956154151396317 0.052519866228103645 0.054999691018691434
leaf_weight=70 14.999999999999998 48 17 28 25 77 56 21.000000000000004 93 36 4.9999999999999991 52 30 37 54 22 73 12.999999999999998 13.999999999999998 83 23 68 31 303 86 28 32 10.999999999999998 4.9999999999999991 12.999999999999998
leaf_count=70 15 48 17 28 25 77 56 21 93 36 5 52 30 37 54 22 73 13 14 83 23 68 31 303 86 28 32 11 5 13
internal_value=4.23482e-13 0.0366355 -0.0313159 0.0239616 0.0638696 -0.0133003 0.0136897 0.0334632 -0.0391488 0.0559617 0.0868743 0.0191147 0.0388854 -0.0185037 -0.00091491 0.0609034 0.0257406 0.0558717 0.0789199 0.0361643 -0.0143637 0.0171337 0.00527154 -0.0416968 -0.0326809 0.0670421 -0.0245035 0.106263 0.0351095 0.0447673
internal_weight=1469 677 792 462 215 240 222 240 552 160 55 135 141 169 71 111 99 61 39 113 100 120 87 396 156 50 69 16 26 49
internal_count=1469 677 792 462 215 240 222 240 552 160 55 135 141 169 71 111 99 61 39 113 100 120 87 396 156 50 69 16 26 49
is_linear=0
shrinkage=0.1


Tree=10
num_leaves=31
num_cat=0
split_feature=50 50 50 50 8 50 50 13 79 50 50 14 50 13 79 34 79 50 62 70 12 79 14 2 34 79 12 19 13 32
split_gain=136.602 20.3245 7.38291 5.00099 2.19292 1.32858 1.1573 0.989134 0.676385 0.482488 0.448893 0.446314 0.434711 0.391455 0.367065 0.340936 0.311289 0.256353 0.254328 0.24365 0.21167 0.198484 0.187246 0.169034 0.164227 0.139759 0.13792 0.136937 0.133046 0.130244
threshold=309129.92187500006 534044.56250000012 143150.46875000003 693342.81250000012 9.245552062988283 802524.06250000012 215385.76562500003 0.034137930721044547 4.7116379737854013 619722.15625000012 437758.95312500006 0.035179389640688903 88371.410156250015 -0.41012930870056147 4.9823276996612558 4.5000000000000009 17.327370643615726 613471.37500000012 557749.93750000012 434744.87500000006 -1.5924558639526365 0.67737069725990307 0.98075568675994884 13.906250000000002 2.5000000000000004 0.33857758343219763 0.33234682679176336 2019.5000000000002 1.7960560321807864 20.500000000000004
decision_type=2 2 2 2 2 2 2 2 2 2 2 2 2 2 2 2 2 2 2 2 2 2 2 2 2 2 2 2 2 2
left_child=2 4 12 7 10 11 21 15 19 22 20 -5 -1 -12 23 17 -7 -3 -10 -6 -2 -4 -9 -8 27 -14 -21 -15 -13 -11
right_child=1 3 6 5 8 16 14 9 18 29 13 28 25 24 -16 -17 -18 -19 -20 26 -22 -23 -24 -25 -26 -27 -28 -29 -30 -31
leaf_value=-0.038164724030277951 0.030142382780710859 0.047200061285749398 -0.026043237006912631 0.070233099388353745 -0.0015423005791879926 0.08137182945554905 -0.0083557522746131718 0.034349349764890451 0.010808751262400461 0.048547324079733632 0.033482012172991578 0.056755940272257881 -0.033415941707789901 0.032510489873264152 0.0020082820124958677 0.038466642343479657 0.10440672188997269 0.058167038514063907 0.021274134995681898 0.018607466126030137 0.013342768551988736 -0.018096295318030049 0.023170942327250605 -0.017265593476833836 0.018591715338761392 -0.026323682266999694 0.0042369662962086939 0.021712589015563333 0.040235831340154016 0.036845897237459818
leaf_weight=330 8.9999999999999982 47 60 33 56 22.000000000000004 68 43 69 26 55 26 152 23 27 23 7.9999999999999991 39 35 11.000000000000002 45 66 23 31 46 34 17 24 5.9999999999999991 14.999999999999998
leaf_count=330 9 47 60 33 56 22 68 43 69 26 55 26 152 23 27 23 8 39 35 11 45 66 23 31 46 34 17 24 6 15
internal_value=-8.93838e-11 0.0319183 -0.0291338 0.0509862 0.0167129 0.0701073 -0.0151038 0.0425765 0.00894011 0.0357465 0.0239469 0.0620733 -0.0359856 0.0267944 -0.00832699 0.0492812 0.0875145 0.0521735 0.0143308 0.00226597 0.0161427 -0.0218806 0.0304538 -0.0111457 0.0228394 -0.0321195 0.00988252 0.0269967 0.0536584 0.0442663
internal_weight=1469 701 768 311 390 95 252 216 188 107 202 65 516 148 126 109 30 86 104 84 54 126 66 99 93 186 28 47 32 41
internal_count=1469 701 768 311 390 95 252 216 188 107 202 65 516 148 126 109 30 86 104 84 54 126 66 99 93 186 28 47 32 41
is_linear=0
shrinkage=0.1


Tree=11
num_leaves=31
num_cat=0
split_feature=50 50 50 50 50 50 50 79 14 13 13 0 50 13 68 20 12 50 12 14 79 71 6 48 12 34 73 13 79 13
split_gain=110.72 13.9917 9.23735 2.61768 2.35544 1.2809 0.794663 0.757892 0.709737 0.683564 0.35543 0.34599 0.322326 0.301879 0.273893 0.235618 0.233706 0.22284 0.194777 0.191202 0.18165 0.19056 0.173146 0.166883 0.157919 0.156248 0.152295 0.151353 0.150754 0.142097
threshold=351756.54687500006 604921.68750000012 203862.25781250003 475457.15625000006 802524.06250000012 123209.85937500001 282835.75000000006 11.667026042938234 0.46398162841796881 0.10950431227684022 -1.856422424316406 93652.882812500015 539115.56250000012 -0.76144394278526295 78592.878906250015 1.0000000180025095e-35 -1.2618967294692991 654154.00000000012 2.3662617206573491 1.061201870441437 7.3612070083618173 83584.531250000015 20.300355911254886 15.478663444519045 -0.076613020151853548 4.5000000000000009 438085.73437500006 1.7053232789039614 0.33857758343219763 0.66801723837852489
decision_type=2 2 2 2 2 2 2 2 2 2 2 2 2 2 2 2 2 2 2 2 2 2 2 2 2 2 2 2 2 2
left_child=2 3 5 8 7 15 13 17 10 12 -2 -9 25 -4 23 -1 -8 -3 -19 -11 26 -22 -17 -6 -13 -5 -12 -10 -7 -15
right_child=1 4 6 9 14 28 16 11 27 19 20 24 -14 29 -16 22 -18 18 -20 -21 21 -23 -24 -25 -26 -27 -28 -29 -30 -31
leaf_value=-0.036740135082176759 0.031467825430445372 0.037797624137666491 -0.0022785129189422286 0.03331677084033554 0.063596232732136992 -0.02498644495335145 0.013245253035655389 0.06551217525093643 0.0075548870396747632 0.026245378838344054 0.0078224818587202486 0.055086513666006233 0.040040708305659117 -0.011525648828190301 0.10012859702110291 -0.029316964167301642 -0.0012504359870520118 0.049005975105144366 0.030013906707366308 0.017014674884814989 0.018049309799221879 0.038297562003135686 -0.033787050923785651 0.080617598071694385 0.041217946136991188 0.022674811258912089 0.016573388757574005 -0.0041355450238500331 -0.018319125483588626 -0.019817612464389497
leaf_weight=126 15.999999999999998 45 27 37 9.0000000000000053 78 12.999999999999998 27 53 66 37 26 54 62 4.9999999999999991 163 77 54 5.9999999999999991 34 66 4.9999999999999991 185 15.999999999999998 11.999999999999998 22 43 13.999999999999998 60 31
leaf_count=126 16 45 27 37 9 78 13 27 53 66 37 26 54 62 5 163 77 54 6 34 66 5 185 16 12 22 43 14 60 31
internal_value=3.41559e-11 0.0309446 -0.0243567 0.021108 0.0529294 -0.0305664 -0.00625977 0.0483705 0.013807 0.0291289 0.0172953 0.0568568 0.0344581 -0.0115871 0.078763 -0.0330349 0.000843386 0.0431171 0.0471068 0.0231069 0.0157936 0.0194752 -0.0316933 0.0744899 0.050707 0.0293486 0.0125261 0.00511211 -0.0220876 -0.0142896
internal_weight=1469 647 822 447 200 612 210 170 234 213 167 65 113 120 30 474 90 105 60 100 151 71 348 25 38 59 80 67 138 93
internal_count=1469 647 822 447 200 612 210 170 234 213 167 65 113 120 30 474 90 105 60 100 151 71 348 25 38 59 80 67 138 93
is_linear=0
shrinkage=0.1


Tree=12
num_leaves=31
num_cat=0
split_feature=50 50 6 50 50 50 79 14 11 50 7 50 11 12 11 2 79 50 0 61 0 34 50 13 50 12 79 20 50 15
split_gain=89.7195 12.4831 5.99567 2.46769 2.12287 0.87239 0.619987 0.598638 0.544314 0.483763 0.475736 0.295102 0.287778 0.282112 0.243081 0.218702 0.199695 0.188172 0.170389 0.169881 0.161623 0.15165 0.146908 0.14191 0.141661 0.135205 0.125977 0.124401 0.165125 0.123087
threshold=330912.40625000006 592168.12500000012 15.141229152679445 456584.35937500006 742911.93750000012 262877.50000000006 9.5448274612426776 0.17973007261753085 1.0000000180025095e-35 117920.84375000001 1.0000000180025095e-35 658132.37500000012 0.79698273539543163 -1.2618967294692991 -2.5784482955932613 12.435345172882082 13.233836174011232 64898.062500000007 110192.91015625001 7.9803879261016855 69588.515625000015 2.5000000000000004 516096.12500000006 -1.5542025566101072 396370.90625000006 2.3662617206573491 8.1995687484741229 1.0000000180025095e-35 372632.82812500006 1.0000000180025095e-35
decision_type=2 2 2 2 2 2 2 2 2 2 2 2 2 2 2 2 2 2 2 2 2 2 2 2 2 2 2 2 2 2
left_child=2 3 5 7 8 15 12 14 19 17 -6 26 21 -7 -2 29 -12 -4 27 -3 -18 -5 -14 -8 -9 -13 -10 28 -16 -1
right_child=1 4 9 6 10 13 23 24 11 -11 16 25 22 -15 18 -17 20 -19 -20 -21 -22 -23 -24 -25 -26 -27 -28 -29 -30 -31
leaf_value=-0.015770204178988934 0.025608922820538282 0.044513254674772428 -0.033507267607931511 0.028871403359200645 0.081188896795113888 0.01152338641030448 0.041435147921244309 -0.00077759681291700831 0.024149613082408906 -0.021852032249343806 0.052012341401793741 0.043788231030488629 0.010616463318833017 -0.004084789716298067 -0.010561851598322385 -0.016459487791618575 0.079516631364822343 -0.02882106021046639 0.018113784755051539 0.055684775270913783 0.060097048282623293 0.021414758971155579 0.020334543934358018 0.030319044891060618 0.0072976211905996834 0.026321730315685271 0.034556145717700319 0.012370693624430038 0.008734283025157363 -0.0051338733927182413
leaf_weight=15.999999999999998 15.999999999999998 48 114 46 11.999999999999998 13.999999999999998 14.999999999999998 42 19 87 22 39 28 67 6.0000000000000027 115 6.0000000000000027 345 37 19 14.999999999999998 67 35 49 45 4.9999999999999991 30 59 17 34
leaf_count=16 16 48 114 46 12 14 15 42 19 87 22 39 28 67 6 115 6 345 37 19 15 67 35 49 45 5 30 59 17 34
internal_value=-5.10674e-11 0.0267301 -0.0228489 0.0174668 0.0466354 -0.00988646 0.0244958 0.00986788 0.0408095 -0.028689 0.0635835 0.0358589 0.0214309 -0.00138708 0.0140366 -0.0140589 0.0586704 -0.029985 0.0124806 0.0476813 0.0656455 0.0244502 0.0160154 0.0329244 0.00339924 0.0418034 0.030521 0.00993881 0.00370051 -0.0085375
internal_weight=1469 677 792 462 215 246 240 222 160 546 55 93 176 81 135 165 43 459 119 67 21 113 63 64 87 44 49 82 23 50
internal_count=1469 677 792 462 215 246 240 222 160 546 55 93 176 81 135 165 43 459 119 67 21 113 63 64 87 44 49 82 23 50
is_linear=0
shrinkage=0.1


Tree=13
num_leaves=31
num_cat=0
split_feature=50 50 50 50 50 7 79 79 12 14 14 67 50 12 32 11 67 20 69 50 48 14 1 50 34 11 17 62 14 34
split_gain=72.7715 8.58102 7.17891 1.68009 1.39807 0.897686 0.666521 0.555224 0.494325 0.451506 0.262493 0.267323 0.256832 0.216611 0.196547 0.181416 0.180707 0.167362 0.152916 0.14126 0.133709 0.128048 0.125524 0.122621 0.12204 0.115847 0.110468 0.105835 0.104449 0.10369
threshold=370210.00000000006 619722.15625000012 205751.76562500003 505155.37500000006 802524.06250000012 17.110711097717289 4.7116379737854013 8.0228447914123553 0.60947775840759288 -0.47303581237792963 -1.4517703652381895 491335.56250000006 292519.48437500006 -1.4013269543647764 16.500000000000004 -0.67176723480224598 680608.84375000012 1.0000000180025095e-35 123130.07812500001 678059.21875000012 6.505387783050538 1.4093609452247622 250.69049835205081 427248.10937500006 1.5000000000000002 -0.6887930929660796 5.5000000000000009 580721.31250000012 1.4703408479690554 3.5000000000000004
decision_type=2 2 2 2 2 2 2 2 2 2 2 2 2 2 2 2 2 2 2 2 2 2 2 2 2 2 2 2 2 2
left_child=2 3 5 8 9 18 12 15 10 19 27 -12 28 -9 -6 -5 29 -7 -1 -3 -8 -17 -16 -10 -15 -14 -19 -2 -4 -11
right_child=1 4 6 7 14 17 20 13 23 16 11 -13 25 24 22 21 -18 26 -20 -21 -22 -23 -24 -25 -26 -27 -28 -29 -30 -31
leaf_value=-0.022997452386400916 0.021061854770309044 0.042506957460533491 -0.009455357515728291 0.031026316032959869 0.05414142906665801 -0.0303161695852118 0.0014948940994641321 0.04128852030810188 0.001801054725762118 0.035625624209642409 0.01274066316211464 0.024410149779008784 0.0063077756490271825 0.0355670265853405 0.057198377251625021 0.020092732517514381 0.040534021691842517 -0.027283580289000561 -0.01662989556643879 0.053394570144323208 0.01119332170734803 0.0092066815767723794 0.075842541456222545 0.0099904125919792718 0.026508269895767347 -0.0044093463756144048 -0.023427900108306306 0.034773050248622893 -0.022099375299045019 0.025850262317587348
leaf_weight=55 19.000000000000004 22 98 12.999999999999998 12.000000000000002 118 44 17 33 30 134 23 12.999999999999998 20 5.0000000000000027 64 55 210 120 26 21 12.999999999999998 12.999999999999998 41 58 45 115 7.9999999999999991 6.9999999999999991 17
leaf_count=55 19 22 98 13 12 118 44 17 33 30 134 23 13 20 5 64 55 210 120 26 21 13 13 41 58 45 115 8 7 17
internal_value=6.17778e-11 0.0259365 -0.0190998 0.0184555 0.044348 -0.024695 -0.00393379 0.025728 0.0132406 0.0404067 0.0160165 0.0144502 -0.0073481 0.0310603 0.0640547 0.0200996 0.0366431 -0.0270904 -0.0186311 0.0484044 0.00462823 0.0182548 0.0706636 0.0063384 0.028831 -0.00200723 -0.0259193 0.0251244 -0.0102983 0.0320899
internal_weight=1469 623 846 443 180 618 228 185 258 150 184 157 163 95 30 90 102 443 175 48 65 77 18 74 78 58 325 27 105 47
internal_count=1469 623 846 443 180 618 228 185 258 150 184 157 163 95 30 90 102 443 175 48 65 77 18 74 78 58 325 27 105 47
is_linear=0
shrinkage=0.1


Tree=14
num_leaves=31
num_cat=0
split_feature=50 50 7 50 50 50 26 11 2 14 11 50 34 11 68 62 34 67 28 15 13 74 13 50 34 11 2 68 13 71
split_gain=58.9449 6.95062 5.86008 1.36087 1.13244 0.684169 0.577866 0.461297 0.396864 0.36572 0.248716 0.235611 0.21126 0.175077 0.169279 0.157416 0.156758 0.146372 0.140135 0.135442 0.133111 0.126543 0.115557 0.114421 0.099626 0.0927667 0.0909037 0.089001 0.087535 0.0841494
threshold=370210.00000000006 619722.15625000012 14.411551475524904 505155.37500000006 802524.06250000012 262877.50000000006 -0.07309242337942122 -0.79655173420906056 8.6109914779663104 -0.47303581237792963 -1.2103448510169981 80537.734375000015 4.5000000000000009 -1.4217672348022459 78592.878906250015 495454.20312500006 4.5000000000000009 680608.84375000012 2.5000000000000004 1.0000000180025095e-35 1.4154741168022158 81612.652343750015 0.48900862038135534 678059.21875000012 4.5000000000000009 -1.7140086293220518 1.0213361978530886 22227.390625000004 0.60663792490959179 80556.105468750015
decision_type=2 2 2 2 2 2 2 2 2 2 2 2 2 2 2 2 2 2 2 2 2 2 2 2 2 2 2 2 2 2
left_child=2 3 5 8 9 19 11 24 13 23 -7 -4 18 21 26 -10 22 28 -9 -1 -17 -2 -12 25 -5 -3 -6 -8 -11 -15
right_child=1 4 6 7 14 10 27 12 15 17 16 -13 -14 29 -16 20 -18 -19 -20 -21 -22 -23 -24 -25 -26 -27 -28 -29 -30 -31
leaf_value=-0.013529514468141966 0.018241137646171929 0.050229844450950592 -0.025762905084134965 0.03436792441776821 0.058812444470822789 0.0078456525896292411 -0.015252578062446495 0.030859215185046196 0.0050413346160458374 0.032595153870405978 0.0029581106251238714 -0.021580177402474744 0.014584691027800243 0.012555289181408944 0.07444603681564331 0.01348926630702668 -0.0097366283248577802 0.036480619257146664 0.021021032866996692 -0.0068195630631481229 -0.0011370440279798849 0.031346006244421007 -0.0050062064308239599 0.048055112935029544 0.024116095098165369 0.034734619189711179 0.046249843306011625 -0.0061555825235943004 0.023866585232317449 0.024007012522114176
leaf_weight=56 28 5.0000000000000027 263 35 16.000000000000007 34 38 18 73 27 49 276 45 77 4.9999999999999991 56 21 55 74 65 6.9999999999999991 9.9999999999999982 29 26 12.999999999999998 17 8.9999999999999982 14.999999999999998 20 6.9999999999999991
leaf_count=56 28 5 263 35 16 34 38 18 73 27 49 276 45 77 5 56 21 55 74 65 7 10 29 26 13 17 9 15 20 7
internal_value=6.65881e-11 0.0233428 -0.0171898 0.0166099 0.0399132 -0.00448376 -0.0226414 0.0231552 0.0119166 0.036366 0.000466545 -0.0236211 0.0201995 0.0160575 0.0576493 0.00820189 -0.00206769 0.0329788 0.0229459 -0.009925 0.0118641 0.0216898 -2.98161e-06 0.043564 0.0315914 0.0382563 0.0542899 -0.012678 0.0288809 0.0135096
internal_weight=1469 623 846 443 180 254 592 185 258 150 133 539 137 122 30 136 99 102 92 121 63 38 78 48 48 22 25 53 47 84
internal_count=1469 623 846 443 180 254 592 185 258 150 133 539 137 122 30 136 99 102 92 121 63 38 78 48 48 22 25 53 47 84
is_linear=0
shrinkage=0.1


Tree=15
num_leaves=31
num_cat=0
split_feature=50 50 2 50 8 79 7 79 79 11 11 50 26 26 2 34 50 50 79 34 47 50 50 50 34 58 20 47 74 69
split_gain=47.7915 7.74567 2.2322 1.78747 0.926901 0.509588 0.388589 0.338437 0.317588 0.264786 0.223811 0.19196 0.186992 0.178108 0.170617 0.164013 0.161758 0.153012 0.130395 0.129869 0.115732 0.111955 0.111037 0.103849 0.0929886 0.0923585 0.088734 0.0867407 0.0856575 0.0802387
threshold=297661.65625000006 534044.56250000012 16.161421775817875 730204.96875000012 9.245552062988283 12.105603218078615 12.893534660339357 15.145043373107912 4.7116379737854013 1.189439654350281 -1.6747844815254209 465462.70312500006 0.87377473711967479 0.030119189061224464 5.6086208820343026 1.5000000000000002 592168.12500000012 72291.476562500015 6.5918104648590097 1.5000000000000002 8.9419445991516131 398371.35937500006 398371.35937500006 648036.06250000012 4.5000000000000009 11.710775852203371 1.0000000180025095e-35 11.934999942779543 81612.652343750015 756557.59375000012
decision_type=2 2 2 2 2 2 2 2 2 2 2 2 2 2 2 2 2 2 2 2 2 2 2 2 2 2 2 2 2 2
left_child=2 4 6 5 10 9 18 14 15 16 21 -12 -7 -8 -5 20 -3 -4 -1 26 -6 -2 -10 -11 -18 -17 -13 -19 -23 -9
right_child=1 3 17 7 8 12 13 29 22 23 11 19 -14 -15 -16 25 24 27 -20 -21 -22 28 -24 -25 -26 -27 -28 -29 -30 -31
leaf_value=-0.0056416305071651579 0.011344955447647307 0.022596967740664407 -0.024016323763617252 0.043017666538556418 0.018564789121349654 0.045665136208901037 -0.014910884404827546 0.047881145278612751 0.0054607654571995111 0.015661483975808795 0.0088440638448422145 0.015657138430020392 0.031770932399912882 -0.0077285340987145908 0.024990330884854001 -0.004928216570229068 0.031711593270301819 -0.014401678417039954 0.010992399528622628 0.012779224803463357 0.0032605748424560134 0.020169241883252795 0.011830213060958919 0.025918821302744061 0.024230595119297507 0.0041078392043709762 0.026032844651490451 -0.020776152716140556 0.031603417545557025 0.062257359786467119
leaf_weight=82 8.9999999999999982 63 172 42 5.9999999999999991 12.999999999999998 123 6.0000000000000027 62 41 75 17 38 48 5.9999999999999991 46 54 23 4.9999999999999991 56 28 19.000000000000004 49 12.999999999999998 24 14.999999999999998 15.999999999999998 297 9.9999999999999982 10.999999999999998
leaf_count=82 9 63 172 42 6 13 123 6 62 41 75 17 38 48 6 46 54 23 5 56 28 19 49 13 24 15 16 297 10 11
internal_value=1.22309e-11 0.0184217 -0.0176603 0.0303099 0.00935991 0.0264129 -0.0101266 0.0450585 0.00464006 0.0240853 0.0141732 0.012571 0.0353126 -0.0128948 0.0407642 0.000395836 0.0263657 -0.0216109 -0.00468565 0.0157116 0.00596132 0.0210883 0.0082725 0.0181308 0.0294097 -0.00270624 0.0206878 -0.020318 0.0241121 0.0571834
internal_weight=1469 719 750 311 408 246 258 65 206 195 202 164 51 171 48 95 141 492 87 89 34 38 111 54 78 61 33 320 29 17
internal_count=1469 719 750 311 408 246 258 65 206 195 202 164 51 171 48 95 141 492 87 89 34 38 111 54 78 61 33 320 29 17
is_linear=0
shrinkage=0.1


Tree=16
num_leaves=31
num_cat=0
split_feature=50 50 50 3 50 7 50 79 12 62 12 11 11 32 20 79 6 34 66 34 49 50 0 26 67 27 12 34 70 53
split_gain=38.7593 4.58857 3.87527 0.913698 0.748583 0.470635 0.395552 0.394561 0.284279 0.220121 0.174101 0.152331 0.140546 0.129334 0.122903 0.118709 0.116797 0.115567 0.103846 0.102775 0.0984364 0.0927029 0.0915712 0.105971 0.0844277 0.0747651 0.0772261 0.0731194 0.0727652 0.0720475
threshold=370210.00000000006 619722.15625000012 203862.25781250003 8.6109914779663104 802524.06250000012 17.478641510009769 534044.56250000012 4.7116379737854013 -0.13553820550441739 588453.25000000012 -1.4863332509994505 -0.92112067341804493 -0.67176723480224598 16.500000000000004 1.0000000180025095e-35 0.57952585816383373 11.746759891510012 5.5000000000000009 696667.56250000012 4.5000000000000009 44.87306213378907 282835.75000000006 47928.113281250007 0.16704543679952624 680608.84375000012 0.56314551830291759 -1.78282755613327 4.5000000000000009 766864.03125000012 651766.68750000012
decision_type=2 2 2 2 2 2 2 2 2 2 2 2 2 2 2 2 2 2 2 2 2 2 2 2 2 2 2 2 2 2
left_child=2 3 5 6 8 15 11 12 17 16 -8 25 -4 -6 -7 -1 27 24 29 -12 -9 -14 -13 -24 -3 -2 -27 -5 -15 -10
right_child=1 4 7 9 13 14 10 20 18 -11 19 22 21 28 -16 -17 -18 -19 -20 -21 -22 -23 23 -25 -26 26 -28 -29 -30 -31
leaf_value=-0.016147290753932404 0.02067657061985561 0.033180070051125117 -0.000525612458919308 0.0084967455147344564 0.03877068509658177 -0.022876736447215079 0.033142082517345746 0.0018711133659558581 0.026477136351168159 0.013723320563502135 0.022447184640644255 0.024281731545925139 -0.009375826659455121 0.043181648850440957 -0.018984372452094334 -0.011121904857192236 -0.0059725581784732642 0.024517029374837879 0.029165315166825342 0.015263840423098633 0.012249772894111548 -0.0038459155810996893 0.0033128368860001079 0.012180693903221535 0.041200409900574463 0.022850773017853501 0.011710151773877443 0.0034718515865582358 0.056669160226980847 0.018184211443771015
leaf_weight=112 35 35 42 73 12.000000000000002 110 11.999999999999998 54 20 47 69 4.9999999999999991 77 6.0000000000000027 309 81 7.9999999999999991 9.9999999999999982 42 28 10.999999999999998 50 17 65 21 7.9999999999999991 28 48 11.999999999999998 22
leaf_count=112 35 35 42 73 12 110 12 54 20 47 69 5 77 6 309 81 8 10 42 28 11 50 17 65 21 8 28 48 12 22
internal_value=5.1741e-11 0.0189286 -0.0139391 0.0134581 0.0323922 -0.0181242 0.0171453 -0.00299369 0.0295081 0.00786436 0.0217793 0.0139484 -0.0055403 0.0468123 -0.0200062 -0.0140382 0.0057297 0.0344194 0.0256493 0.0203736 0.0036275 -0.0071987 0.0111434 0.0103422 0.0361877 0.0173855 0.0141858 0.0065034 0.0521733 0.0221332
internal_weight=1469 623 846 443 180 612 267 234 150 176 109 158 169 30 419 193 129 66 84 97 65 127 87 82 56 71 36 121 18 42
internal_count=1469 623 846 443 180 612 267 234 150 176 109 158 169 30 419 193 129 66 84 97 65 127 87 82 56 71 36 121 18 42
is_linear=0
shrinkage=0.1


Tree=17
num_leaves=31
num_cat=0
split_feature=50 50 50 50 50 48 13 12 13 11 62 6 70 27 2 62 79 13 26 79 72 12 79 27 71 43 50 79 1 62
split_gain=31.4234 5.17482 1.41194 1.21152 0.6714 0.40253 0.291335 0.254151 0.216334 0.211688 0.158879 0.144708 0.126537 0.126321 0.116744 0.114468 0.114202 0.111118 0.101401 0.0999312 0.0956579 0.0900464 0.0796218 0.0763138 0.0725128 0.0704291 0.0686874 0.0682644 0.108992 0.0677607
threshold=292519.48437500006 534044.56250000012 143150.46875000003 693342.81250000012 427248.10937500006 13.572844982147219 0.045689653605222709 0.55662268400192272 -0.035840516909956925 -0.13599137961864469 497432.01562500006 20.129446029663089 761311.37500000012 0.86529925465583812 9.9521551132202166 284838.71875000006 7.3612070083618173 2.2619827985763554 0.26780438423156744 1.3558189868927004 623871.21875000012 1.7970929145812991 6.5918104648590097 0.26365573704242712 54073.935546875007 4.5000000000000009 663940.00000000012 12.105603218078615 1720.4080200195315 530041.46875000012
decision_type=2 2 2 2 2 2 2 2 2 2 2 2 2 2 2 2 2 2 2 2 2 2 2 2 2 2 2 2 2 2
left_child=2 4 11 6 7 21 10 16 15 14 -3 -1 -7 22 -4 -6 29 20 -16 -11 -8 -5 -10 -14 -17 -13 -22 -12 -29 -2
right_child=1 3 9 5 8 12 17 -9 13 19 27 25 23 -15 18 24 -18 -19 -20 -21 26 -23 -24 -25 -26 -27 -28 28 -30 -31
leaf_value=-0.015612767992422462 0.0027153961546129632 0.018347598590395031 0.006453345146858031 0.029071186991726478 0.0024586396824036326 0.036260264906389963 0.014807068575489319 -0.0016141633042769336 0.0075808569186312305 -0.012915133229767284 0.024410409867763522 -0.020304857689557199 0.037430705130100231 0.0035388305162390079 -0.0074010229549672018 0.01357549104684343 0.010583102654077504 0.0021315050497651101 0.00040942733863961296 -0.0072733296073339369 0.018939255245707252 0.015954787159959474 0.014588183428972 0.051064951373980594 0.019252453413274556 -0.016982253146505803 0.028794897761609817 0.034657632206615642 0.020060824283531734 0.0085183133586758265
leaf_weight=251 79 34 8.9999999999999982 41 6.9999999999999991 29 59 66 34 75 50 158 6.0000000000000027 36 68 60 38 4.9999999999999991 22 54 33 5.9999999999999991 31 12.999999999999998 36 107 8.9999999999999982 19.000000000000004 6.9999999999999991 27
leaf_count=251 79 34 9 41 7 29 59 66 34 75 50 158 6 36 68 60 38 5 22 54 33 6 31 13 36 107 9 19 7 27
internal_value=1.59427e-11 0.0148161 -0.0144377 0.0245637 0.00749358 0.033975 0.0204245 0.00352445 0.0115795 -0.00788411 0.0240296 -0.0173335 0.0404162 0.0082909 -0.00440588 0.0148042 0.00587964 0.0166832 -0.0054918 -0.0105534 0.0174036 0.0273968 0.0109228 0.0467594 0.0157044 -0.0189633 0.0210512 0.0265716 0.0307277 0.0041935
internal_weight=1469 725 744 311 414 95 216 210 204 228 110 516 48 101 99 103 144 106 90 129 101 47 65 19 96 265 42 76 26 106
internal_count=1469 725 744 311 414 95 216 210 204 228 110 516 48 101 99 103 144 106 90 129 101 47 65 19 96 265 42 76 26 106
is_linear=0
shrinkage=0.1


Tree=18
num_leaves=31
num_cat=0
split_feature=50 50 48 79 2 33 50 79 19 13 0 33 21 34 59 28 19 0 7 49 2 56 31 49 14 11 0 19 68 34
split_gain=25.5081 3.03774 2.5697 0.636019 0.501928 0.326079 0.299403 0.283393 0.23566 0.179426 0.15586 0.152812 0.145773 0.126567 0.11889 0.11657 0.102591 0.0922813 0.090616 0.0895891 0.0855505 0.0813196 0.0775097 0.0723977 0.0694203 0.0664683 0.0591782 0.0581585 0.0579666 0.0571517
threshold=370210.00000000006 619722.15625000012 2.3295258283615117 9.3290948867797869 3.143318891525269 38.500000000000007 475457.15625000006 4.7950432300567636 2018.5000000000002 0.61450430750846874 78084.644531250015 41.500000000000007 1.0000000180025095e-35 4.5000000000000009 93962.316406250015 2.5000000000000004 2019.5000000000002 89589.207031250015 -0.80209052562713612 50.873922348022468 4.4655172824859628 419808.12500000006 28.500000000000004 44.87306213378907 0.73381790518760692 -1.6747844815254209 64661.656250000007 2020.5000000000002 43461.720703125007 2.5000000000000004
decision_type=2 2 2 2 2 2 2 2 2 2 2 2 2 2 2 2 2 2 2 2 2 2 2 2 2 2 2 2 2 2
left_child=2 3 5 6 8 12 9 11 18 25 24 21 14 15 -1 -6 19 -17 -3 -5 -18 26 -12 -9 29 -2 -4 -24 -11 -8
right_child=1 4 7 16 13 -7 10 23 -10 28 22 -13 -14 -15 -16 17 20 -19 -20 -21 -22 -23 27 -25 -26 -27 -28 -29 -30 -31
leaf_value=-0.015993588205785433 0.012698332600008983 0.048736727237701422 -0.0021853993239346892 0.0082263454794883738 0.032337774833043419 -0.0082186133701548873 0.023836011886596682 0.0015396329523624716 0.024852945428827537 -0.00073668751746225054 0.014535076237682784 0.0013510566930670072 -0.018300957638187475 0.017104039521997468 -0.012409183814726919 0.02533232033616159 0.020661629648769605 0.017304014719345354 0.0355359102670963 0.022336157220933173 0.012193367029540242 0.0036885011242702606 0.010239731053483081 0.010440369373695418 0.0097434144094586377 0.0070168984033205 -0.0076616160250646444 0.0044227154166437688 0.0058849829086102552 0.015578832732219446
leaf_weight=239 26 5.9999999999999991 24 4.9999999999999991 14.999999999999998 67 14.999999999999998 54 23 39 28 34 147 34 151 41 17 22 39 45 40 7.9999999999999991 55 10.999999999999998 9.9999999999999982 99 111 25 20 19
leaf_count=239 26 6 24 5 15 67 15 54 23 39 28 34 147 34 151 41 17 22 39 45 40 8 55 11 10 99 111 25 20 19
internal_value=2.56407e-11 0.0153557 -0.011308 0.0109046 0.0263103 -0.0147966 0.00876639 -0.00260108 0.0330873 0.00605325 0.0120507 -0.00467483 -0.0156173 0.0221957 -0.0146058 0.0244151 0.0176191 0.0225288 0.037296 0.0209252 0.014719 -0.00610756 0.0100068 0.00304591 0.0170675 0.00819864 -0.00668807 0.00842191 0.00150795 0.0192217
internal_weight=1469 623 846 443 180 604 336 242 68 184 152 177 537 112 390 78 107 63 45 50 57 143 108 65 44 125 135 80 59 34
internal_count=1469 623 846 443 180 604 336 242 68 184 152 177 537 112 390 78 107 63 45 50 57 143 108 65 44 125 135 80 59 34
is_linear=0
shrinkage=0.1


Tree=19
num_leaves=31
num_cat=0
split_feature=50 50 8 2 50 26 67 50 12 14 34 13 34 43 20 34 73 38 13 34 14 34 63 50 66 56 48 68 13 2
split_gain=20.6616 2.46057 2.11056 0.498488 0.413496 0.274223 0.216427 0.196371 0.191453 0.14775 0.137146 0.122927 0.116943 0.115814 0.110094 0.0932802 0.0905201 0.0871321 0.0799733 0.0799152 0.0778248 0.0776515 0.0771232 0.0700363 0.0688021 0.0686204 0.0676872 0.0649373 0.0617271 0.0560186
threshold=370210.00000000006 619722.15625000012 14.01351833343506 8.6109914779663104 811734.15625000012 -0.07309242337942122 491335.56250000006 262877.50000000006 -0.13553820550441739 -0.16827137768268582 4.5000000000000009 -2.1981896162033077 4.5000000000000009 3.5000000000000004 1.0000000180025095e-35 1.5000000000000002 516574.45312500006 1.0000000180025095e-35 0.48900862038135534 2.5000000000000004 0.36630798876285559 4.5000000000000009 4.7676725387573251 654154.00000000012 696667.56250000012 704496.40625000012 4.779956817626954 22227.390625000004 -1.0078017115592954 19.57499980926514
decision_type=2 2 2 2 2 2 2 2 2 2 2 2 2 2 2 2 2 2 2 2 2 2 2 2 2 2 2 2 2 2
left_child=2 3 7 6 8 14 11 19 15 21 16 -2 13 -9 -4 -3 -5 29 -15 28 -6 -8 -10 -17 -24 -26 -12 -7 -1 -16
right_child=1 4 5 10 20 27 9 12 22 -11 26 -13 -14 18 17 23 -18 -19 -20 -21 -22 -23 24 -25 25 -27 -28 -29 -30 -31
leaf_value=0.003603128365163381 0.018299444449635653 0.032037233517450449 -0.016349252553394179 0.0053036424365606816 0.038748900043336962 -0.0091565887177629136 0.019719177928442758 0.0091579070211284704 0.0305675619840622 0.011657697236331256 -0.0074801608654005191 0.0079503924440953652 -0.0054169828055559525 0.0022171114280354234 -0.01109710101358545 0.015989179462194442 0.010941483731600171 -0.016254602614286785 -0.0045664257636720629 -0.0081881083661670042 0.025684891392787297 0.01288518769585568 0.014772249669887317 0.025260295498777521 0.029667968835149494 0.018767359739903247 0.0029942287154531536 -0.0021111106781877185 -0.0045292839379726503 -0.013735874507463339
leaf_weight=11.999999999999998 12.999999999999998 17 149 68 19.000000000000004 42 60 18 4.9999999999999991 73 6.9999999999999991 98 28 63 157 9.9999999999999982 49 74 24 53 5.9999999999999991 23 39 44 6.9999999999999991 33 52 19 42 165
leaf_count=12 13 17 149 68 19 42 60 18 5 73 7 98 28 63 157 10 49 74 24 53 6 23 39 44 7 33 52 19 42 165
internal_value=-1.69515e-11 0.0138201 -0.0101772 0.00981416 0.0236793 -0.0133205 0.0125377 -0.00224046 0.0217544 0.0149392 0.0056825 0.00916244 0.000325193 0.00185644 -0.0140322 0.0255772 0.00766479 -0.0131604 0.000345791 -0.00542955 0.0356135 0.0178254 0.0185233 0.0235434 0.017761 0.020675 0.0017515 -0.0069621 -0.00272208 -0.0124493
internal_weight=1469 623 846 443 180 606 267 240 155 156 176 111 133 105 545 71 117 396 87 107 25 83 84 54 79 40 59 61 54 322
internal_count=1469 623 846 443 180 606 267 240 155 156 176 111 133 105 545 71 117 396 87 107 25 83 84 54 79 40 59 61 54 322
is_linear=0
shrinkage=0.1


Tree=20
num_leaves=31
num_cat=0
split_feature=50 50 50 50 50 79 34 14 13 12 79 71 34 50 32 48 34 33 34 45 48 13 14 5 1 54 2 2 65 50
split_gain=16.7417 2.77656 0.78154 0.673456 0.373629 0.236368 0.216153 0.157464 0.153972 0.141196 0.130451 0.120966 0.114529 0.0902817 0.081745 0.081363 0.0789575 0.07841 0.0775657 0.0959904 0.0735563 0.0729339 0.0695485 0.0675928 0.0665271 0.0643539 0.0603454 0.0561748 0.0537663 0.0528864
threshold=292519.48437500006 534044.56250000012 139450.44531250003 693342.81250000012 427248.10937500006 13.336637973785402 4.5000000000000009 0.56433007121086132 1.5448060631752016 -0.64037850499153126 3.508836150169373 33448.664062500007 2.5000000000000004 64898.062500000007 14.500000000000002 11.376077175140383 5.5000000000000009 41.500000000000007 4.5000000000000009 3.5000000000000004 9.7170257568359393 1.7960560321807864 1.061201870441437 8.5094823837280291 1112.623474121094 8.3284482955932635 9.9521551132202166 10.124353408813478 0.98078796267509472 630525.68750000012
decision_type=2 2 2 2 2 2 2 2 2 2 2 2 2 2 2 2 2 2 2 2 2 2 2 2 2 2 2 2 2 2
left_child=2 4 13 6 7 21 9 16 12 24 17 -11 23 -1 -7 -14 20 27 19 -15 -2 -5 -8 -6 -3 -26 -12 -4 -18 -13
right_child=1 3 10 5 8 14 22 -9 -10 11 26 29 15 18 -16 -17 28 -19 -20 -21 -22 -23 -24 -25 25 -27 -28 -29 -30 -31
leaf_value=-0.015213460135355331 0.0042396490207465831 0.026030217938952979 0.0015150724017682176 0.022237070575356482 0.0096973917730489734 0.025925561347428489 0.011434534685464487 -0.0019430422958223439 -0.0016221138981304 0.020450879447162153 0.0089002443850040441 0.011039220321584832 0.0063084304525400509 -0.0061442958621773869 0.035253557208038515 0.016235141207774483 -0.011061642207205296 -0.0020211056541973868 -0.013976804239313995 -0.011770528458091657 0.012438973505049945 0.011338534578680993 0.0030644707752239464 0.015576548908244482 0.0090865400930245661 0.020619020015001297 -0.0026017449357963276 -0.0083590759454166587 0.0014447968961163 0.016316758830838936
leaf_weight=114 124 18 5.9999999999999991 50 48 17 42 58 13.999999999999998 28 4.9999999999999991 55 100 35 21 8.9999999999999982 4.9999999999999991 26 134 227 11.999999999999998 6.9999999999999991 12.999999999999998 33 6.0000000000000027 25 52 145 10.999999999999998 29
leaf_count=114 124 18 6 50 48 17 42 58 14 28 5 55 100 35 21 9 5 26 134 227 12 7 13 33 6 25 52 145 11 29
internal_value=1.97011e-11 0.0108145 -0.0105383 0.0179546 0.00545078 0.0249714 0.0148685 0.00248987 0.00849878 0.0167174 -0.00575348 0.0147586 0.00924453 -0.0127337 0.0310805 0.00712807 0.00418137 -0.00709336 -0.0120198 -0.0110189 0.00496312 0.0208987 0.00945616 0.0120926 0.0211947 0.0183869 -0.0015928 -0.00796673 -0.00246347 0.0128612
internal_weight=1469 725 744 311 414 95 216 210 204 161 234 112 190 510 38 109 152 177 396 262 136 57 55 81 49 31 57 151 16 84
internal_count=1469 725 744 311 414 95 216 210 204 161 234 112 190 510 38 109 152 177 396 262 136 57 55 81 49 31 57 151 16 84
is_linear=0
shrinkage=0.1


Tree=21
num_leaves=31
num_cat=0
split_feature=50 50 50 79 50 79 34 11 69 79 34 47 13 26 59 2 13 28 32 19 48 13 2 67 26 79 32 34 65 26
split_gain=13.6167 1.57679 1.43455 0.350596 0.294547 0.199445 0.164368 0.153154 0.128014 0.127735 0.111523 0.0927457 0.0776625 0.0762227 0.0756923 0.0736261 0.0721684 0.0744586 0.0679864 0.0644365 0.068827 0.0630636 0.0620781 0.0582441 0.0590938 0.056352 0.0554405 0.0542127 0.0535233 0.0506958
threshold=372632.82812500006 619722.15625000012 203862.25781250003 9.3290948867797869 811734.15625000012 0.33857758343219763 4.5000000000000009 -0.92112067341804493 506889.65625000006 12.105603218078615 1.5000000000000002 11.477638721466066 -0.079762928187847124 0.23448270559310916 62987.003906250007 11.750000000000002 0.045689653605222709 2.5000000000000004 19.500000000000004 2017.5000000000002 11.896336555480959 0.88484913110733043 10.028879165649416 451189.84375000006 0.16704543679952624 2.6674569845199589 16.500000000000004 4.5000000000000009 1.2651617527008059 -0.70250144600868214
decision_type=2 2 2 2 2 2 2 2 2 2 2 2 2 2 2 2 2 2 2 2 2 2 2 2 2 2 2 2 2 2
left_child=2 3 5 6 9 14 8 22 12 18 -11 -9 -2 -5 -1 23 -10 -18 27 -15 -21 -20 -4 24 -8 -13 -6 -3 -29 -16
right_child=1 4 7 13 26 -7 15 11 16 10 -12 25 -14 19 29 -17 17 -19 21 20 -22 -23 -24 -25 -26 -27 -28 28 -30 -31
leaf_value=-0.014137361869215964 0.0084941008826717734 0.018824716343307027 0.0060110716797810585 0.0047308491413423324 0.023495368212461464 -0.0063280754441652322 -0.0052260955245318737 -0.0001909681330289459 0.014816932716677268 0.030476928976449099 0.019193293786672658 -0.0075983190819858869 0.0034683901788441526 0.020452014299539422 -0.011902089796352143 -0.0065515945931630473 0.015981453160444897 0.0072098762553650889 0.017094377130269997 0.010969947251402934 0.017161766855189435 0.0068422548410793154 -0.00016049416661143113 0.0058370131093994785 0.0033819716231062499 -0.0030071519777148722 0.033107901016871132 0.010539925828772154 0.021373930821816128 -0.0097255288125751051
leaf_weight=90 61 51 28 9.9999999999999982 10.000000000000002 87 10.999999999999998 64 31 10.999999999999998 43 47 62 12.999999999999998 245 6.9999999999999991 11.999999999999998 50 10.000000000000002 58 26 14.999999999999998 39 67 29 62 14.999999999999998 19.000000000000004 5.9999999999999991 190
leaf_count=90 61 51 28 10 10 87 11 64 31 11 43 47 62 13 245 7 12 50 10 58 26 15 39 67 29 62 15 19 6 190
internal_value=5.90695e-12 0.0113136 -0.00819308 0.00806918 0.0191904 -0.0107627 0.00645632 -0.00164057 0.00807767 0.0175658 0.0214918 -0.00321264 0.00596082 0.0130434 -0.0114976 0.00338429 0.0108774 0.0089076 0.0154667 0.0139004 0.0128865 0.0109431 0.00241867 0.0040343 0.00101475 -0.00498683 0.0292629 0.0169548 0.0131401 -0.0109514
internal_weight=1469 617 852 437 180 612 330 240 216 155 54 173 123 107 525 114 93 62 101 97 84 25 67 107 40 109 25 76 25 435
internal_count=1469 617 852 437 180 612 330 240 216 155 54 173 123 107 525 114 93 62 101 97 84 25 67 107 40 109 25 76 25 435
is_linear=0
shrinkage=0.1


Tree=22
num_leaves=31
num_cat=0
split_feature=50 50 48 50 50 79 2 13 14 34 26 34 31 48 34 11 20 34 11 69 13 50 2 28 59 0 43 74 6 34
split_gain=11.0444 1.60811 0.758911 0.348545 0.287483 0.143025 0.142349 0.138375 0.124497 0.122359 0.0944587 0.0825321 0.0812417 0.0806785 0.0797432 0.0796571 0.0687078 0.0646267 0.0613358 0.0611049 0.0596327 0.0584364 0.0519348 0.0490014 0.0469072 0.046453 0.0457841 0.0452503 0.044776 0.0436976
threshold=326841.06250000006 572584.25000000012 1.3461207151412966 742911.93750000012 456584.35937500006 9.4334049224853533 9.9521551132202166 -1.527306020259857 0.1029953956604004 4.5000000000000009 -0.15855351090431211 4.5000000000000009 290.50000000000006 16.896551132202152 1.5000000000000002 -1.7512931227684019 1.0000000180025095e-35 5.5000000000000009 0.029094828292727474 340229.37500000006 2.0419396162033085 673485.43750000012 4.8329741954803476 2.5000000000000004 464698.09375000006 57687.289062500007 3.5000000000000004 92777.175781250015 22.578822135925297 1.5000000000000002
decision_type=2 2 2 2 2 2 2 2 2 2 2 2 2 2 2 2 2 2 2 2 2 2 2 2 2 2 2 2 2 2
left_child=2 4 10 5 8 20 27 -6 17 18 16 12 23 22 -10 -7 -1 19 -9 -2 -3 -17 25 -8 -19 -5 -20 -4 -18 -23
right_child=1 3 6 13 7 15 11 9 14 -11 -12 -13 -14 -15 -16 21 28 24 26 -21 -22 29 -24 -25 -26 -27 -28 -29 -30 -31
leaf_value=-0.012455786268829424 0.0015075837707389957 0.011629550518991892 0.0071786293003242452 0.0270512444632394 0.015488225244916977 0.023961819708347321 -0.00026749048537264269 0.011489918923593667 0.0048171821256012964 0.003247078187197593 -0.0063402722933096822 -0.0075976434764452282 0.0027005078122866425 0.031458661291334365 -0.0013721624827132258 0.012957349233329297 -0.0092088505910038736 0.002885032662500937 0.01285620853304863 0.0072831181737516701 0.0025744419079273941 0.025958734999100369 0.012430107096831004 -0.0048359638777145412 -0.0086433527618646616 0.019906506142937222 0.0061412698000133268 -0.0037200870737433434 -0.011869105678506015 0.016722155330436569
leaf_weight=136 23 80 16.000000000000004 13.999999999999998 24 11.999999999999998 30 57 30 51 60 50 22 8.9999999999999982 68 49 277 12.000000000000002 11.999999999999998 90 7.9999999999999991 5.9999999999999991 5.9999999999999991 108 4.9999999999999991 26 66 4.9999999999999991 82 35
leaf_count=136 23 80 16 14 24 12 30 57 30 51 60 50 22 9 68 49 277 12 12 90 8 6 6 108 5 26 66 5 82 35
internal_value=2.73802e-12 0.00930167 -0.00808275 0.0157895 0.00567262 0.0137602 -0.00326633 0.00834211 0.00321389 0.00742003 -0.0100874 -0.00405133 -0.00294311 0.0227999 0.000522535 0.0163086 -0.0105416 0.00524276 0.00899647 0.00610757 0.0108064 0.0152882 0.0211058 -0.00384282 -0.000505669 0.0224072 0.00717434 0.0045837 -0.00981649 0.0180738
internal_weight=1469 683 786 245 438 190 231 210 228 186 555 210 160 55 98 102 495 130 135 113 88 90 46 138 17 40 78 21 359 41
internal_count=1469 683 786 245 438 190 231 210 228 186 555 210 160 55 98 102 495 130 135 113 88 90 46 138 17 40 78 21 359 41
is_linear=0
shrinkage=0.1


Tree=23
num_leaves=31
num_cat=0
split_feature=50 50 50 50 48 11 14 11 50 59 27 32 57 21 14 1 2 71 43 28 11 77 2 0 70 33 54 1 1 8
split_gain=8.95964 1.06526 0.931702 0.322523 0.152861 0.141438 0.132289 0.102143 0.100494 0.0987637 0.0736375 0.0685732 0.0659964 0.0627253 0.0642276 0.0613351 0.0485392 0.048359 0.0516413 0.0479009 0.0446623 0.0637089 0.0418345 0.049247 0.0414332 0.0396298 0.0368317 0.0349234 0.0348658 0.0348596
threshold=370210.00000000006 658132.37500000012 174856.46875000003 499833.17187500006 13.572844982147219 -0.79655173420906056 1.2859765291213991 -1.4217672348022459 288922.15625000006 92909.765625000015 0.91585582494735729 15.500000000000002 12.929741382598879 1.0000000180025095e-35 1.5550095438957217 815.95101928710949 9.9521551132202166 31460.429687500004 3.5000000000000004 5.5000000000000009 -2.5784482955932613 6.9760775566101083 12.7471981048584 55084.613281250007 761311.37500000012 41.500000000000007 5.283405303955079 679.64001464843761 179.27899932861331 20.949707031250004
decision_type=2 2 2 2 2 2 2 2 2 2 2 2 2 2 2 2 2 2 2 2 2 2 2 2 2 2 2 2 2 2
left_child=2 3 9 7 12 15 8 -2 16 -1 22 -6 -3 14 17 28 -4 18 -7 -17 -10 -22 23 -9 -13 -18 -12 -25 -5 -11
right_child=1 4 6 5 11 13 -8 10 20 29 26 24 -14 -15 -16 19 25 -19 -20 -21 21 -23 -24 27 -26 -27 -28 -29 -30 -31
leaf_value=-0.010046976465012201 0.0084347885777699017 0.016028624158984019 0.0038670442067086697 0.012875374555587769 0.017618391745620306 0.0201906661192576 -0.0087214895703185066 0.012739754421636463 0.007948845831884278 -0.0068430902651959551 0.0082282725721597675 0.020821680873632425 0.0097135715915457072 0.0052770260220639555 0.0024422805135448774 0.010644179448867455 -0.0041479829132552836 0.009135288367332477 0.010170009965077043 0.019628170345510759 0.0012671995986088674 -0.0093947269022464763 -0.0041810546442866327 0.012817984297871591 0.028805626470309039 0.00017850779784986607 2.298333734694508e-05 0.0042807907714386998 0.023290339774555632 -0.01056666272724497
leaf_weight=352 51 59 9.9999999999999982 4.9999999999999991 27 9.0000000000000018 26 7.9999999999999991 8.9999999999999982 189 5.9999999999999991 13.000000000000002 23 53 11.999999999999998 39 114 90 11.999999999999998 6.9999999999999991 85 5.9999999999999991 4.9999999999999991 4.9999999999999991 12.999999999999998 26 62 115 8.9999999999999982 29
leaf_count=352 51 59 10 5 27 9 26 8 9 189 6 13 23 53 12 39 114 90 12 7 85 6 5 5 13 26 62 115 9 29
internal_value=5.04414e-12 0.00910072 -0.00670183 0.00692581 0.0169626 0.00958234 -0.00193273 0.00443795 -0.0012267 -0.00901108 0.00342382 0.0211481 0.0142573 0.00815296 0.00939219 0.0137752 -0.00286372 0.0101435 0.0144646 0.0120113 0.00122883 0.000564215 0.00479243 0.00514296 0.0248137 -0.00334449 0.000746979 0.00463651 0.0195707 -0.00733843
internal_weight=1469 623 846 488 135 236 276 252 250 570 201 53 82 176 123 60 150 111 21 46 100 91 133 128 26 140 68 120 14 218
internal_count=1469 623 846 488 135 236 276 252 250 570 201 53 82 176 123 60 150 111 21 46 100 91 133 128 26 140 68 120 14 218
is_linear=0
shrinkage=0.1


Tree=24
num_leaves=31
num_cat=0
split_feature=2 50 67 50 50 13 13 34 79 34 13 34 11 43 20 56 26 53 60 27 74 14 11 38 28 31 32 27 13 11
split_gain=7.26859 1.14625 0.443372 0.285448 0.227884 0.124158 0.115589 0.0982201 0.0933072 0.0817941 0.078182 0.0706681 0.0690747 0.0598432 0.0560784 0.055174 0.0511904 0.0501699 0.0491528 0.0488795 0.0483179 0.0462102 0.0452803 0.0423545 0.0419088 0.0397618 0.0394161 0.0412148 0.0387576 0.0413362
threshold=11.750000000000002 553377.18750000012 147922.53125000003 730204.96875000012 398371.35937500006 -1.527306020259857 0.56334051489830028 4.5000000000000009 2.3681035041809086 4.5000000000000009 0.93995690345764171 1.5000000000000002 -1.6239224672317503 3.5000000000000004 1.0000000180025095e-35 531249.62500000012 0.26780438423156744 451268.21875000006 7.7797415256500253 0.9946616291999818 60513.695312500007 1.6422285437583926 0.67499998211860668 1.0000000180025095e-35 2.5000000000000004 115.50000000000001 29.500000000000004 0.97505551576614391 2.0419396162033085 1.990732789039612
decision_type=2 2 2 2 2 2 2 2 2 2 2 2 2 2 2 2 2 2 2 2 2 2 2 2 2 2 2 2 2 2
left_child=1 4 14 6 7 20 11 13 16 15 18 -3 -13 -1 -2 26 21 -10 -5 25 -6 -4 -8 -16 -17 -9 27 -7 29 -24
right_child=2 3 8 10 5 9 22 19 17 -11 -12 12 -14 -15 23 24 -18 -19 -20 -21 -22 -23 28 -25 -26 -27 -28 -29 -30 -31
leaf_value=0.0070940522906658733 -0.010193581735965476 0.015982027393248346 -0.0052074632298068279 0.013135409727692605 0.0072802344709634792 0.0055150466866456388 0.011874574576230611 0.002436080978562434 -0.001468874320410881 0.0020572557881574282 0.01140538090839982 0.015751374448123186 0.0095892259829019298 0.0011837630924488348 -0.0072928303295983106 0.013150311447679997 -0.0014712242313715466 0.0088056467473506938 0.021278947591781616 -0.011257900244423323 0.014964970967008008 -0.011757998075336219 0.0053670258167011001 -0.0099597114717235452 0.0069139147147352841 -0.0051787715332466183 0.013633533939719202 0.00068132549111562027 -0.00045422354014590383 0.011899640683371288
leaf_weight=21 134 36 105 8.9999999999999982 14.999999999999998 89 17 12.000000000000002 96 70 13.999999999999998 23 87 93 305 15.999999999999998 34 4.9999999999999991 42 6.9999999999999991 18 11.999999999999998 38 74 33 15.999999999999998 4.9999999999999991 22 7.9999999999999991 12.999999999999998
leaf_count=21 134 36 105 9 15 89 17 12 96 70 14 23 87 93 305 16 34 5 42 7 18 12 38 74 33 16 5 22 8 13
internal_value=1.34245e-11 0.00733261 -0.00674792 0.0121965 0.00398507 0.00572814 0.01049 0.000849882 -0.00331304 0.00492157 0.0180248 0.0121363 0.0108777 0.0022725 -0.00843523 0.00613673 -0.00488676 -0.000960235 0.0198419 -0.00378379 0.0114719 -0.00587931 0.00732732 -0.00781354 0.00895029 -0.00191526 0.00494824 0.00455701 0.00601709 0.0070322
internal_weight=1469 704 765 287 417 268 222 149 252 235 65 146 110 114 513 165 151 101 51 35 33 117 76 379 49 28 116 111 59 51
internal_count=1469 704 765 287 417 268 222 149 252 235 65 146 110 114 513 165 151 101 51 35 33 117 76 379 49 28 116 111 59 51
is_linear=0
shrinkage=0.1


Tree=25
num_leaves=31
num_cat=0
split_feature=50 50 69 50 79 34 12 79 34 12 62 13 34 50 13 58 33 50 26 1 20 71 71 1 34 72 5 79 13 59
split_gain=5.89473 0.952918 0.328495 0.231213 0.167387 0.106782 0.0951742 0.0853673 0.0831617 0.076679 0.0678981 0.0633274 0.0591675 0.0518445 0.0512976 0.0496943 0.0485802 0.0484199 0.0470195 0.0462616 0.0453956 0.0446815 0.0414976 0.0448931 0.0391038 0.0375502 0.0365077 0.0358639 0.0351918 0.0351189
threshold=301612.81250000006 553377.18750000012 123130.07812500001 730204.96875000012 5.5814654827117929 1.5000000000000002 -0.87575399875640858 3.508836150169373 1.5000000000000002 -1.5924558639526365 609360.81250000012 0.93995690345764171 1.5000000000000002 472977.65625000006 2.0419396162033085 11.526077747344972 41.500000000000007 422494.87500000006 0.3657089769840241 1840.9530029296877 1.0000000180025095e-35 92350.707031250015 70856.816406250015 1599.685974121094 2.5000000000000004 576237.00000000012 9.6273703575134295 8.4370689392089862 1.9070258140563967 351580.78125000006
decision_type=2 2 2 2 2 2 2 2 2 2 2 2 2 2 2 2 2 2 2 2 2 2 2 2 2 2 2 2 2 2
left_child=2 4 20 6 9 13 19 16 21 -2 22 25 18 26 27 17 28 -14 -11 -3 -1 -8 29 -24 -9 -5 -6 -10 -4 -7
right_child=1 3 7 11 5 10 8 24 14 12 -12 -13 15 -15 -16 -17 -18 -19 -20 -21 -22 -23 23 -25 -26 -27 -28 -29 -30 -31
leaf_value=-0.0094512682528265068 0.0099052230641245853 0.014766524512416277 -0.0046644646298831345 0.011054699442216329 0.0039962956332601609 -0.0016223052614613585 0.013229358287119283 0.0020995950630590828 0.0053627744008301068 -0.00033575344229272257 0.0081381386365084098 0.01026484277099371 -0.0036227500261328018 0.013078221678733827 -0.0012287157188568796 0.0032208997922550352 -0.00074518214791051808 0.0010927732032111014 0.0051451435315215755 0.0045496160443872216 -0.0072143046646041403 0.0045847848057746889 0.0045084029901772734 0.014266873399416605 -0.0028888140079410128 0.018939957818524405 0.010522571379939715 0.0088918164375467925 -0.010250016177694004 0.0030957322602438173
leaf_weight=124 9.9999999999999982 39 188 6.9999999999999991 20 19 41 33 46 24 34 13.999999999999998 51 21 6.9999999999999991 28 31 38 45 4.9999999999999991 338 6.9999999999999991 22.000000000000004 5.9999999999999991 30 44 14.999999999999998 77 11.999999999999998 93
leaf_count=124 10 39 188 7 20 19 41 33 46 24 34 14 51 21 7 28 31 38 45 5 338 7 22 6 30 44 15 77 12 93
internal_value=8.53105e-12 0.00652285 -0.00615184 0.0109768 0.00352217 0.00535204 0.00944097 -0.00353877 0.00841154 0.00137488 0.00412967 0.0162223 0.000916256 0.00915013 0.00709813 -0.000453416 -0.00442866 -0.00160938 0.00323874 0.0136055 -0.0078147 0.0119687 0.00315618 0.0065995 -0.000275838 0.0178577 0.00679327 0.00757201 -0.0049996 0.00229535
internal_weight=1469 713 756 287 426 230 222 294 178 196 174 65 186 56 130 117 231 89 69 44 462 48 140 28 63 51 35 123 200 112
internal_count=1469 713 756 287 426 230 222 294 178 196 174 65 186 56 130 117 231 89 69 44 462 48 140 28 63 51 35 123 200 112
is_linear=0
shrinkage=0.1


Tree=26
num_leaves=31
num_cat=0
split_feature=50 50 67 79 50 0 12 14 14 79 12 66 73 19 7 19 19 12 12 28 65 8 0 65 27 71 14 57 45 70
split_gain=4.77989 0.717625 0.339197 0.147343 0.141035 0.113421 0.0964387 0.0769824 0.0751272 0.0624101 0.0579783 0.0574435 0.0526698 0.0477249 0.0468752 0.0466112 0.0453283 0.039926 0.0385998 0.039606 0.043526 0.0378648 0.0378135 0.039501 0.0361702 0.0355195 0.0354393 0.0349191 0.0312266 0.0267693
threshold=326841.06250000006 583634.43750000012 147922.53125000003 12.105603218078615 456584.35937500006 69588.515625000015 -2.0007218122482295 1.2710341215133669 1.061201870441437 0.67737069725990307 2.1736466884613042 696667.56250000012 376027.75000000006 2021.5000000000002 21.597111701965336 2018.5000000000002 2019.5000000000002 -0.87575399875640858 -2.6527460813522334 1.5000000000000002 0.86996418237686168 5.078313112258912 121564.96484375001 0.75988474488258373 0.96683886647224437 42508.869140625007 -0.68927183747291554 0.66810345649719249 1.5000000000000002 297674.35937500006
decision_type=2 2 2 2 2 2 2 2 2 2 2 2 2 2 2 2 2 2 2 2 2 2 2 2 2 2 2 2 2 2
left_child=2 4 14 10 7 -5 -4 18 12 27 11 25 -6 -11 -1 28 17 -14 -2 20 -20 -18 23 -21 -22 -3 -27 -8 -7 -29
right_child=1 3 6 5 8 15 9 -9 -10 13 -12 -13 16 -15 -16 -17 21 -19 19 22 24 -23 -24 -25 -26 26 -28 29 -30 -31
leaf_value=-0.0061811001036199097 0.011319451928138734 0.010204372231442577 0.0050845498597482221 0.021458868945346161 -0.0037438722886145117 0.0083907387529810265 0.0016318423906341196 -0.004009486033924317 0.0014667475010847321 -0.00092189290469183848 0.0015125674032606185 0.012276597381771906 0.011021898961142494 -0.0067121979605872188 -0.0082417850766796624 0.009406884898974871 0.0090391912661931095 0.00677165531009592 0.0074493358104388927 -0.0031452198357631769 0.0043359932062836982 0.0037209498130583336 0.0053034075832163749 0.0016339745012002673 -0.0025888086656447162 0.011889929241604275 0.0049750962003599856 -0.0059114646800078972 0.016394148709682321 -0.0013333718354503314
leaf_weight=356 4.9999999999999991 39 15.999999999999998 17 4.9999999999999991 5.9999999999999991 7.9999999999999991 19 37 129 9.9999999999999982 46 31 15.999999999999998 160 30 17 77 28 21 24 63 22 98 10.999999999999998 8.9999999999999982 42 86 26 14.999999999999998
leaf_count=356 5 39 16 17 5 6 8 19 37 129 10 46 31 16 160 30 17 77 28 21 24 63 22 98 11 9 42 86 26 15
internal_value=1.43557e-11 0.00611926 -0.00531737 0.0107439 0.00384732 0.0142228 -0.00244555 0.00208483 0.00559449 -0.00291989 0.00886153 0.00940189 0.00638582 -0.00156082 -0.00682007 0.0122387 0.00665523 0.00799163 0.00263885 0.00242609 0.00451061 0.00485108 0.00149472 0.000790587 0.00215963 0.0079326 0.00619536 -0.00472781 0.0148935 -0.00523155
internal_weight=1469 683 786 225 458 79 270 228 230 254 146 136 193 145 516 62 188 108 209 204 63 80 141 119 35 90 51 109 32 101
internal_count=1469 683 786 225 458 79 270 228 230 254 146 136 193 145 516 62 188 108 209 204 63 80 141 119 35 90 51 109 32 101
is_linear=0
shrinkage=0.1


Tree=27
num_leaves=31
num_cat=0
split_feature=3 50 67 48 19 34 34 41 34 48 19 50 19 72 70 12 50 68 50 34 48 57 27 27 19 60 46 65 5 31
split_gain=3.90037 0.62669 0.232633 0.203824 0.116045 0.0813528 0.0732196 0.0653531 0.0638736 0.0553796 0.0509141 0.0498031 0.0473362 0.042086 0.0412303 0.0411939 0.0434006 0.0404039 0.0391437 0.0403443 0.0363626 0.0355682 0.0353259 0.0347854 0.0321879 0.0376655 0.030921 0.0294702 0.0291892 0.0284103
threshold=11.750000000000002 505155.37500000006 141919.46875000003 12.114223957061769 2018.5000000000002 4.5000000000000009 4.5000000000000009 2.5000000000000004 3.5000000000000004 3.76616382598877 2017.5000000000002 398371.35937500006 2019.5000000000002 483419.90625000006 352860.98437500006 -2.5437211990356441 378823.90625000006 78592.878906250015 62968.876953125007 4.5000000000000009 8.1900858879089373 14.000431060791017 0.62540480494499218 0.9946616291999818 2018.5000000000002 5.5243535041809091 1.0000000180025095e-35 0.7678089737892152 10.764655113220217 337.50000000000006
decision_type=2 2 2 2 2 2 2 2 2 2 2 2 2 2 2 2 2 2 2 2 2 2 2 2 2 2 2 2 2 2
left_child=1 5 18 6 17 7 10 14 9 22 20 23 27 -6 28 -9 -17 -5 -2 26 -3 29 -4 -7 25 -18 -20 -11 -1 -8
right_child=2 3 8 4 13 11 21 15 -10 12 -12 -13 -14 -15 -16 16 24 -19 19 -21 -22 -23 -24 -25 -26 -27 -28 -29 -30 -31
leaf_value=-0.0045108168805018068 -0.0079765065518372213 0.0061736989360890058 -0.00058664743916597229 0.013140454894766727 0.0022461763047613207 -0.0016066713705575758 0.0054967525895874671 0.0089706109422776435 -0.0042759831245706157 0.0107448315868775 0.0060672359570162378 0.0015636201623904829 -0.0018050633459573704 0.0094040490200986045 0.0078353531824957058 1.9152657174046581e-05 0.011253908957587556 0.01951510198414326 -0.0048500389195914222 -0.0072190753735888458 0.010996793489903213 -0.004256892716512084 -0.0043093644051203648 -0.0094880963808723871 0.0020379682734767957 0.0038485918322513843 -0.010519538018852474 0.0027056946039297862 0.0048469349928200248 0.00028952572566385453
leaf_weight=4.9999999999999991 102 22 50 58 9.9999999999999982 28 54 8.9999999999999982 122 6.0000000000000027 88 60 21 46 42 67 8.9999999999999982 11.999999999999998 253 130 54 4.9999999999999991 52 6.9999999999999991 76 29 9.9999999999999982 19 9.9999999999999982 12.999999999999998
leaf_count=5 102 22 50 58 10 28 54 9 122 6 88 60 21 46 42 67 9 12 253 130 54 5 52 7 76 29 10 19 10 13
internal_value=1.45569e-11 0.00537139 -0.00494308 0.00827139 0.0115189 0.00230179 0.00653758 0.00325829 -0.00258192 -0.00118546 0.00770466 -0.000185119 0.00169502 0.00812586 0.00622807 0.00236736 0.00203902 0.0142333 -0.00623099 -0.00577795 0.00960063 0.00387922 -0.0024845 -0.00318296 0.00322614 0.00560248 -0.00506561 0.00463509 0.00172768 0.0044864
internal_weight=1469 704 765 362 126 342 236 247 270 148 164 95 46 56 57 190 181 70 495 393 76 72 102 35 114 38 263 25 15 67
internal_count=1469 704 765 362 126 342 236 247 270 148 164 95 46 56 57 190 181 70 495 393 76 72 102 35 114 38 263 25 15 67
is_linear=0
shrinkage=0.1


Tree=28
num_leaves=31
num_cat=0
split_feature=2 50 79 79 0 19 34 43 0 34 26 26 71 66 11 34 50 2 26 20 60 53 31 13 74 52 0 2 14 1
split_gain=3.1593 0.507619 0.209816 0.183963 0.0939161 0.06855 0.0658958 0.0599026 0.0545436 0.0520661 0.0471005 0.0459706 0.0475331 0.0458682 0.0423816 0.0411999 0.0405282 0.0387101 0.0368786 0.0343208 0.0333417 0.0328469 0.0327304 0.0294488 0.0285805 0.027924 0.0262704 0.0252603 0.0250289 0.0238606
threshold=11.750000000000002 505155.37500000006 0.57952585816383373 12.105603218078615 69588.515625000015 2019.5000000000002 4.5000000000000009 3.5000000000000004 98149.023437500015 1.5000000000000002 0.86527520418167125 0.16704543679952624 61336.386718750007 696667.56250000012 -2.7012931108474727 5.5000000000000009 378823.90625000006 12.535129070281984 0.030119189061224464 1.0000000180025095e-35 7.6308188438415536 205269.90625000003 352.50000000000006 0.99769398570060741 55552.457031250007 25.072845458984379 51224.207031250007 5.4715516567230233 1.061201870441437 1578.2969970703127
decision_type=2 2 2 2 2 2 2 2 2 2 2 2 2 2 2 2 2 2 2 2 2 2 2 2 2 2 2 2 2 2
left_child=1 6 8 5 -5 13 7 -1 17 21 -6 12 -8 15 -9 22 -16 -2 26 -19 29 -4 24 27 -3 -21 -11 -15 -7 -18
right_child=2 3 9 4 10 28 11 14 -10 18 -12 -13 -14 23 16 -17 20 19 -20 25 -22 -23 -24 -25 -26 -27 -28 -29 -30 -31
leaf_value=0.0060629316433380379 -0.00025393692060158803 0.010106937494128942 -0.00070716572530648636 0.017823932485447991 0.013872207235544921 0.0046802760656685276 -0.0066245045409434366 0.0066483697118727789 -0.001676216535978145 -3.2295344178290924e-05 0.0081618639180445676 0.0012195291705532274 0.0022761623064676923 0.010156051449012011 -0.00033592890094951149 0.0028492357878913653 0.0036660062970922274 -0.0069080759836570096 -0.00031104885533245078 -0.00494954745335471 0.0010558741101704074 0.0051928824890637775 0.00082583120674826213 0.006826901151553582 0.0065477849292609807 -0.0083556995655481633 -0.0043756723540000521 0.017135763061898096 0.00052770433304387898 0.009540047321934253
leaf_weight=49 12.999999999999998 30 23 18 20 47 18.000000000000004 19 37 17 52 68 8.9999999999999982 20.000000000000004 64 29 51 178 54 324 56 15.999999999999998 7.9999999999999991 19 91 26 77 6.9999999999999991 21 7.9999999999999991
leaf_count=49 13 30 23 18 20 47 18 19 37 17 52 68 9 20 64 29 51 178 54 324 56 16 8 19 91 26 77 7 21 8
internal_value=-8.36017e-12 0.00483425 -0.00444877 0.00744425 0.0113632 0.00614753 0.00207161 0.00293247 -0.00539076 -0.00153717 0.00974807 -0.000166607 -0.00365762 0.00706409 0.00215775 0.00625501 0.0016811 -0.00564481 -0.00239373 -0.00577754 0.00280361 0.00171337 0.00702064 0.0098431 0.00743022 -0.00520258 -0.00359017 0.0119656 0.00339786 0.00446249
internal_weight=1469 704 765 362 90 272 342 247 578 187 72 95 27 204 198 158 179 541 148 528 115 39 129 46 121 350 94 27 68 59
internal_count=1469 704 765 362 90 272 342 247 578 187 72 95 27 204 198 158 179 541 148 528 115 39 129 46 121 350 94 27 68 59
is_linear=0
shrinkage=0.1


Tree=29
num_leaves=31
num_cat=0
split_feature=50 50 2 2 79 79 48 72 34 19 34 19 19 26 43 34 0 69 26 5 54 32 19 55 38 32 48 34 26 62
split_gain=2.57063 0.430225 0.137077 0.0982762 0.0958099 0.0561554 0.0533049 0.0530538 0.0574046 0.0510659 0.0475378 0.0457577 0.0414406 0.0420139 0.0365056 0.0355747 0.0341369 0.0329027 0.0325116 0.0320248 0.0305917 0.0329052 0.0285571 0.027388 0.0270799 0.0268496 0.0265491 0.0263135 0.0262072 0.0245857
threshold=292519.48437500006 578782.53125000012 17.468318939208988 3.143318891525269 6.7855601310729989 8.1995687484741229 11.167241573333742 565925.03125000012 1.5000000000000002 2018.5000000000002 3.5000000000000004 2017.5000000000002 2019.5000000000002 0.20088311284780505 3.5000000000000004 1.5000000000000002 82457.347656250015 344401.46875000006 1.0000000180025095e-35 11.872844696044924 6.8219826221466073 9.5000000000000018 2016.5000000000002 5.1245689392089853 1.0000000180025095e-35 13.500000000000002 3.8230603933334355 1.5000000000000002 0.94968265295028698 530041.46875000012
decision_type=2 2 2 2 2 2 2 2 2 2 2 2 2 2 2 2 2 2 2 2 2 2 2 2 2 2 2 2 2 2
left_child=2 4 10 9 6 -5 12 8 17 -3 14 15 13 20 22 -7 -14 -6 -12 -20 -2 -22 -1 -10 -4 -18 -16 29 -19 -15
right_child=1 3 24 5 7 11 -8 -9 23 -11 18 -13 16 27 26 -17 25 28 19 -21 21 -23 -24 -25 -26 -27 -28 -29 -30 -31
leaf_value=0.0083141327649354935 0.0018884344653298077 0.012813958064045596 -0.0048633648601503479 0.0036552386793118788 -0.0011471394449472428 0.014736396108161321 0.0067552714005989188 0.0073826211220698384 -0.0037813630753329823 0.0074557683719643237 -0.0048406593796640343 0.0055190169663826691 -0.0068780668778344991 0.0027470613082793234 -0.0030369307282956839 0.0083924155294274293 0.0018429442345755311 0.0085745817727663314 -0.0090009518712759022 -0.00046013958247688908 -0.0088367025900099924 -0.00061640905041713276 0.0002349452122247645 0.0026535398131818512 -0.0067816078623241577 -0.0015793427455579288 0.00028475954895839094 0.0020090899589520535 0.0013898590036357443 0.0080499784555286176
leaf_weight=4.9999999999999991 26 46 339 52 4.9999999999999991 10.999999999999998 17 41 6.9999999999999991 29 101 52 7.9999999999999991 18 97 45 41 33 4.9999999999999991 36 7.0000000000000027 15.999999999999998 35 120 94 52 32 76 5.9999999999999991 17
leaf_count=5 26 46 339 52 5 11 17 41 7 29 101 52 8 18 97 45 41 33 5 36 7 16 35 120 94 52 32 76 6 17
internal_value=3.44234e-13 0.00423766 -0.00412944 0.00775523 0.00255066 0.00635513 0.00132956 0.00415192 0.00337731 0.0107421 -0.00252782 0.00765507 0.00097616 0.0019773 -0.00139453 0.00963855 -0.000609798 0.00649011 -0.00387659 -0.0015017 -0.000461636 -0.00311824 0.00124484 0.00229886 -0.0052798 -7.05926e-05 -0.00221295 0.00305394 0.00746924 0.00532276
internal_weight=1469 725 744 235 490 160 278 212 171 75 311 108 261 160 169 56 101 44 142 41 49 23 40 127 433 93 129 111 39 35
internal_count=1469 725 744 235 490 160 278 212 171 75 311 108 261 160 169 56 101 44 142 41 49 23 40 127 433 93 129 111 39 35
is_linear=0
shrinkage=0.1


Tree=30
num_leaves=31
num_cat=0
split_feature=50 48 79 79 19 62 19 79 26 63 26 57 63 47 34 68 34 71 26 74 63 62 62 62 13 28 59 59 60 67
split_gain=2.08221 0.357547 0.131076 0.11375 0.0820463 0.0733031 0.0688299 0.0408357 0.0400836 0.0353559 0.0337342 0.0321544 0.0298895 0.0293803 0.0291549 0.0348196 0.028246 0.0276998 0.0274141 0.0265671 0.0319003 0.0258413 0.0250922 0.0231486 0.0297442 0.0230283 0.0224322 0.0221829 0.0248193 0.0267146
threshold=292519.48437500006 11.167241573333742 8.2775864601135272 0.57952585816383373 2018.5000000000002 577558.59375000012 2017.5000000000002 12.105603218078615 -0.70250144600868214 0.96250000596046459 0.16704543679952624 4.8250000476837167 8.9168100357055682 11.970416545867922 1.5000000000000002 73544.039062500015 1.5000000000000002 99423.945312500015 -0.05591491982340812 64585.707031250007 8.5741376876831072 427248.10937500006 76997.707031250015 588453.25000000012 -0.24607758224010465 1.5000000000000002 385503.04687500006 256773.30468750003 8.3823275566101092 344453.85937500006
decision_type=2 2 2 2 2 2 2 2 2 2 2 2 2 2 2 2 2 2 2 2 2 2 2 2 2 2 2 2 2 2
left_child=3 2 5 8 7 11 -4 -3 22 -8 -11 -2 25 27 -9 -16 -5 -14 -18 20 -15 -10 -1 -6 -25 -7 -12 -13 29 -29
right_child=1 4 6 16 23 12 9 14 21 10 26 13 17 19 15 -17 18 -19 -20 -21 -22 -23 -24 24 -26 -27 -28 28 -30 -31
leaf_value=-0.0065383931978585871 0.0029515854938297857 0.0073849306500051171 0.008032607460603575 0.00084199361310045178 0.0042638694481380909 0.013682013005018237 -0.004693669639527798 0.016351900845766067 -0.0036672904473325275 -0.0013216441412540999 0.0085695568782587841 -0.0042706823442131281 0.0024424725709832275 -0.0020179300665341573 0.0084160661742348104 0.01464431148308974 -0.0033120170055190102 0.0072640923117952691 -0.00030844000937911326 0.00054889386185095644 -0.0095393636396953058 0.0024882971575217591 -0.0045697017546234963 0.010090888972933353 0.0037315103380630415 0.00449304380454123 0.0039367447160960486 -0.0045967204030603172 -0.00010746852076875095 0.0029767767141011601
leaf_weight=94 49 45 49 41 60 4.9999999999999982 4.9999999999999991 9.9999999999999982 265 10.999999999999998 11.999999999999998 7.9999999999999991 80 29 29 12.999999999999998 80 13.999999999999998 49 30 6.9999999999999991 6.9999999999999991 208 19.000000000000004 11.999999999999998 6 81 4.9999999999999991 78 68
leaf_count=94 49 45 49 41 60 5 5 10 265 11 12 8 80 29 29 13 80 14 49 30 7 7 208 19 12 6 81 5 78 68
internal_value=1.2115e-12 0.0038139 0.00249991 -0.0037165 0.00756713 0.00149117 0.00491964 0.00959054 -0.00438941 0.00352023 0.00391512 0.000630249 0.00373775 0.000124713 0.0114992 0.0103439 -0.00144443 0.00316059 -0.00217112 -0.00164892 -0.00348043 -0.00350887 -0.00518247 0.0054103 0.00762919 0.00866985 0.00453453 0.000860938 0.00113281 0.00245804
internal_weight=1469 725 537 744 188 379 158 97 574 109 104 274 105 225 52 42 170 94 129 66 36 272 302 91 31 11 93 159 151 73
internal_count=1469 725 537 744 188 379 158 97 574 109 104 274 105 225 52 42 170 94 129 66 36 272 302 91 31 11 93 159 151 73
is_linear=0
shrinkage=0.1


Tree=31
num_leaves=31
num_cat=0
split_feature=48 70 79 79 26 11 45 0 26 67 14 0 66 14 59 27 32 50 64 11 74 56 0 26 72 70 32 61 54 65
split_gain=1.69677 0.260435 0.132296 0.0969437 0.0524171 0.0514794 0.0512114 0.0420441 0.0383481 0.0363403 0.0352932 0.0299895 0.0268727 0.0266189 0.0244691 0.0237503 0.0235973 0.0228969 0.022628 0.0218199 0.0263328 0.0247597 0.0215412 0.0204813 0.036042 0.0198646 0.0197365 0.0239761 0.0206504 0.0182861
threshold=5.0515086650848398 539850.03125000012 0.57952585816383373 11.667026042938234 0.41326330602169042 -1.3161637783050535 1.5000000000000002 94936.296875000015 0.20088311284780505 212616.03906250003 1.061201870441437 43241.595703125007 696667.56250000012 -1.3743986487388609 61075.226562500007 -0.42109696567058558 13.500000000000002 416776.60937500006 6.7922415733337411 -0.094181034713983522 41384.775390625007 311348.65625000006 97657.699218750015 0.16704543679952624 453109.95312500006 459531.00000000006 15.500000000000002 6.4543101787567148 12.137930870056154 1.1090483665466311
decision_type=2 2 2 2 2 2 2 2 2 2 2 2 2 2 2 2 2 2 2 2 2 2 2 2 2 2 2 2 2 2
left_child=2 4 8 10 5 18 29 16 14 -4 12 -7 -3 25 -1 22 -8 -13 -2 21 -21 -15 -11 -19 -25 -6 27 -12 -28 -5
right_child=1 3 9 6 13 11 7 -9 -10 15 26 17 -14 19 -16 -17 -18 23 -20 20 -22 -23 -24 24 -26 -27 28 -29 -30 -31
leaf_value=-0.0058453346305112871 0.0098332922579720625 0.0047169508762563844 -0.0023018298385888525 -0.001620818879455328 0.0035911251786509878 0.0053214312465570401 0.0081299156571427982 0.0070941442856565125 -0.00066608265581581856 0.0055961454890036408 0.0020972227735910564 -0.0023076035745525888 0.0078913048234288442 -0.004031241056509316 -0.0038678636435525507 -0.00061744177736626537 0.013430107464747772 -0.0012881781106653554 0.0026540419441314755 -0.0018856430659070613 0.0041662005669909569 0.0017939386425430449 0.00022494293225463482 0.0077221133953167308 -0.00051021653299148273 0.0082329214217939563 0.0026640942537536219 0.0088020872091874487 -0.0032025395147502428 0.005672733185135506
leaf_weight=72 4.9999999999999991 139 102 4.9999999999999991 27 7.9999999999999991 11.999999999999998 35 34 14.000000000000002 16.000000000000004 61 33 7.9999999999999991 478 72 28 26 36 7.9999999999999991 71 83 15.999999999999998 9.0000000000000018 12.999999999999998 13.999999999999998 15.000000000000002 7.9999999999999991 9.9999999999999982 10.999999999999998
leaf_count=72 5 139 102 5 27 8 12 35 34 14 16 61 33 8 478 72 28 26 36 8 71 83 16 9 13 14 15 8 10 11
internal_value=5.7544e-12 0.00365587 -0.00315945 0.0057826 0.00185766 0.000480337 0.00852959 0.00962529 -0.00392526 -0.000967144 0.00465148 -0.000588195 0.00532598 0.00288902 -0.00412673 0.000367542 0.01184 -0.00102193 0.00352956 0.00233742 0.00355336 0.00128183 0.0027315 0.000611949 0.00285755 0.00517613 0.00228384 0.00433218 0.000317441 0.0033935
internal_weight=1469 681 788 312 369 158 91 75 584 204 221 117 172 211 550 102 40 109 41 170 79 91 30 48 22 41 49 24 25 16
internal_count=1469 681 788 312 369 158 91 75 584 204 221 117 172 211 550 102 40 109 41 170 79 91 30 48 22 41 49 24 25 16
is_linear=0
shrinkage=0.1


Tree=32
num_leaves=31
num_cat=0
split_feature=2 69 69 2 79 34 43 34 19 43 65 33 5 74 65 50 14 65 71 1 26 43 60 1 46 20 50 12 19 48
split_gain=1.37902 0.227357 0.092696 0.0766797 0.0657678 0.0456576 0.0447037 0.0389492 0.0388445 0.0385172 0.0378894 0.035725 0.0350129 0.0307775 0.0283421 0.0278673 0.0271732 0.0436057 0.0241682 0.0256907 0.0240051 0.023584 0.0224219 0.0223438 0.021306 0.0220602 0.0212237 0.0214956 0.021216 0.0331401
threshold=11.750000000000002 593616.96875000012 186965.88281250003 7.1469829082489023 7.5271551609039316 4.5000000000000009 1.5000000000000002 4.5000000000000009 2020.5000000000002 3.5000000000000004 1.2396634817123415 34.500000000000007 4.7784483432769784 48162.919921875007 1.0932209491729739 721399.96875000012 -0.68927183747291554 1.7695142030715945 74223.031250000015 921.49798583984386 0.16704543679952624 3.5000000000000004 12.757758617401125 1125.569519042969 1.0000000180025095e-35 1.0000000180025095e-35 458933.65625000006 -0.26585952937602991 2021.5000000000002 9.8862071037292498
decision_type=2 2 2 2 2 2 2 2 2 2 2 2 2 2 2 2 2 2 2 2 2 2 2 2 2 2 2 2 2 2
left_child=1 3 11 16 14 8 12 9 26 -4 21 24 15 -10 -3 -6 17 -1 19 -7 -21 22 -8 -20 25 -2 -5 -28 29 -18
right_child=2 4 7 5 6 18 10 -9 13 -11 -12 -13 -14 -15 -16 -17 28 -19 23 20 -22 -23 -24 -25 -26 -27 27 -29 -30 -31
